 -13
  11
  18
  33
  23
  38
  -6
  -8
  -2
  24
  33
  -5
 -24
  22
 -25
  26
  20
   0
  -3
  39
   0
 -15
 -38
  28
  -8
 -28
 -12
  44
   8
  15
 -24
  -1
 -14
 -10
  -2
  15
 -16
  11
   5
 -17
  -4
  79
  -1
 -14
 -12
  23
  12
   6
 -25
 -11
 -18
 -14
  17
  -1
  -3
   1
 -10
  16
  -5
  -5
   6
  12
  22
  29
  15
  16
  12
 -49
 -39
   9
 -23
 -29
  -5
  38
  19
 -20
  13
 -20
  27
  75
  26
  -1
   3
 -22
 -93
 127
 -94
 -16
  27
  21
  10
  95
 -17
  23
  -7
  54
 -39
  17
   1
  14
  32
   6
   1
 -22
 -21
   8
   5
  48
   3
 -29
  37
 -25
 -23
  23
  26
  30
  -1
   4
   7
 -12
  14
  -2
   9
  12
   7
   8
 -15
 -25
   5
  27
  74
  22
  40
  30
  50
 -53
 -20
  41
  81
 111
 -69
 -25
 -32
 -40
   8
  38
  32
   4
  38
  29
 -11
  -1
 -34
  35
  23
   0
 -29
   6
  15
  42
  14
 -23
 -26
 -42
   8
  39
  28
  30
   2
  52
   6
 -21
  30
  16
 -11
  -2
  23
  10
 -20
 -17
  28
 -26
   0
   4
 -30
 -25
 -21
 -86
  25
 -16
   1
  25
  -6
 -49
-100
 -48
  -8
  26
 -56
 117
  62
  55
 -77
 -37
  71
  64
  12
  39
  -5
  30
  80
  24
  30
 -18
  52
 -53
 -75
   6
  67
  47
 -74
 -43
  -8
 -66
  -3
  27
  81
  31
  -8
 -11
  26
 -69
 -32
  -4
  47
  23
 -41
 -40
 -10
   7
 -12
   6
  17
  18
 -19
  -6
 -21
  -9
   5
 -43
 -14
   1
  13
  -9
  13
  29
