 -19
 -64
   6
 -45
 -46
 -32
  18
 -41
 -35
 -59
 -38
  52
  27
  30
 -23
 -33
 -15
   7
 -28
  61
  36
 -58
 -34
 -19
  24
   8
 -24
 -31
  50
 -25
  10
  35
  18
  38
 -42
  59
  40
 -39
 -66
   6
   6
  14
 -61
 -69
  85
  21
  -1
 -11
  40
  57
 -48
  41
   3
 -50
 -53
 -23
 -10
 -24
 -33
  -8
  12
 -11
  12
  41
 -14
  89
 -86
  -7
  16
 -17
 -74
 -10
  30
 -56
 -11
 -56
  50
 -39
  39
   1
  49
-111
 -25
 -31
  63
 -37
  52
  -3
 -23
   5
  24
  13
  48
 -15
 -25
   6
  10
  74
 -48
  47
  -8
  -4
 -42
  21
  26
 -14
  17
 -57
  -8
 -17
  35
  -6
 -24
   5
  20
 -68
  -6
  21
  23
 -21
 -31
 -37
  37
  57
 -87
 -20
 -35
  13
   6
 -48
  12
   1
 -27
 -13
  38
  -2
 -18
  45
  30
  72
 -68
 -13
 -95
  -7
 -45
 -10
 -61
 -43
  95
 -44
  28
  50
 -29
  10
  37
 -44
 -15
   9
  10
  30
  46
  -9
 -51
  50
  14
 -55
 -67
  14
 -24
 -30
 -35
 -78
  52
  27
  40
  30
 102
 -26
 -92
  35
  31
  -1
 127
  13
 -53
  14
 -64
   2
  59
   3
 -18
   6
 -29
  -4
  56
 -34
 -45
  35
  72
   3
   3
   1
  32
  60
 -69
 -26
  -4
 -34
 -35
 -47
 -42
 -12
   8
 -21
  19
 -20
 -32
 -35
  51
  61
 -29
   8
 -26
  -3
 -70
  37
  62
 -38
 -22
  48
  59
  45
  -1
 103
  42
 -67
  10
  12
  44
  55
 -53
-119
  99
 -50
  28
 -38
  46
  11
 -11
  -8
  14
  44
  31
 -12
   1
   4
