-0.151902
-0.511669
0.047969
-0.359767
-0.367762
-0.255835
0.143907
-0.327788
-0.279819
-0.471695
-0.303804
0.415731
0.215860
0.239845
-0.183881
-0.263829
-0.119922
0.055964
-0.223855
0.487685
0.287814
-0.463700
-0.271824
-0.151902
0.191876
0.063959
-0.191876
-0.247840
0.399741
-0.199871
0.079948
0.279819
0.143907
0.303804
-0.335783
0.471695
0.319793
-0.311798
-0.527659
0.047969
0.047969
0.111928
-0.487685
-0.551643
0.679561
0.167891
-0.007995
-0.087943
0.319793
0.455705
-0.383752
0.327788
0.023984
-0.399741
-0.423726
-0.183881
-0.079948
-0.191876
-0.263829
-0.063959
0.095938
-0.087943
0.095938
0.327788
-0.111928
0.711540
-0.687555
-0.055964
0.127917
-0.135912
-0.591617
-0.079948
0.239845
-0.447710
-0.087943
-0.447710
0.399741
-0.311798
0.311798
0.007995
0.391747
-0.887426
-0.199871
-0.247840
0.503674
-0.295809
0.415731
-0.023984
-0.183881
0.039974
0.191876
0.103933
0.383752
-0.119922
-0.199871
0.047969
0.079948
0.591617
-0.383752
0.375757
-0.063959
-0.031979
-0.335783
0.167891
0.207866
-0.111928
0.135912
-0.455705
-0.063959
-0.135912
0.279819
-0.047969
-0.191876
0.039974
0.159897
-0.543648
-0.047969
0.167891
0.183881
-0.167891
-0.247840
-0.295809
0.295809
0.455705
-0.695550
-0.159897
-0.279819
0.103933
0.047969
-0.383752
0.095938
0.007995
-0.215860
-0.103933
0.303804
-0.015990
-0.143907
0.359767
0.239845
0.575628
-0.543648
-0.103933
-0.759509
-0.055964
-0.359767
-0.079948
-0.487685
-0.343778
0.759509
-0.351773
0.223855
0.399741
-0.231850
0.079948
0.295809
-0.351773
-0.119922
0.071953
0.079948
0.239845
0.367762
-0.071953
-0.407736
0.399741
0.111928
-0.439716
-0.535654
0.111928
-0.191876
-0.239845
-0.279819
-0.623597
0.415731
0.215860
0.319793
0.239845
0.815473
-0.207866
-0.735524
0.279819
0.247840
-0.007995
1.015343
0.103933
-0.423726
0.111928
-0.511669
0.015990
0.471695
0.023984
-0.143907
0.047969
-0.231850
-0.031979
0.447710
-0.271824
-0.359767
0.279819
0.575628
0.023984
0.023984
0.007995
0.255835
0.479690
-0.551643
-0.207866
-0.031979
-0.271824
-0.279819
-0.375757
-0.335783
-0.095938
0.063959
-0.167891
0.151902
-0.159897
-0.255835
-0.279819
0.407736
0.487685
-0.231850
0.063959
-0.207866
-0.023984
-0.559638
0.295809
0.495679
-0.303804
-0.175886
0.383752
0.471695
0.359767
-0.007995
0.823467
0.335783
-0.535654
0.079948
0.095938
0.351773
0.439716
-0.423726
-0.951385
0.791488
-0.399741
0.223855
-0.303804
0.367762
0.087943
-0.087943
-0.063959
0.111928
0.351773
0.247840
-0.095938
0.007995
0.031979
