  -2
 -39
 -42
  -3
  22
   3
  90
   6
  -4
  37
 -39
 -86
   2
  24
  19
  53
 -35
  28
  50
  93
  -3
 -30
 -17
 -19
 -22
 -38
 -16
  83
   5
  -1
  -1
  13
  -1
 -81
  36
  84
   5
 -26
 108
   4
   3
  -4
 -54
  28
 -23
  18
  38
  11
  49
 -56
  27
  52
  33
  44
 -38
  26
 -44
  28
  24
 -33
  28
 -53
 -15
  24
-111
  68
 -37
  37
  40
 -10
 -47
 -36
 -58
 -12
  12
   3
   9
 -25
 -16
  24
   5
-127
  76
  48
 101
 -40
  77
  19
  26
  42
 -64
 -21
 -57
  42
  33
 -20
  13
 -13
 -34
 -10
  28
  33
  73
  35
  22
  30
 -69
  24
 -23
  31
  33
  50
  29
  27
   3
  63
   5
  40
  84
  -7
  39
  33
 -32
-103
 -27
  36
  51
 -84
 -13
  17
  -1
  28
 -25
 -26
 -53
   8
 -12
  30
 -46
  83
  -9
 -11
  20
   5
  27
 -36
  -3
  39
  40
 -37
   6
  19
  10
  25
   4
  70
 -30
  10
  21
   8
  -5
 -78
 -68
 -40
 -81
 -16
  48
  36
   5
 -33
 -43
  10
 -27
  18
  20
 -17
   6
 -20
 -48
 -18
 -63
 -15
  18
   5
  19
 -22
 -44
  36
 -23
  15
  35
  61
 -18
  47
 -47
  68
  28
  71
  26
-110
 -15
   7
  45
  56
   8
 -10
 -13
   1
  39
   6
 -48
 -14
  56
   1
  -2
   2
  18
  64
 -63
  61
 -25
  -4
  35
  49
 -25
  21
 -43
  -4
   0
  52
 -88
  21
 -39
-114
   7
  77
  -2
 -37
 -35
  10
 -61
 -33
   5
 -94
  43
  82
  -7
  33
   8
  26
 -12
 -40
 -12
 -12
   5
  26
