  -7
 -23
  30
 -16
   3
 -21
  -1
   4
  -9
  24
  14
 -33
 -27
 -37
 -16
  23
 -61
  34
  18
  19
 -25
  18
  41
  -7
  35
  -8
 -32
  45
  19
  42
  -6
 -14
   6
  20
 -12
 -26
 -81
 -38
 -19
 -26
  46
 -33
   7
  17
  -5
  25
  -6
  29
 -21
 -30
   0
 -10
 -29
  -3
  -9
   1
  -2
   3
  -2
   7
 -14
  17
 -10
 -26
 -44
 -13
  25
  30
  25
   8
  -9
  43
  35
 -12
 -27
 -14
  59
  -3
 -10
  25
 -22
 -15
  -8
   5
 -44
 -19
  -3
 -24
 -11
 -41
 -18
   3
  -5
  32
  32
 -32
 -26
  45
  -3
 -21
   0
 -20
 -16
 -19
  21
 -20
 -44
   5
  26
 -41
  17
  13
 -20
   3
  37
   9
 -24
  10
  18
   7
  29
 -22
  10
 -26
 -21
   8
  12
 -18
   3
  -5
  37
 -37
 -25
  51
 -24
  -6
   4
  12
 -34
 -25
  23
   0
   5
 -27
 -21
   8
  22
  19
 -30
 -26
 -10
 -39
   1
 -27
 -30
  -2
  41
  29
  37
 -52
  25
  14
  47
  -2
 -65
  -6
   9
  38
  28
  19
   4
  21
  12
 -23
  -4
  37
 -55
 -50
   6
  10
   0
   1
 -12
  14
  -5
  -7
  -2
   9
  -6
  -2
 -10
  36
 -46
  14
 -25
  -2
  20
 -43
  14
 -34
 -19
  17
 -20
  -5
  -5
  -5
   0
 -40
 -44
  -2
 -41
 -18
   4
  -3
  -2
 -33
  32
 -20
  24
  20
  12
 -38
  19
  -8
   7
 -43
 -16
 -36
  36
  -6
  -6
 -23
  22
  18
   7
  -1
 -17
  -4
  13
 -15
 -27
 -30
  31
 -25
 -48
 -11
   3
 -10
  30
  33
 -14
   2
  31
  -9
   5
 -13
 -28
 -30
 -25
   7
  30
  -5
  29
 -42
  16
  -6
  19
  12
 -30
  29
 -46
   8
  21
  21
  -7
   4
  19
   5
 -25
   6
  27
  22
 -16
 -30
 -22
  26
 -13
  -4
   9
 -16
  -4
  23
  22
 -33
 -40
  33
  20
  -5
   9
   1
 -20
 -26
 -40
 -23
   1
 -19
  -4
  -5
  41
 -39
  16
  -1
 -17
  12
  13
  23
  21
  31
  11
   1
 -12
   2
  14
 -38
  12
  27
   1
  35
   7
   9
   2
 -11
 -57
 -39
 -34
   0
 -40
 -18
 -10
  34
  18
   4
  -7
 -22
  27
 -11
 -48
  28
 -39
   0
  11
  27
   5
  19
  -6
  14
   7
 -19
  37
 -17
  29
  13
   6
   4
  29
 -41
 -18
  33
 -28
  -1
  23
  17
   1
  11
   6
 -25
  16
  14
 -31
  -5
  16
 -34
  23
  -5
  16
 -13
  46
  20
 -18
  14
  36
  28
  13
  26
 -11
  14
 -16
 -44
 -39
  22
 -37
 -44
  28
  -3
  19
   3
  -5
 -58
 -23
 -10
 -47
   5
   7
   0
   2
  18
 -11
 -18
  21
  46
  29
 -21
 -11
   5
  29
  21
  -9
 -13
  29
 -39
  18
  48
  19
 -13
  -3
  23
  -5
  19
   3
  -3
 -30
  37
  20
 -22
 -22
 -49
 -32
  10
  19
 -52
  15
  -2
  -7
   3
  48
 -19
   8
  30
 -42
  17
 -29
   1
  -2
  -2
   0
  11
  36
 -15
  11
 -31
  32
 -50
 -45
   2
   6
  35
  28
  28
 -16
 -42
  14
   1
  22
 -14
 -69
 -32
 -11
 -22
  38
   6
  34
  14
  51
  32
  36
  -4
   2
  -3
  42
 -13
 -19
  18
  -2
  39
 -21
 -27
  -6
 -11
 -35
  37
  -8
  37
  -8
  29
  36
 -61
   4
  73
  46
  44
  27
  25
 -27
   0
  47
 -23
 -42
  17
 -16
   0
 -29
  11
  -4
 -13
 -13
 -30
  29
   0
  -4
 -39
  13
 -12
  27
 -22
  22
  20
  47
  11
 -28
 -24
  15
  16
  -4
 -34
   1
   4
  38
 -30
 -16
  17
 -52
 -45
 -15
  -7
 -27
  38
 -13
  18
   0
  10
   5
  -2
 -21
 -20
  -8
  28
  -5
 -23
 -12
  -5
   7
  38
 -11
  -9
  18
 -37
  37
 -10
  30
  46
  22
  24
 -26
  26
 -41
  31
  23
  29
 -40
  25
  18
   1
  13
   6
  41
 -28
  13
  13
   1
 -19
  22
 -22
  -5
  17
  18
   1
 -21
  37
 -14
   6
 -37
  -6
  22
  12
  24
  -9
 -27
 -59
   8
 -31
 -11
  13
 -50
   1
  12
  16
 -21
 -27
 -22
  43
  52
  10
 -25
  10
  54
   8
  12
 -37
  28
 -45
  -7
 -39
  24
  39
 -26
 -15
  12
  -1
 -29
  22
  31
   1
   7
   3
   5
  15
  44
   5
  25
 -19
  10
  18
 -25
  25
   7
  -9
   1
   0
  27
 -16
  14
   5
  52
 -32
  18
  42
  26
  -9
  21
  46
 -48
 -98
  26
 -20
 -22
 -27
 -27
 -13
  27
 -29
   0
  -1
  31
  17
 -35
  12
 -11
  -1
 -33
  48
  33
  31
   6
 -12
 -37
  12
  33
 -31
 -20
 -19
   6
  15
  10
  14
  27
  28
  -6
 -47
 -29
  -9
  30
 -12
  43
   9
 -29
   5
   3
  34
  58
  27
 -84
 -36
 -30
  37
 -16
 -21
  10
   6
  44
   1
  14
 -10
  42
 -12
   4
   3
 -38
  33
  10
  31
   0
  -1
 -19
 -28
   7
   2
 -31
 -10
  23
  -1
 -26
  12
  45
   5
 -33
  -8
  12
 -12
  27
  18
 -11
  45
 -24
 -31
  34
   7
 -42
  -1
   5
 -23
 -45
  37
  45
  33
  35
 -23
  21
  20
   3
  32
 -33
  -1
  28
   9
  -9
  38
 -19
  20
   7
  41
   9
  15
  12
  40
 -16
   1
 -22
 -27
 -28
 -89
  15
  11
 -13
  22
  -8
 -10
  26
  25
  26
   0
   9
  65
  19
   6
  40
 -74
 -15
  63
  32
  23
  27
  28
 -20
  39
   9
   0
 -51
  28
 -14
  32
  20
 -24
   2
  13
  17
 -20
  33
 -42
 -27
   0
  27
  30
 -25
  -5
 -19
  20
   9
   8
 -14
  -9
  28
   6
  -8
  30
 -27
   7
  14
  12
  24
  53
 -43
 -54
 -20
  30
   1
  19
  17
 -13
  15
 -13
   6
   0
 -11
 -25
 -37
  33
 -21
  -4
   4
  42
   2
   8
 -22
 -41
  -3
 -36
   9
 -27
 -25
  14
  30
  -9
 -11
 -25
 -26
  -3
  29
  -7
 -30
  37
  -6
  -2
 -14
 -24
 -19
 -42
 -16
   6
  14
  -4
 -42
 -14
 -19
  31
  -3
  13
  42
  10
  16
  -3
  -1
 -15
  33
 -14
  41
   2
  15
-110
  36
 -43
  -2
  -3
  32
   2
 -14
  26
  -7
 -38
 -19
  40
  -4
 -27
  12
   4
 -10
  37
  -7
 -40
  45
  17
 -34
 -12
  12
  30
 -31
 -40
  -7
   4
  -8
   8
  -7
  28
 -34
  10
  15
 -24
  18
 -42
 -27
 -27
 -43
  48
  10
 -23
   7
  -6
 -22
  17
  39
 -33
 -17
 -12
  -3
 -25
  -3
 -20
 -23
  -1
  16
  17
 -38
 -97
  -4
 -16
 -15
  23
  -5
 -29
  -6
  17
  12
  -1
   0
  49
 -44
   3
  21
 -70
  13
  13
 -16
  -6
  40
  46
 -11
 -27
 -32
  28
  -1
   8
  -8
   5
  20
 -42
 -27
  28
 -27
 -18
  -3
  10
  -2
  30
  27
  31
  35
 -28
  40
 -23
  23
 -25
 -87
   9
 -39
  19
   9
   1
 -10
  -7
  30
  30
  18
 -13
  -7
 -38
  11
  11
  16
  11
 -23
  15
 -28
   6
 -39
  16
 -37
  28
  16
   5
 -29
  -5
 -30
 -69
  20
  29
 -18
  21
  28
  -7
  28
  27
 -63
 -37
 -16
 -19
   1
   0
 -44
 -21
 -35
  32
   7
  -7
  22
  13
 -40
  -7
 -22
 -24
   6
 -22
   0
   8
  35
  15
 -27
  19
 -10
   3
  34
   0
 -20
  -3
  23
 -53
   7
   4
  25
  18
   1
  32
  16
  29
  17
 -10
  18
 -15
 -33
  -6
  23
   4
  37
  34
  26
 -13
   7
  35
 -24
  44
 -23
 -28
  36
  -1
 -10
 -36
 -16
  11
  -5
 -38
  29
  -1
   0
   1
  12
   3
 -41
  13
 -23
  18
  46
 -26
 -31
 -19
 -44
  26
  13
 -18
 -33
  20
 -10
  -8
  26
   7
 -17
   2
 -19
  12
  29
 -14
 -18
 -14
 -20
  31
 -14
 -41
   7
 -43
  -1
 -25
 -17
 -37
  26
  29
  40
  -5
  -3
  65
  19
 -60
  -2
 -15
  -5
   1
 -20
  30
   5
  31
 -14
 -27
  -6
 -19
 -33
 -14
  -8
  15
  16
 -40
  -7
 -29
 -20
 -49
 -19
 -32
 -24
 -17
   0
  11
  27
 -44
 -12
   2
  35
  25
  -9
 -20
 -46
  37
  31
  17
  -9
 -25
  38
 -42
  38
  13
  58
 -18
  32
  33
 -27
 -18
 -16
  37
 -34
  42
  28
 -25
 -17
  25
 -24
  19
  -2
 -16
 -13
 -22
  17
  -3
   2
 -64
  20
   9
  31
 -22
  27
  -8
  22
  18
 -17
  37
   6
  10
   2
  14
  11
  -6
  37
 -21
 -17
  10
 -24
   0
  -6
  17
  30
  -1
 -35
  18
  16
  -2
  21
  27
  51
  16
  -4
 -29
  16
  36
 -13
  42
  12
 -10
 -25
 -42
  39
 -16
 -15
 -10
 -18
 -30
  28
  31
   9
 -37
  37
  14
 -25
  -4
   9
 -13
  25
  35
  38
  -7
   8
 -23
  32
  25
 -50
  19
 -21
  -5
 -15
 -42
  15
 -19
  54
  11
  -4
 -39
  -5
  13
 -20
   6
 -15
  37
  33
  26
   9
  23
  41
  34
 -24
 -50
  12
 -16
  -4
 -16
 -15
  11
  -7
 -37
  16
 -20
  47
 -51
  39
  47
  12
  32
  27
   1
 -43
  -3
   2
  24
  -3
 -28
  -7
 -19
   6
 -38
  10
  -6
   0
  43
  -1
  15
 -17
   8
   3
 -16
  -1
  27
 -26
 -14
 -87
 -16
  37
 -39
  -5
  -4
  51
  35
  33
  -4
  -9
  24
  31
   5
 -14
  -3
   9
  30
 -23
  29
 -64
 -14
   3
  -9
   3
 -15
 -16
   3
  13
  54
   5
   9
 -57
 -48
   4
  19
 -32
 -28
 -11
  20
  17
  -2
 -25
 -15
  -7
  51
 -19
  29
 -12
  25
  30
  38
  10
  -5
  26
-128
  -8
 -22
 -24
  -3
  29
  12
 -40
 -45
  16
 -14
 -22
  10
  26
  24
  -7
  33
 -26
 -15
  16
  10
 -30
 -21
  39
 -18
 -13
  17
 -12
  22
  29
  37
  -8
  -6
   7
 -21
 -21
  12
  17
 -15
 -37
   3
  21
 -29
 -31
-105
  28
 -13
  16
   6
  29
   8
  25
  -2
  31
 -35
  18
  -7
   9
 -15
 -46
  23
  27
  -9
  -3
   4
   5
  25
   9
  -7
  26
  12
  40
 -16
 -22
 -22
 -10
  28
  28
  18
 -23
  14
   6
  16
  34
 -36
 -35
 -24
   2
   5
 -17
 -16
   5
 -12
  25
 -11
   8
  -8
  -6
  14
  41
  -4
 -43
  36
  23
  13
 -19
  32
   7
   6
  12
   8
 -20
   5
   2
  14
  23
  30
  18
  20
  -5
   2
  22
 -28
 -17
 -12
 -30
   4
 -26
 -26
 -20
  14
  -7
  51
  -7
  -4
  35
 -16
  -9
 -21
  15
 -30
  22
   3
  35
 -16
  13
  -2
 -27
  14
  12
 -28
 -26
  -8
  -3
  -6
  -4
  11
   5
  -5
 -27
   9
 -18
 -47
  28
  24
 -10
  -2
 -25
  27
  17
 -36
  28
  13
  22
 -21
  26
   6
 -14
 -12
 -12
 -27
 -34
 -21
  -8
 -14
 -31
 -30
  39
 -31
 -17
  14
  53
  -9
   9
  37
 -24
 -28
  24
 -31
 -28
   7
 -11
  -4
   2
  -8
 -41
  -1
  29
 -22
 -23
   5
  -6
 -33
  -3
   4
  16
 -22
 -17
 -10
  56
  49
  -5
 -41
  10
 -13
  21
  22
  -6
  -8
  10
  28
  -3
  11
 -29
 -38
  24
   0
  -4
 -17
 -19
  -5
  -7
  24
  16
  10
 -44
 -43
  -5
  43
  -3
 -33
  34
 -31
 -11
  22
 -10
  -4
  25
  17
  17
 -26
 -18
 -29
  -5
 -18
 -37
  -6
 -20
  -1
 -36
  17
  20
  33
  -1
 -10
 -67
  14
 -51
   2
  -6
   8
 -36
 -23
   3
 -14
 -46
  -6
  -8
  17
  30
  -9
 -37
  16
  -7
   1
  -6
   4
 -13
  14
  29
  -4
  32
 -10
  16
  13
  -7
 -23
  -5
 -20
   7
  -7
  -4
  33
  49
 -23
   3
   1
  31
 -14
 -10
 -61
   7
  10
   8
  11
  25
  28
  26
 -13
  -5
 -28
 -28
  -2
  32
  43
 -13
  11
 -12
  14
  31
  -8
  15
 -11
   8
  31
 -21
   8
 -36
  22
   8
  -6
  -5
 -34
  55
  28
 -25
  -7
   6
  27
  16
 -25
  15
  -9
 -24
 -57
 -24
  -5
  22
 -26
  23
 -12
  17
  33
  35
 -44
  -9
  -7
 -39
  14
 -31
   1
   8
  17
 -30
 -28
  -2
  30
   5
  16
 -37
 -32
 -14
  -8
 -60
  11
  29
 -13
  -8
  15
  -3
 -46
  -9
   3
   4
  37
  25
  25
 -12
 -18
 -31
 -17
 -16
 -33
 -13
 -29
 -28
 -20
  30
  -8
 -16
  28
  16
 -27
 -35
 -15
  16
  -5
  11
  17
   3
  14
  10
  14
  -3
  -1
 -24
 -37
  -6
  10
 -35
 -27
 -25
 -14
  44
  16
 -19
  18
  34
   9
   0
  40
 -33
  21
  53
 -58
 -44
  47
 -30
 -25
  21
 -12
 -21
   2
  26
 -31
 -21
  -2
 -24
 -23
  40
  -1
  27
   1
  22
   5
  45
 -26
  -9
 -54
   2
 -19
  35
 -14
 -14
  13
  47
 -31
  -5
  29
  26
 -12
  34
  31
  -4
 -22
  36
  41
 -12
  16
  34
 -41
  16
 -23
  23
  40
   6
 -24
 -16
  49
  47
  30
 -17
 -62
  -6
 -15
 -13
 -27
  33
  35
  -4
 -20
   2
 -10
 -26
 -18
  15
  18
 -18
  23
  15
   5
  23
 -10
  33
 -28
   4
  19
 -20
  -7
  15
  12
  36
   0
  22
 -32
   8
  21
 -12
 -30
  -8
  10
  40
 -29
  -7
  -8
 -16
 -67
  17
 -23
 -16
  12
 -37
   1
 -28
 -24
 -22
   7
  32
  47
 -40
 -57
  -2
 -40
  -5
  47
   9
 -10
 -11
  35
 -37
  22
  -5
  28
  10
  -2
  -1
  25
  16
 -34
   3
   4
  10
 -15
 -44
   0
 -22
  29
  40
  34
  22
 -30
  40
  34
  19
 -17
 -35
 -34
 -33
  38
 -19
  15
 -19
 -38
 -12
 -33
  31
  29
  18
 -17
  43
  -9
  31
 -12
  31
  21
   7
  21
  30
 -54
   1
  20
 -11
  10
  38
 -34
   5
 -23
 -25
  -9
   2
  -2
  38
  19
  27
  -7
 -11
  67
  19
  23
   3
  27
  -8
  20
 -20
  10
 -23
  -9
  12
  19
  -2
 -27
  -1
 -29
 -29
 -16
  -7
 -20
  23
 -28
 -10
  -2
   1
 -13
 -40
  45
   4
 -26
  -9
  -5
 -30
   0
  -8
 -17
 -15
 -17
  16
 -30
  18
 -22
  -3
 -34
  33
  18
  25
  -3
 -22
  34
 -14
  34
 -31
  28
   1
 -12
 -31
 -39
 -39
 -13
  23
 -27
 -42
 -22
   3
  29
  30
  -6
  11
 -12
   4
  -7
  -8
 -16
  27
  28
 -18
  15
  35
  10
 -10
   9
 -24
  32
 -24
 -35
  25
 -26
  -7
 -18
 -16
 -20
  13
  29
 -21
 -39
 -20
   0
  15
 -15
 -23
   5
  23
 -41
 -19
 -29
  -6
 -15
 -20
 -22
  34
   9
 -13
  -3
  -8
 -47
   0
  24
  -4
  38
  20
  -1
  37
 -30
 -18
  31
   6
 -77
 -15
  46
 -17
 -16
  13
   7
   8
 -33
 -25
 -45
 -18
 -37
 -14
  -2
 -38
  -4
  21
  14
  -6
   1
  39
  -7
   3
 -30
 -15
   6
   3
  34
  21
 -22
   7
   4
  20
  46
  22
 -45
   2
  48
 -24
  18
  53
 -11
   0
  45
 -20
 -30
  -1
 -25
  17
  -8
 -23
 -26
   4
 -29
  -9
   3
  -2
   6
 -34
  11
  15
 -29
 -37
  -2
 -19
  35
   7
  31
 -49
  38
 -35
 -16
 -10
 -36
  18
 -22
 -25
 -23
 -39
  30
 -32
 -26
   6
   9
  -8
  -7
 -30
 -16
 -27
 -22
  31
   3
 -32
   6
  15
 -29
  -8
  15
  31
  24
 -21
 -18
  19
  22
 -25
  21
 -53
  22
 -40
  -2
 -16
   2
  21
  25
  46
  20
  -5
  22
 -15
  -7
  49
 -54
   2
  -9
 -18
   9
  21
  23
  33
 -11
 -18
 -19
 -32
   8
  16
 -16
 -21
  36
  23
  11
 -22
 -44
 -28
 -28
  21
 -23
 -50
  51
   7
  11
 -24
 -21
 -27
  20
  -6
  43
  12
 -16
  -9
  28
 -30
   5
 -29
  15
  33
 -50
  39
 -37
 -36
   7
  -5
  34
   1
 -28
  33
  15
  30
  39
 -13
  40
  -5
  34
  18
  10
  -8
 -55
   9
 -37
  31
  10
 -25
  16
 -21
  37
  38
  33
  -7
 -37
  29
   8
  10
  20
  22
 -33
  28
  -4
  38
  -8
  17
  26
  -8
  -9
  32
 -33
   7
  21
  17
   3
  13
   2
  -2
 -46
  16
   4
 -21
  -7
 -20
   8
   8
 -45
  40
  44
  10
 -21
 -16
  11
 -32
 -30
  33
   5
  27
 -13
 -28
 -29
   9
 -60
  19
  44
   1
  49
  27
  -8
 -24
  -5
 -17
 -65
 -29
  47
 -30
  -9
  25
  12
 -25
   7
 -12
 -51
 -13
  16
   3
  -5
   6
 -28
  -7
   1
   0
 -19
   7
   7
 -47
 -25
 -45
 -15
   0
 -37
 -38
 -34
  27
 -48
   7
   7
  -5
  12
  26
   4
   9
  22
  15
   1
  34
  32
  32
 -45
 -38
 -21
  27
  34
  14
 -29
  -8
  19
  -5
  18
 -21
 -78
  47
  -7
 -21
 -35
  35
  42
  -6
 -51
   7
 -12
 -16
 -21
   3
 -19
 -41
   8
   8
 -13
  29
 -48
  -4
 -12
 -18
   7
   4
  11
  -4
 -16
   9
  -5
  23
  -4
  40
  47
  32
  10
 -38
   5
 -38
  29
 -10
 -31
 -19
-103
  17
 -14
   6
  -4
  22
 -30
  27
 -21
  39
 -12
 -29
  38
  32
  12
   3
  15
 -11
  18
 -21
 -22
  29
 -22
  30
  12
  39
 -12
 -19
   4
  10
  20
 -20
   7
  15
  17
  -7
  31
  27
  29
 -12
  -3
   8
  14
  13
  20
  24
  12
  12
   7
  -5
  37
 -14
  19
   3
  -1
  13
 -18
 -58
  -9
  61
 -30
   3
  30
   5
 -40
   6
  11
 -18
  -4
 -33
  17
  27
   1
  27
 -25
  -5
   9
  -8
  20
 -24
  45
  -4
  -3
  15
 -22
  50
 -21
  23
   0
 -24
  30
 -44
 -47
  35
  27
 -30
 -23
 -15
   8
 -39
   5
  13
 -17
  41
 -40
  33
  -8
   2
  51
 -22
 -30
 -31
 -39
 -31
  -1
  -4
  18
 -32
  -2
 -17
   4
  20
  37
 -23
   8
  -1
  -9
  20
 -60
  -4
 -43
  21
 -22
 -16
   8
 -18
  26
  37
  19
  39
  23
  46
  -6
 -22
  21
 -11
  20
 -19
 -15
  19
  -2
   5
  35
  16
   5
 -14
  -5
  30
 -18
  53
  41
 -15
 -11
  10
 -15
   4
  20
  -7
   3
 -35
  -9
 -38
  27
 -47
  -8
  27
   7
 -10
  18
  27
  26
   4
  -6
  27
 -22
 -40
  -8
 -44
   6
 -40
  -2
  36
 -65
  26
 -48
 -23
 -33
   8
   4
 -15
 -22
   3
  14
 -11
  11
   7
  12
  22
 -28
 -23
 -21
 -21
   9
 -33
  17
  -8
  25
  30
  10
 -27
 -20
 -50
 -35
 -26
   7
  20
   8
 -25
  15
  -9
   6
 -22
  37
 -29
  31
 -19
 -39
  17
  -3
  24
 -10
  23
  35
 -14
   9
  -2
  15
 -14
  32
   3
 -14
  13
  -5
  -6
  35
  18
 -24
  11
 -27
   4
   5
 -14
  14
  29
  -6
  49
   4
  31
   6
   1
  24
   1
  13
  -2
  -3
  -5
  -7
  27
   0
 -27
 -43
  27
   4
 -11
 -56
  23
  -9
 -21
  12
 -17
 -30
 -28
  44
   2
  -9
 -20
 -43
 -24
 -26
 -18
  37
   1
 -20
  13
 -30
  11
  42
 -10
 -11
 -17
   4
   8
  23
 -14
  33
   8
 -22
   5
  -2
   5
 -57
 -22
 -23
 -20
  -2
 -58
  -9
   2
 -13
  19
  17
  38
  65
  -2
  -9
  40
 -73
  12
   1
  20
 -10
  32
 -24
   6
  -4
  -8
  -4
 -37
  -5
 -13
   4
  14
  -4
  10
 -26
  26
 -14
 -24
 -32
 -52
 -57
  -2
  -8
   0
  52
 -33
  11
   5
 -16
 -31
 -20
 -19
   5
  38
 -48
 -33
   7
   7
 -49
  11
  32
 -14
   3
  20
 -10
 -31
  14
  -4
 -11
 -12
  26
  23
  10
 -13
  -7
  18
   8
 -12
 -25
 -24
 -44
  -3
  -3
  24
 -29
 -27
  32
 -31
  -4
 -61
  23
  -8
  19
  -5
  -8
 -18
 -28
  38
   7
  44
  -4
  19
  11
 -41
 -13
   5
   5
  24
 -31
  15
  13
  21
 -39
 -67
 -21
 -23
  23
  30
 -16
  -9
  15
   8
  -8
 -11
 -12
  -5
   9
 -47
   3
  13
  -8
  17
 -18
  25
  20
   5
 -28
 -17
 -28
  25
 -17
  32
 -15
 -15
  -6
  48
 -16
 -24
 -10
  20
 -18
  -5
   3
  -4
 -26
   7
 -28
  25
  -9
 -36
  -9
 -29
 -27
  18
  27
  44
 -26
  17
   9
  -7
  -9
  23
  -7
  45
  33
 -23
 -20
 -29
  -6
  31
 -30
   5
  11
  26
  26
 -32
 -24
   5
  18
  33
 -19
  26
 -46
  36
  -4
  22
  10
   1
 -21
  17
 -47
  13
   5
  12
  39
 -21
  -6
  26
 -34
  16
  16
 -16
   4
  25
   1
  -6
   8
  28
 -10
 -31
  -6
   8
  13
  15
   2
  17
 -50
  16
 -35
  21
 -16
 -35
 -45
   4
  -3
  12
 -35
  -9
  17
  36
  -9
 -29
 -21
   7
  29
  46
  27
 -17
 -36
  43
 -16
  31
  -4
 -25
  20
  39
  21
  -1
   3
  25
  31
  13
  39
   2
 -56
 -39
 -14
 -12
   7
 -24
 -32
  26
 -53
  -1
  13
   3
  21
   1
 -13
 -35
  10
 -25
  -1
 -31
  -1
 -34
 -13
  33
 -33
  36
 -25
  49
 -52
  -9
 -35
  -4
   6
  43
  30
  -3
 -24
  28
  35
 -10
  -6
 -22
 -34
 -46
 -19
 -14
 -21
   9
 -16
  17
  -5
  -1
  10
  49
  15
  -8
  11
 -39
  -3
 -23
   5
   9
  18
   4
  13
  -9
 -39
   6
  31
 -19
 -30
   9
 -35
  -9
 -24
   1
 -31
 -24
  13
 -30
  14
  16
  21
 -10
 -37
   4
  14
 -20
  19
  -9
 -31
 -28
  -8
  19
 -29
 -15
   0
 -23
  18
  35
   3
   1
 -10
 -28
  -7
  -3
  18
 -37
  19
  21
 -28
 -10
 -17
 -19
  10
 -24
  30
  13
  -5
  30
 -13
  -8
  11
 -29
  -4
 -10
 -26
  -7
   1
  24
  22
  28
  13
 -10
 -12
  13
 -26
 -16
  12
  10
 -31
   6
 -12
 -11
 -23
  37
  -2
  31
 -29
   1
 -38
  26
   7
 -31
   7
  -5
 -19
  22
 -11
  20
 -20
  -6
   5
 -32
  -3
 -26
  23
  12
  31
  21
  -4
  21
  10
 -30
  33
 -21
  27
  13
   3
   2
  37
 -12
  21
  -5
 -51
   7
 -10
  19
 -21
 -13
 -19
 -29
 -19
   0
  28
  33
   3
  41
 -16
 -33
   6
  21
  29
  35
  -8
   0
 -27
  -1
   0
 -15
   2
 -21
 -51
  -8
 -24
 -24
  30
 -20
 -23
 -18
  15
  32
  28
  28
 -11
  -4
  -1
 -16
  -5
 -34
   1
 -34
  -8
 -21
  -8
  -5
   6
  19
   0
  14
  -2
 -36
  38
 -24
   0
  37
  26
   3
 -45
  19
 -23
 -30
 -26
  12
  20
   7
 -29
 -13
  15
  24
  53
 -16
 -36
  45
 -12
  -6
  10
  46
 -18
  40
 -14
 -51
   5
 -22
 -58
   2
 -18
  22
 -13
   3
 -38
 -48
  17
  11
   3
  20
  21
 -29
  28
   6
 -19
  22
  30
  30
   0
  44
   4
  11
   1
 -39
 -14
  49
  15
  -6
 -31
  13
 -59
  -9
  38
  22
  -1
  37
  23
  45
 -18
  45
  11
  33
  17
 -35
  12
 -44
   9
  30
   1
  36
 -38
 -14
  15
  -9
  38
  33
 -54
  55
  17
 -26
 -33
   2
   2
  25
 -15
  17
  38
  29
 -29
 -21
  31
  25
  25
  21
  20
  14
 -24
  -1
  32
 -30
  36
 -50
 -32
  21
 -30
  22
 -31
  30
 -30
  21
  25
 -11
   1
  23
 -21
  12
   4
 -23
   9
  -5
 -36
  -8
  17
 -35
   6
 -54
  19
 -17
  -5
  12
  18
  15
 -14
  -8
  35
 -36
  34
   4
  34
  24
   7
   9
  -7
  33
  -4
 -11
  13
  44
  -3
  26
 -12
 -40
   3
   6
  16
  31
  20
  28
  45
  17
 -29
  13
 -24
  51
 -10
  -9
 -28
 -40
   8
   6
  26
 -28
   4
   4
  22
  17
 -18
 -44
  -9
  61
  13
  19
  37
   7
 -73
   6
 -17
 -38
  35
 -57
  19
 -15
  14
 -29
 -12
 -21
  18
  26
 -58
   2
 -20
  -5
  23
 -26
  14
  -9
  22
  15
 -28
 -32
   8
  -8
 -18
 -63
 -35
 -20
  20
  15
 -30
  34
   3
  32
 -47
 -35
  32
  13
  -9
  37
 -21
 -34
 -18
  41
  -5
 -40
 -31
   8
  28
 -25
  -9
  29
  27
  -5
  15
  20
   5
 -18
 -28
  45
  25
   2
  31
 -25
  -5
 -17
  19
 -35
 -25
   9
  31
  34
   1
 -27
  -6
 -27
 -51
 -18
   1
  38
   1
 -28
  22
  27
 -23
 -17
  13
   7
 -44
  21
  28
 -24
  52
  -8
 -29
  10
 -35
   5
  11
   3
 -35
  14
 -22
 -19
 -29
 -11
  35
  31
   9
  18
   5
  26
 -33
 -14
 -28
   0
 -32
  29
  -9
 -30
  26
 -10
  17
 -23
 -34
 -39
  18
   3
 -26
 -10
 -25
   1
   2
  -5
 -19
 -22
   6
 -25
 -23
 -14
  27
  -4
   5
  -4
  33
 -27
 -11
  42
  24
 -14
 -54
 -30
 -11
 -61
 -18
  -6
 -36
 -38
   8
  14
  11
  15
 -17
   9
  40
 -14
  -4
 -31
  -7
  21
  39
  -8
   8
 -67
  -3
 -16
  42
 -23
  70
  21
   0
  -6
  29
  -7
   2
 -62
  -8
  16
  18
 -11
  -6
   2
 -30
   3
 -21
  24
  37
  13
  49
 -12
  35
 -15
 -45
  26
 -38
 -11
  13
  26
  -4
 -21
  12
  -1
  -3
 -25
  19
 -23
 -26
 -34
 -22
   6
 -13
  -8
 -15
  12
  19
  65
 -42
   7
  26
  39
  23
   1
  14
 -18
  32
  49
  18
 -70
  19
 -17
   0
  42
  28
  -1
 -16
 -22
 -16
  -7
  40
 -49
 -60
  31
 -21
 -43
  14
  -3
  12
 -23
  -8
 -45
 -18
  14
 -36
 -25
 -22
   6
 -54
  12
  11
  36
  70
  36
  45
   1
   7
  -1
  25
 -40
 -29
  15
  12
  35
  -6
 -14
  22
  17
 -44
 -31
 -51
  27
  10
  31
 -26
 -10
  25
  34
  36
 -18
  30
   8
  21
 -38
 -47
  15
  15
  48
   6
  -9
  -3
  31
   5
   8
  -4
  29
  12
  41
  20
  35
  24
  15
  19
  10
  28
  35
 -58
 -36
  18
   1
 -17
 -10
  16
 -40
  18
  36
 -21
 -29
 -45
  45
 -34
   1
 -12
  20
  13
  -2
  -7
  41
 -24
 -18
  -1
  38
  16
  -4
   9
  -5
 -16
  31
 -21
  34
 -25
  -5
  28
  10
 -12
  21
   6
 -14
 -22
  -7
  32
  41
   8
   3
  -3
  14
  35
 -52
  -5
 -33
  31
  31
 -48
 -15
   0
 -26
   1
 -10
 -15
 -19
 -28
  38
 -44
   6
  17
 -48
  -6
  31
  12
  -5
  36
  37
  23
  21
   0
  18
  45
   2
 -62
   8
   0
 -22
 -28
  24
 -30
 -29
 -44
 -18
 -35
  11
   8
 -42
  11
 -27
   7
   7
  65
   7
 -31
  -2
  52
  34
  -5
 -12
  11
  45
  25
  10
 -16
  37
  32
  -7
  27
 -23
 -37
   4
  11
  18
  -9
   8
  38
   8
  34
  21
  18
 -41
  -9
 -16
 -24
