  -1
  -7
 102
   2
   6
  57
  12
  60
 -51
   9
  77
   7
 -16
 -79
   8
  -9
 -31
  36
  42
  -1
  46
  49
 -16
   9
 -16
 -24
  22
  19
 -29
   4
   7
 -47
 -29
 -25
  18
 -15
   2
  -1
  65
   5
  48
 -37
   9
  -2
 -44
 -53
   5
  28
 -23
  15
 -29
  50
  33
  16
 -67
 -10
 -26
  45
 -15
 -49
  22
  41
 -23
   4
 -33
  -3
  66
 -62
  19
  -4
  31
  59
   8
 -26
  11
  40
   3
 -70
 -43
  75
   8
  12
  -7
 -13
 -35
 -33
  -9
  22
 -27
  16
 -26
 -38
  23
  28
 -38
  44
 -27
 -11
  38
 -32
   1
 -52
 -19
  17
  39
 -44
 -19
   6
  -1
 -50
  23
 -23
  33
 -19
  24
 -14
  15
   2
 -13
 -13
   7
   5
 -23
  -7
 -46
   4
  18
 -20
  25
  42
 -42
  41
  36
  24
 -14
 -30
   0
 -40
  -8
  34
  16
  -6
 -37
 -35
   2
 -39
  32
  -7
 -18
   8
  31
 -13
  21
  29
  46
  44
 -43
  -3
  54
 -16
  25
  -5
 -42
 -33
 -10
 -32
 -24
  16
  40
  45
 -18
  52
  16
  33
 -25
   7
 -30
  43
  32
 -20
 -16
 -11
 -30
 -13
  57
  19
 -44
  19
  13
  18
  19
 -20
 -54
  10
 -87
  -8
  -5
 -28
  19
 -35
 -49
 -11
   6
 -14
   7
   4
  14
 -51
 -28
   4
   3
 -14
 -14
  22
  -4
  22
  -7
 -41
 -10
  22
 -15
 -30
  -2
  57
  54
  38
  22
 -17
   2
  64
   3
  30
 -28
  12
 -15
   7
  41
 -33
 -38
   7
 -37
  28
 -38
 -43
 -27
  -2
 -23
  30
  61
 -22
  41
  28
  26
  39
 -26
  41
 -43
  10
 -44
 -37
  15
 -54
  26
 -19
   7
  -9
  27
  -7
 -16
 -30
 -25
  -8
  45
  18
   0
  16
  32
  11
  22
  -7
  50
   6
  31
  45
   5
 -24
  46
 -18
  -3
 -16
 -53
   6
  41
  41
  -9
  21
  40
 -16
  -1
   8
 -52
  39
   8
  -3
 -53
  11
  19
  25
   1
  16
  22
  13
  76
  36
  20
  14
  -9
  26
  -2
  10
 -26
  -5
  57
 -67
 -53
  11
  75
  39
   1
 -36
  37
   2
  -9
 -59
  45
  19
  -2
  29
  13
   8
   7
  20
 -30
 -34
  11
  43
 -14
  -1
  41
 -13
 -42
 -13
 -51
  -4
   4
  -6
  12
 -51
 -10
  37
  32
 -27
  26
 -26
 -65
   0
 -38
  22
  48
  10
  28
  67
  -8
 -13
  -8
 -32
  -4
  50
  34
 -45
 -18
 -30
 -33
  28
  33
 -37
 -31
 -27
  16
 -53
   6
 -49
  -5
 -45
  35
  25
   8
   9
  42
 -44
 -10
 -73
  10
  -1
  -3
 -33
  27
  35
   2
  21
 -38
 -23
  20
   4
 -16
  25
  55
  12
 -15
 -43
  36
  48
 -44
  21
   5
  53
 -16
 -34
  34
 -16
  -5
 -43
 -57
   9
 -27
  33
  42
  49
   2
  43
  31
  -6
 -24
 -12
 -23
 -37
  22
   4
  -3
 -25
 -62
  30
 -26
 -15
  57
  28
 -47
   4
  57
 -24
  36
  34
  35
 -15
  14
 -20
 -25
 -21
   4
  15
   8
  36
  25
  16
  16
  54
  -4
 -15
  38
 -12
  63
  43
 -48
 -38
  11
  68
   1
  56
   0
  44
 -48
 -15
 -34
 -12
 -28
 -34
 -10
 -37
 -15
 -61
 -23
 -15
  18
 -35
  23
   6
 -42
 -34
  27
  10
 -60
 -32
  41
  23
  21
 -10
  38
 -21
  13
 -25
  12
   9
  52
 -78
  28
  -8
  37
 -74
 -19
  40
  31
   8
 -29
  28
 -12
  29
  -4
  11
   4
 -10
 -56
  15
  52
   5
  29
 -51
  18
 -13
  24
  10
  37
  40
 -27
  57
  -4
 -48
  -4
  32
  -6
  34
 -18
 -37
   2
 -39
 -20
 -41
  -3
 -44
  43
 -26
 -22
  26
  -6
   1
   4
   5
 -18
 -31
  85
 -45
 -59
  -3
 -36
  20
  26
 -25
  10
  63
 -65
  24
 -32
  52
  -7
  21
  49
 -31
 -35
  33
  19
 -31
 -11
 -43
 -19
 -43
   7
   5
  22
 -48
   3
  -6
 -21
 -51
  28
 -13
 -23
  27
   6
 -53
 -17
  15
  -1
  23
 -16
 -32
  46
  -5
  40
 -10
 -17
   9
 -18
 -41
 -74
 -22
  16
  24
  16
 -38
 -52
 -48
 -42
  21
  12
  25
 -53
  -2
 -18
   3
   8
  36
   0
  82
 -31
 -48
 -36
  26
  21
  22
 -43
 -45
 -54
 -11
 -36
 -24
 -53
  25
 -46
   1
  89
 -60
 -48
 -41
 -62
  15
 -13
   2
 -46
 -50
 -60
 -39
 -74
 -12
  30
  48
 -13
 -23
 -26
 -25
 -17
 -24
  26
 -11
  -8
  18
   2
  16
   8
 -11
 -21
 -23
 -34
 -51
   8
 -16
  -4
   3
 -64
 -47
  47
   9
  -9
  -8
 -21
 -40
 -18
 -34
  15
 -16
  68
 -59
  24
  17
  22
  45
  42
  -5
   9
  32
  30
  14
 -20
  -6
 -75
  -9
  75
  -1
  65
 -41
  25
 -37
 -13
   1
  15
  46
  46
  67
 -48
 -43
 -44
 -28
 -10
  -4
  -4
  57
  29
   2
  28
 -27
   9
  40
  48
  16
 -42
 -37
  28
 -19
 -27
  27
  36
  37
   3
 -14
  17
  -1
  32
  49
 -17
 -40
 -49
  30
  -6
 -27
  24
 -63
  19
  44
  27
 -30
  10
  16
 -75
 -33
 -24
  11
 -49
  36
  -2
 -36
   4
  13
 -29
 -31
  16
  -8
  33
 -15
 -17
  11
  54
   9
 -39
  20
 -47
 -12
 -19
  -8
 -24
   8
 -35
   8
 -32
  -6
 -60
 -30
  79
 -24
 -37
 -15
  21
 -32
   0
 -11
  13
 -10
 -33
 -38
  -9
  25
   7
  -4
  50
  38
  39
   9
  32
   5
  24
 -33
 -10
 -31
  24
 -35
 -47
 -28
  24
  -7
  24
 -27
 -27
   5
 -32
  36
   6
  52
  31
  26
 -26
  39
  33
  -4
   4
  14
  46
  63
  -6
  19
  23
  14
  -1
  39
 -32
  40
  -3
 -17
 -35
  -5
 -58
 -16
  10
  31
   3
 -30
  -9
  35
  -6
 -23
  42
  22
  42
  47
  27
  20
 -67
 -25
  58
 -24
 -47
   8
  33
  34
   7
  68
 -14
 -22
  35
  32
 -47
  26
  43
 -16
 -15
 -39
 -24
  23
  52
  15
 -56
  32
 -23
  29
   8
  30
 -26
 -34
 -17
 -22
  17
 -15
  -1
   6
  19
   8
 -39
 -26
  26
 -27
   1
  31
 -22
  -8
  16
  44
 -88
  -7
 -10
  22
 -20
   6
  46
 -35
 -11
 -54
 -10
 -44
  21
  42
  11
  -6
  49
 -10
 -30
 -25
  41
 -60
  18
  -5
  14
 -45
 -26
 -44
   8
 -52
  -9
  14
  26
  34
 -33
  10
  28
  24
   0
 -50
 -42
  17
  64
   1
 -35
 -23
 -35
   6
  50
  27
  24
  23
  26
  -8
  48
 -17
  12
 -50
  51
   9
  46
  27
  58
 -40
 -55
  40
  35
  -2
 -69
 -25
  23
 -30
 -43
 -25
 -25
   2
  -3
  11
  17
 -12
 -26
  19
  19
  52
  39
 -26
  -3
  48
 -14
 -33
 -28
 -26
 -40
 -32
 -45
  13
  27
  -9
   2
 -55
 -15
 -27
  24
   6
  24
  32
  55
  29
 -19
  12
 -33
 -52
 -10
  38
  -5
 -44
  -6
  18
  20
  67
 -39
 -31
 -25
 -11
  26
  33
 -38
  30
  42
   1
  34
  12
 -13
  23
 -15
  -6
 -23
 -12
  62
  11
 -61
  10
  25
  46
 -42
   9
   5
  21
   3
 -63
  47
  34
 -33
 -18
  36
  32
   3
  16
  27
   0
  13
  39
 -33
  22
  27
  11
 -33
 -62
 -43
  13
 -16
 -14
 -39
  21
 -24
  35
  27
 -15
   9
 -71
  -6
 -18
 -19
 -18
  50
  -8
 -24
  -5
  23
 -22
  12
 -33
 -13
 -19
   4
  13
  10
 -41
  33
  60
   3
  25
  45
 -12
  45
  40
 -10
   0
 -42
  42
  20
  22
  26
 -30
  20
  46
  15
  21
  25
 -11
  46
  12
   5
  32
  64
  15
 -22
  -3
 -57
   9
  21
   5
  23
 -31
 -54
 -92
 -12
 -25
   4
  -6
   5
 -47
  18
  -2
  13
 -24
  38
 -21
 -24
  48
 -55
  54
 -29
 -36
 -54
 -18
 -15
  12
 -33
  41
 -44
  -3
 -35
  -5
  22
  62
 -12
  -8
  55
  17
  44
  25
  21
  -9
 -56
  17
 -11
  51
   0
 -20
  32
  28
 -31
 -45
  75
 -33
  25
  27
  25
  -7
   7
  61
 -32
  -3
  43
  49
  59
 -42
 -21
 -11
  22
  39
  36
 -21
  25
  33
 -33
 -23
  11
 -22
 -55
 -37
  11
   5
 -49
  14
   4
  42
 -14
  23
 110
 -49
 -26
  21
   6
 -13
  39
  16
  22
  22
  77
 -15
  -8
 -28
 -41
 -44
 -29
   6
 -46
  35
  16
 -66
  -5
  -3
 -48
 -30
 -19
  12
  30
  -6
  13
 -29
   4
  -3
 -45
 -18
  67
 -20
  31
 -48
 -70
  41
  23
 -18
 -17
 -57
 -41
  11
 -31
 -27
 -37
  26
  47
  44
  16
  18
   4
 -27
 -20
  14
  12
  27
 -11
  11
 -48
  36
  31
   8
 -57
  -1
 -10
 -13
  44
 -24
  26
  47
  -2
  49
 -45
 -12
  13
  -6
 -31
  29
  22
   0
 -10
 -14
 -13
  15
 -15
 -24
-112
 -63
  53
   5
 -30
 -24
 -12
  18
   1
  28
   5
   8
  24
  60
   3
  32
  -4
  40
 -29
  17
  11
  -6
 -20
  71
  14
 -27
 -18
 -22
  19
  15
 -18
  15
 -16
 -35
  15
 -18
  25
  21
  49
 -32
  45
 -24
  72
   1
   6
  49
 -94
  56
  19
 -52
   7
 -51
   9
  29
  12
 -50
  57
  69
 -30
 -53
 -17
 -17
 -52
  48
 -27
  -5
  38
  38
 -40
  23
  44
 -23
 -49
  47
  -6
 -22
  60
   7
  -9
  34
  39
  72
  32
  -4
  31
  82
 -36
 -14
   7
  37
  22
  28
  14
  48
 -16
  -4
  -1
 -11
  18
 -39
  88
  -1
 -15
  14
 -23
 -11
  16
 -10
 -22
 -21
  49
 -46
 -26
 -19
  24
  -3
 -29
  40
   8
 -34
  18
  -8
 -14
 -26
   0
  59
  32
  -5
  65
 -51
  12
 -28
  55
  15
  15
  76
  16
 -52
   7
 -15
 -34
 -46
 -57
 -15
  25
  22
  26
  -4
  37
  22
 -57
  17
 -69
  34
 -32
  25
 -34
 -24
 -42
  16
  49
 -22
   9
 -12
  -3
  34
  31
  43
   1
 -13
  27
  31
 -45
   4
   4
 -31
  -3
  10
  37
  43
 -59
   8
 -13
  27
 -57
  21
   7
 -37
 -10
  29
 -33
   1
  74
 -11
 -17
 -38
   1
  14
   0
  42
 -10
  13
 -14
  52
 -74
 -33
 -19
   4
  28
 -75
  -2
  43
  15
   3
   4
  28
  20
 -24
  25
   6
  55
  53
 -10
  18
  -2
  18
 -29
  55
  26
  32
 -29
  37
 -23
 -25
 -53
  24
 -37
 -11
  65
 -31
   2
 -12
 -31
  34
  22
  53
  59
 -25
 -24
  19
   0
 -53
  55
  48
  44
   6
 -11
  11
  -2
 -27
  19
  -8
  35
  42
  11
 -54
 -37
  -6
  11
 -26
 -38
  19
  34
  46
  16
 -54
  25
 -37
   9
   4
 -41
  -5
 -15
  52
 -25
   0
   3
 -10
 -16
  -1
  56
 -10
 -76
 -11
 -44
 -35
   5
 -24
  -1
   6
 -32
  37
  33
  36
  37
 -43
 -11
 -41
 -15
  25
  -4
  21
  12
  21
  25
  29
 -29
  14
  11
 -36
  24
  -4
   5
 -19
 -58
   5
  29
 -22
  -3
  36
 -18
 -28
 -33
  11
 -40
 -38
   3
 -13
 -15
 -40
 -30
  40
 -29
 -35
  44
 -28
  17
  26
  18
  54
 -25
 -24
 -32
  40
  20
   0
   7
 -10
 -41
  38
 -29
   8
 -37
   2
  16
 -55
  59
 -46
 -35
  21
 -53
 -12
  12
 -23
  29
  42
 -38
  -5
  21
  73
  46
  -8
   2
  24
 -40
  42
  28
 -70
  49
  15
   0
  28
 -16
 -19
 -27
 -34
 -65
  16
 -20
  14
 -53
 -25
   4
  26
 -12
 -34
  11
   4
 -29
 -44
  62
 -29
  58
   4
 -29
  -8
 -28
 -28
 -13
   9
 -41
   9
   5
  -4
  18
  31
  39
  -9
 -26
 -34
 -19
 -21
  52
  41
  56
  44
 -22
  31
  54
   9
  36
 -14
  18
 -41
  53
  19
  10
  31
  -5
  -9
  -4
  39
   6
 -40
 -20
  39
  23
 -48
  48
 -38
  18
 -10
 -45
   0
  39
 -26
  72
   7
  -7
 -41
 -36
  -8
 -33
  24
  32
  36
  -5
   6
  44
 -28
 -15
 -28
 -33
 -24
  -4
 -23
  25
   5
 -24
  36
 -34
 -38
  -7
   6
  53
 -31
 -54
 -33
  27
  -9
   9
 -76
  11
  -1
 -55
 -24
  33
  -9
  33
 -17
   2
  21
 -18
 -18
   1
 -41
 -51
 -14
 -30
  -7
 -10
  -9
 -25
  -6
 -25
 -22
   3
  22
  -8
 -41
 -52
 -32
 -34
  11
   8
   3
  12
 -27
 -29
   5
  61
  20
  -1
   6
 -45
  28
  -5
 -31
  -2
 -29
 -30
 -40
  29
 -15
 -31
 -35
  60
  16
   0
 -36
 -36
   3
 -14
 -13
  -2
 -27
  -5
  40
 -22
  -2
 -35
  50
  29
  35
  19
 -14
 -56
 -46
   9
 -65
 -49
 -45
 -32
  -2
  10
 -30
  12
 -19
 -28
  41
  52
  41
  35
 -14
 -14
 -63
 -71
 -53
  44
 -21
  45
 -11
  28
 -43
 -10
  19
 -27
  35
 -20
  -8
  42
  32
 -37
 -16
 -16
 -47
 -11
 -35
  50
   5
  26
 -50
  -7
  -5
   4
  49
  38
   9
   9
  54
  14
  33
 -37
 -60
 -40
  45
  42
 -34
  48
 -72
 -18
  33
  12
 -41
   6
   4
 -15
 -32
 -20
  -9
  -4
  18
 -41
  14
  32
  10
 -48
 -51
 -41
   2
  31
 -35
  -8
 -71
  25
  15
  33
   1
  46
  30
  10
   4
 -32
 -39
   2
 -31
 -56
  37
 -35
 -19
  32
   5
 -50
  46
 -41
 -22
 -32
 -20
  43
  24
  37
  23
   3
  -7
  11
 -13
  14
   6
  13
 -27
  46
  28
 -30
 -34
  17
  20
 -30
 -36
   1
   2
 -39
  24
  36
 -41
  13
  44
  52
  26
 -44
 -50
  -8
  13
  52
   4
  63
  46
 -11
 -27
 -65
 -43
 -25
  -8
   2
 -25
  46
  31
  -8
  43
  12
  48
  31
   9
  10
 -42
  42
  -2
 -61
  -6
 -26
 -16
 -37
 -46
   9
  24
  36
  25
 -22
  12
  66
  28
  53
  21
  50
 -29
  38
 -33
 -44
  45
   3
  26
   0
  39
 -13
  -6
 -21
  51
 -53
  -2
   2
  36
  53
  -1
 -52
 -43
   2
  26
  33
  -9
  58
  47
  42
  16
  25
 -48
  29
 -42
  -5
  34
  -2
  -5
 -32
 -43
 -41
  27
  21
 -34
 -10
  11
 -34
  34
  11
 -55
  40
  49
 -43
  60
  29
 -17
  20
 -55
 -51
  27
  -6
  -3
  -9
  -1
   4
 -66
  20
  17
 -45
 -36
  29
 -55
 -15
  52
  13
  44
 -30
  21
   8
  -8
 -14
  61
 -17
   0
  -4
   9
  37
  40
  53
 -46
  30
 -10
 -38
 -39
  16
  34
 -34
 -10
  23
 -51
  33
 -14
  55
  46
 -37
 -45
  67
 -30
   8
  32
 -25
   6
 -42
 -20
  21
 -46
  49
  -8
 -37
 -28
  33
  60
 -31
  18
  -6
  24
 -43
 -60
  33
  63
 -11
  24
  37
 -30
  29
  33
  32
   4
 -32
  62
   0
  14
 -26
 -38
   2
 -65
 -63
 -36
 -43
  16
  51
 -37
  -6
   3
  19
   0
  47
  -9
  22
   4
  30
  49
  62
   5
  33
 -18
  49
  28
  30
 -46
 -63
  53
 -41
  -4
   7
 -26
 -11
  54
   9
  15
 -49
 -38
  14
 -20
   7
  42
 -15
  44
  27
  17
  47
  -8
  -2
 -62
 -18
 -13
  35
  -2
 -15
  48
 -34
 -21
  -8
  38
   1
  -5
  13
 -16
  49
 -24
  -1
 -26
  36
 -38
 -22
  64
 -14
  52
 -28
 -20
 -35
 -53
  25
 -17
 -52
  10
  24
  32
 -41
  -1
  -8
 -34
 -45
 -22
   9
 -50
  15
  22
 -17
  10
 -62
  11
 -31
   6
  55
 -26
 -42
  -8
  -5
  39
  35
 -57
  55
  36
 -10
 -65
 -28
 -26
  35
 -15
 -19
  27
  47
  31
  36
  27
  35
  41
 -37
  16
  38
  40
   4
 -25
 -45
 -24
 -33
 -11
  -2
 -13
  42
 -22
 -10
  30
  41
  22
 -37
 -48
 -23
  -1
   8
  -7
  39
 -32
 -45
 -18
   2
 -34
 -64
  24
 -17
  20
  37
  42
 -25
 -41
  15
  36
 -26
  39
 -53
  20
   3
 -38
 -41
  -3
 -15
  20
 -33
 -53
  14
  43
 -33
 -39
 -30
  58
  18
 -24
   2
 -44
 -12
  35
 -22
 -11
 -33
 -54
 -10
  -7
  -8
  17
 -15
 -26
 -29
  30
   8
 -20
 -26
 -42
  -7
  22
  42
  -7
  26
  27
 -28
   8
   6
   2
  19
 -20
  12
 -16
  -4
  24
 -50
   4
  19
 -30
   0
  18
 -27
  19
 -14
  33
 -41
 -10
 -50
  44
  40
  24
  -2
  17
 -30
  15
  29
  88
 -15
 -16
   2
  26
 -66
  22
  11
 -63
 -31
 -23
  35
 -23
 -19
  -8
  -6
   1
  15
  34
  50
  60
  40
 -18
   6
  14
 -26
 -31
  48
  50
  26
  17
  39
   8
   0
  49
   2
  -3
  10
 -24
  10
 -28
  -5
  35
  -3
 -71
  -2
 -59
  19
  -3
 -18
  48
 -10
 -34
   6
  -7
 -46
  23
  10
  27
 -15
  53
  32
  13
 -18
  -7
  23
   9
  28
   4
   8
 -38
  29
 -16
  24
 -38
 -12
  26
 -23
  -1
  16
  53
  62
 -29
 -28
 -66
   4
 -41
 -30
 -11
  15
  41
  32
  20
  30
 -21
  50
  23
 -40
  59
  32
  32
  15
  -9
 -24
 -19
  46
 -19
   2
 -27
 -17
  -4
  52
 -72
 -23
  34
 -29
  24
  -2
  -8
  20
  20
 -35
 -16
  23
 -33
   4
 -58
  29
 -26
  52
 -41
 -25
  12
  22
  18
 -79
 -34
  47
  45
   1
  -9
 -32
 -43
 -28
 -13
  11
  21
  41
 -47
 -39
  -7
  47
 -44
  -2
  14
   0
 -41
  -9
 -25
 -53
  14
 -31
 -12
  40
 -24
  39
  24
  18
  25
  -3
  46
  42
 -19
  21
   4
  24
 -34
  36
 -39
  48
   6
 -51
  -1
 -17
  47
  35
  -2
  20
  -9
   4
 -46
  37
 -37
 -26
  16
  13
   4
 -15
  42
   4
   5
  22
  38
 -28
 -42
 -27
 -19
  -8
 -46
  18
   7
   2
  50
   8
 -24
  33
 -23
 -28
 -29
 -10
 -68
 -69
 -38
  -9
  10
  68
  10
   6
  45
 -27
  15
  26
 -28
 -28
  23
 -32
  12
  -1
  45
 -70
  -9
  24
  -4
  63
 -38
 -63
  32
 -11
  25
  12
 -21
  -8
  37
  21
  16
 -24
  37
   0
 -24
 -38
  17
  -8
   7
 -26
 -16
 -26
   4
 -18
 -35
  14
 -47
  12
  29
 -96
  -5
 -18
  10
 -32
 -21
  14
 -14
 -53
 -99
  10
  15
 -43
  -4
 -13
 -11
   1
  17
  25
  59
  46
  31
  33
  46
 -66
 -27
  41
  14
 -39
   2
   2
  31
   3
  32
 127
 -49
 -61
  44
 -10
  51
  15
  -3
  16
  42
 -10
 -40
 -29
  44
  58
  42
  -6
 -12
 -20
 -24
   2
  25
  32
  41
  26
 -16
  -4
  17
  16
 -57
 -38
 -19
 -28
 -34
  50
 -63
  23
  -9
   8
  -7
  40
  32
  37
  12
  38
  15
  54
 -46
 -34
  19
   1
 -17
  24
 -28
 -35
 -22
  37
  29
  15
  41
  19
  18
 -37
   0
 -45
 -49
  43
 -12
  24
  -2
  33
 -10
  22
 -65
  48
  14
   8
  32
  15
 -30
 -27
  14
 -16
 -33
 -25
 -13
  42
  -1
  15
  48
 -53
 -42
  65
  26
 -13
  -6
  21
  32
  14
 -24
   0
 -27
   2
 -14
  20
  15
  23
   0
   5
  55
 -54
 -22
 -19
 -47
 -12
 -17
 -11
 -30
  61
  19
 -11
   1
 -42
  -9
  32
 -18
  43
 -31
  49
   4
 -56
 -15
  48
   9
 -63
  39
  48
   2
 -28
 -35
   0
 -51
  35
 -27
  -3
 -69
  23
   6
  29
  33
  35
  39
  44
  49
 -35
 -61
 -17
  -9
 -32
   6
  29
 -69
  30
  13
  12
  24
 -19
  22
  -1
 -52
 -17
 -22
 -67
  16
   5
 -27
  20
 -42
  43
  11
  28
 -60
 -31
 -29
  14
 -33
 -14
  41
 -39
   5
 -18
 -25
 -40
  44
  28
 -56
  37
  20
 -40
   1
  25
 -17
  68
  38
  28
  -5
  19
  -9
   1
 -26
   9
  22
  23
 -14
  11
  20
 -34
 -16
 -48
  65
   2
  58
  72
 -29
 -28
  13
   1
  34
 -12
 -17
  26
  10
  26
  34
  13
  -5
  19
   3
 -56
 -41
 -35
 -17
  -6
  27
 -22
  54
  61
 -24
 -43
  31
 -40
 -28
  33
 -32
  30
  -1
 -28
   5
  30
 -30
 -12
  27
 -26
   2
  31
 -15
  61
 -43
  10
 -21
  22
 -14
 -10
  -6
  -6
 -33
  12
  58
  -4
  20
 -11
  40
 -71
  50
  30
   2
  21
  -5
  -9
 -34
  12
  18
  25
  45
 -29
   7
 -25
 -62
  -7
 -40
 -19
 -10
   5
  10
 -60
 -44
 -28
 -25
 -36
 -16
 -61
  48
 -38
  13
 -20
  -4
  25
  38
 -21
  74
 -48
 -30
   4
 -14
   9
  -2
 -51
  -1
 -41
   9
  39
  -2
  28
 -13
 -10
 -46
 -40
   5
   4
  11
 -11
   6
  40
 -23
  18
 -21
 -51
  19
  31
 -20
 -12
 -37
 -23
  10
 -29
 -16
  -8
  42
  82
  51
 -14
 -13
  -9
 -44
  20
  -8
  17
  60
 -27
  58
  19
  34
  21
   2
  15
  -6
  10
   8
  34
  20
 -13
 -18
 -14
  58
  45
 -18
 -48
 -35
 -14
  39
 -75
 -32
  22
 -25
  32
  28
  35
 -15
  51
  34
 -22
  12
  85
   3
  19
 -20
  41
  32
  28
  43
  -8
 -27
  13
   8
  39
 -43
 -42
 -66
  12
  18
  46
 -18
 -23
 -10
  41
  30
 -38
 -29
 -47
 -26
  27
  65
 -23
  -8
  -5
  20
  14
  36
  12
  27
 -43
  14
  50
  37
   4
 -24
  36
 -70
  52
  -2
 -81
  -5
  -9
 -17
 -12
  29
  -2
 -15
 -19
 -60
 -26
  76
  47
  18
  -7
 -34
  66
   4
  14
  11
 -28
 -12
  28
 -39
  40
 -75
 -55
 -44
 -97
 -12
 -31
  -8
 -18
 -60
  -7
 -33
 -17
 -84
   8
  24
  10
  -6
 -26
  29
  19
 -29
  -9
 -24
  26
  -2
  29
  -5
   2
 -35
 -25
  29
  14
  -2
  30
  44
  36
  26
  35
 -35
  26
  22
  33
  58
  19
 -16
  -2
  29
   7
 -15
 -25
  15
   8
  68
  55
 -59
  21
 -11
 -19
  10
 -58
  14
 -43
 -23
  -4
 -28
 -29
 -27
 -16
 -42
 -48
  -9
 -22
 -63
  20
   6
 -23
 -14
 -24
  13
 -33
 -38
   1
  -7
  52
  26
 -10
   2
 -10
 -26
  28
  16
 -59
  16
   6
  -8
  14
   6
 -28
  14
 -46
  10
  13
  35
  60
 -13
 -39
 -58
  33
 -33
 -25
  37
   7
  -9
 -25
  48
  -9
 -24
  22
 -12
 -25
  -3
  14
   4
  13
 -19
 -51
  13
   6
  13
  45
  58
  30
 -32
 -17
  -1
  16
 -24
 -25
  -9
 -13
   0
 -18
  38
  57
  30
  40
 -39
   0
  -5
   7
 -31
  39
   0
  48
 -19
  47
  13
  40
  38
  -8
 -22
  31
  26
   8
 -54
  -2
  15
 -55
  31
  30
 -29
   1
 -18
 -26
  18
 -37
 -16
 -39
  25
 -30
 -22
  -4
  10
  -1
  14
  20
 -42
 -11
 -34
  10
  -6
  61
  18
 -53
  -8
 -25
  12
  -4
   1
 -63
 -37
  17
  35
 -23
 -26
 -16
  48
 -35
 -24
   1
  28
  59
  -4
 -31
  38
 -17
   1
 -15
  29
 -65
   6
  63
 -17
  13
 -14
  -7
 -29
 -14
  19
 -46
  29
  70
   0
  54
  -1
 -39
  58
  41
 -71
  30
  36
  46
 -29
  55
  31
  -6
  57
  59
  54
 -49
  69
  50
 -33
  -5
 -10
 -31
 -40
  22
  35
 -16
   1
  30
 -10
  18
  -3
  36
 -12
   3
 -34
 -40
 -34
 -16
   4
 -51
 -13
  15
  33
  10
 -34
  14
 -31
 -29
  27
  15
  10
 -23
 -14
 -41
 -33
 -48
   4
 -11
 -35
  50
 -18
  10
  25
  27
  25
  51
  48
 -31
  53
 -26
 -63
 -25
  17
  46
  -5
 -24
 -42
   3
  -7
  25
  15
  -5
 -34
  39
 -11
  12
   5
 -59
 -18
 -43
  16
  52
  38
  21
  14
  -1
   6
  18
 -46
 -15
  40
 -12
 -38
 -48
 -34
 -31
 -17
  -8
  19
 -37
 -11
  13
  28
  -8
 -11
 -14
  17
  -3
 -45
  -1
 -26
 -16
   6
  94
   6
 -65
  13
   5
  34
 -26
 -26
  11
  49
 -70
 -35
  37
  37
   0
 -49
  18
  14
   7
  10
 -22
 -32
  36
  16
  13
 -48
  69
 -51
  28
 -10
 -69
  33
 -36
 -16
 -28
 -77
 -44
 -39
 -55
 -28
 -11
 -34
  -3
  16
   6
  12
  54
 -47
  34
  67
 -11
  13
 -22
  -7
   9
  -1
 -21
  22
  23
  36
  32
  34
 -24
  50
 -13
 -27
  21
 -17
 -18
 -19
  16
   1
  13
  -4
 -19
  55
 -58
 -90
  -8
  28
  -7
  16
 -25
  19
  47
 -15
  39
 -37
  -8
  19
 -43
  -7
  -4
   1
  58
  35
  31
   6
  17
 -15
  37
  58
 -16
  50
   3
 -44
  -6
  38
 -22
 -23
 -55
  16
 -21
 -69
 -39
 -11
  32
 -38
  79
  -4
 -51
  34
  -8
  15
 -18
  27
 -50
 -49
 -15
 -32
  12
  40
  43
 -32
 -22
 -43
 -40
   8
 -33
 -42
 -12
 -21
 -28
 -22
  -6
  -7
  11
  12
 -45
  33
 -38
  14
   0
   7
  46
 -21
 -41
   0
 -11
  18
 -18
  61
 -32
 -38
 -41
 -44
 -15
 -73
 -24
 -51
 -38
   6
 -17
  32
 -19
 -64
  -9
  11
  -3
  40
 -24
  38
 -20
  31
  47
   5
 -11
 -18
  31
  27
   5
 -12
  69
 -12
 -18
  12
  26
  -3
  -3
  41
  33
   4
  17
   5
   4
  23
  29
  -3
  55
 -55
  15
  46
 -37
 -45
 -43
  28
 -53
 -39
 -28
  31
 -21
   6
  -4
  39
  49
 -11
 -10
  -5
 -24
   0
 -51
 -16
  49
 -26
 -19
   6
  45
   0
  -1
 -51
  44
  37
  17
  13
  49
 -40
 -26
  26
  43
 -11
 -24
 -13
 -47
  20
 -43
  36
   6
 -32
   6
  23
 -40
 -51
  27
   1
 -58
  44
  -3
   9
 -58
 -23
  12
 -34
   7
  15
  51
  45
 -24
 -56
 -18
  51
 -21
  15
  43
   8
 -33
 -12
  10
 -27
 -37
 -16
  23
  -8
  44
  -4
 -48
 -35
 -16
 -52
  20
 -33
 -45
  53
 -35
  32
 -52
   1
 -41
  23
  -5
  18
  81
  24
  39
  -2
 -40
 -23
 -19
   1
 -56
  25
 -54
  15
  22
  46
 -10
 -51
   6
   3
 -92
  15
   8
 -41
 -47
 -29
 -15
 -28
 -22
  11
 -26
  21
  37
 -58
 -46
  42
 -21
  36
  -8
 -25
  22
  34
 -46
 -13
  50
 -16
  19
  31
  -2
 -16
  21
 -16
  19
  12
  54
   6
  23
 -13
 -23
  14
 -17
   9
  23
  33
  10
  32
 -19
  29
 -38
 -26
  35
 -52
  54
  43
 -55
  18
 -46
 -17
  41
 -38
  28
  24
   8
  59
  -3
 -16
 -22
  -9
 -50
 -60
 -21
  23
  18
   4
 -23
  15
  42
  57
  35
  -2
   2
   2
 -54
  10
   2
 -15
 -16
  26
  19
  37
   1
  32
  15
  67
   1
  59
  27
 -52
   5
 -17
 -20
  20
  10
   4
  41
 -52
  23
 -48
 -49
   7
  82
 -18
  29
 -17
  40
  36
 -24
  34
