 -20
  -2
  17
  19
  18
  -7
 -73
 -90
  93
 -12
 -55
   8
  -7
  14
   8
  33
  65
  53
 -42
 -21
 -26
  44
 -33
  31
 -48
   7
  -7
 -18
  31
-105
 -59
  10
  78
  51
 -15
  -6
 -15
  62
  -5
  47
  33
  21
  10
 -21
   1
 -41
 -19
  -7
  21
 -26
  19
  17
   2
  37
 -19
  32
 -19
   1
 -18
   5
  59
 -90
 -75
  -2
  -3
  29
  54
 -16
  69
  36
   7
  26
   8
   7
  48
  85
  31
 -38
 -73
   2
  35
  43
   6
 -39
  34
  27
  -5
 -15
  -7
  -1
  10
  10
 -32
   0
 -77
 -16
 125
  -9
  44
 -50
  33
 -28
  -1
  10
   1
 -12
  21
 -10
 -22
  -4
 -54
  25
  83
  28
  35
  -6
 109
 -88
  -2
 -56
   6
  69
 -41
  -1
 -38
  53
  53
  26
 -14
  13
 -23
 -14
  -4
  -9
  -5
 -22
  74
  48
   1
 -12
  37
-128
-108
 -22
  63
 -27
  12
  -3
  16
 -23
  38
   8
 -16
 -18
  34
  44
 -30
  40
 -74
   9
  45
  25
   9
 -24
   2
 -28
 -26
 -29
  71
  48
 -41
  23
 -14
 -12
 -29
 -16
 -41
 -68
  24
  32
 -31
  30
 -20
  24
  28
  27
 -13
 -34
  61
 -62
 -73
  28
 -19
   5
   7
  18
 -33
  33
  -5
  27
 -74
  -6
  29
 -49
  -3
 -72
  12
 -64
 -11
   8
 -46
  -8
  18
 -52
 -35
   3
  85
  25
 -40
 -36
 -48
  10
  21
 -23
 -87
  15
 -36
  14
  -5
  15
   3
 -42
   5
 -26
  34
   4
 -50
  -7
  31
 -38
  11
  41
 -21
 -37
  59
  16
   4
   7
   8
  10
   5
   9
 -24
 -48
 -81
  15
