  38
 -27
  40
  26
   7
 -63
  -8
 -29
  54
 -14
  25
 -40
 -31
  13
  23
 -53
 -16
  35
  61
 -43
  18
 -13
  18
  74
 -13
 -52
  47
  88
  15
 -44
-105
  49
  18
  15
  15
 -32
  17
  19
   3
   9
  36
  37
 -13
  18
  -6
 -28
 -82
  -5
  16
  -3
  42
 -78
  67
 -41
  -4
  45
  -6
 -71
  61
 127
 -50
 -44
  -7
  20
   7
  23
  46
  26
 -12
 -55
 -74
  71
 -10
 -10
  22
 -55
 -12
 -25
  24
 125
  -4
 -27
  43
  13
  -8
 -18
  32
  58
 -25
  74
  -1
  -2
  43
  32
 -25
   4
 -49
  42
  28
 -38
  47
 -19
 -10
  27
  39
  55
 -29
  14
  28
  12
  67
  41
  14
  52
  54
  68
  23
 -69
  -9
 -46
  14
 -40
-101
  19
  30
  52
  94
 -39
  42
  18
  81
 -29
 -23
 -68
 -40
  66
  81
  10
 122
  15
  28
 -84
 -45
 -45
 -61
 -21
  21
 -17
  20
 -16
 -16
  53
 -45
  85
  -7
 -69
 -12
   9
  20
  47
 -36
  49
  -1
  56
 -53
 -64
  -2
  17
  80
  18
  25
  12
   0
 -55
  43
 -50
  -4
 -13
  15
 -44
  20
 -50
 -39
  44
 -22
 -36
  54
  48
 -14
 -69
  36
 -37
  22
 -52
  18
   7
  42
  28
  48
 -12
  -1
 -14
  39
   5
  41
   1
 -71
  32
   2
 -13
  -3
  86
 -79
   8
   1
 -16
 126
  49
  24
  15
 -36
  50
  33
-115
  37
 -58
   0
  73
  -4
  90
 -27
 -13
  27
  39
  51
 -53
  31
  62
  -7
  -5
  17
  -7
  11
  24
  27
 -42
  19
  45
  35
  39
  25
  -1
  45
   1
  29
  40
