   4
  27
 -51
   8
  -3
 -31
  53
  27
 -42
  -9
 -21
  -4
  17
  69
 -27
   3
 -29
  24
 -12
  21
 -19
  19
 -36
   9
 -53
  23
 -38
 -34
 -35
 -39
  10
  -2
  -4
  12
  29
  15
   0
  39
 -35
  42
  45
  56
 -28
  29
 -10
 -28
 -26
 -46
  31
  17
  36
 -53
  16
  26
  37
  10
  21
 -29
 -32
  61
 -51
  12
 -25
 -23
 -16
 -51
 -77
   1
 -68
 -15
  46
  38
 -53
 -37
  -5
 -46
 -45
  32
   1
  16
  29
 -20
 -26
 -18
   5
  30
 -34
 -13
   1
  11
 -24
 -51
 -25
 -12
   0
  -4
 -39
   2
  40
  18
  10
 -38
  10
  -5
  53
  51
  34
 -39
  35
 -53
  34
  24
  -8
  42
  32
  13
  -7
   2
  28
  38
 -20
 -31
   5
   3
  -3
  21
  29
 -12
  11
  30
  24
  -5
  30
 -46
  -4
 -79
 -41
 -21
  57
 -35
 -40
  -8
  -3
   8
  31
 -40
  58
 -13
 -43
  39
  58
  53
  70
 -41
  -7
  36
 -43
  31
  13
 -15
 -46
  33
 -12
  -1
 -12
 -38
   9
 -18
  14
 -46
  39
  27
 -59
  60
  17
 -39
 -27
 -28
 -17
 -55
  25
 -48
 -41
  30
  -1
  34
  -7
 -35
  20
 -35
  -6
   8
 -31
  53
  17
  20
 -39
  29
 -60
 -70
 -30
 -14
   3
  64
  -4
 -38
 -15
 -99
  16
  31
  64
  -2
  29
 -12
 109
  45
  52
 -53
  55
  -9
  13
 -21
  62
 -76
 -14
  23
   2
 -42
 -29
  -7
   6
 -41
 -73
 -35
  -1
 -50
 -14
  -3
 -60
   0
 -48
  31
 -47
  -7
  65
  48
 -31
 -61
 -17
 -61
  12
 -24
  38
  19
  21
 -18
 -20
  -1
 -26
  17
  50
 -32
 -43
 -10
   6
 -45
  39
  36
  17
  23
   5
  -6
 -45
 -30
  29
  32
  16
  45
 -25
  -5
  47
  11
  44
 -51
 -17
 -20
  14
   8
 -14
  38
 -36
 -39
  30
   0
  50
 -25
 -12
   8
  -3
 -23
   1
  17
  42
 -29
 -52
  -4
  10
  -1
  10
 -36
 -47
  32
  52
 -47
  -5
 -45
  10
  30
 -51
  17
 -26
   9
 -32
 -39
   3
  20
  -7
 -20
  24
  41
   5
   7
 -24
  -9
  46
 -43
  14
 -49
 -20
  37
  51
 -11
 -14
 -30
 -56
  59
  -2
  -7
  21
 -10
  39
   5
 -14
 -51
  58
  41
 -35
   9
 -23
  43
  21
  75
 -24
 -31
   0
   2
  -8
 -17
 -25
  25
  35
  32
 -13
  43
  35
  39
  65
   4
  11
  68
  24
 -21
 -60
  32
  29
  53
  -5
 -19
  52
  21
 -31
 -27
 -21
  30
  44
 -49
  -9
  20
  -5
 -47
 -17
  -6
  77
 -23
  17
 -32
  79
  28
 -26
 -39
  39
  57
  46
  13
  16
 -47
   8
  44
  71
 -53
 -53
  31
 -28
 -37
   3
 -24
  64
   5
  33
  26
 -20
  39
  17
 -59
 -24
  37
  29
 -32
  16
  -9
 -24
  22
  19
 -50
   1
  -9
  21
 -13
   8
  35
 -15
  78
 -14
 -65
   2
 -34
  16
 -25
  -2
  40
 -35
  12
   3
  -7
 -19
 -10
  46
  41
 -22
  18
  72
  40
 -38
  -7
   5
 -40
 -47
  14
  19
 -32
  21
  14
   5
 -20
 -31
  37
  39
  -2
  -9
  32
 -26
 -36
  44
 -24
 -46
 -24
   0
  35
   5
 -66
 -10
  -9
  37
 -37
  48
 -72
 -24
 -45
 -36
   6
 -10
  30
 -26
  -4
  38
  22
  31
 -59
  -2
 -61
  -8
 -30
  28
   2
  30
  30
  44
  42
  55
  14
  23
  18
 -33
 -29
  12
  81
  40
  -1
  18
  49
 -41
 -22
  31
  50
  46
  37
   7
 -17
 -12
  69
 -21
 -16
  35
   1
  41
 -29
 -41
 -15
 -25
 -16
 -14
  40
  -1
 -60
  41
 -21
   4
 -13
  57
 -29
   4
  28
 -39
 -28
 -40
 -15
  30
 -72
 -10
   4
 -61
  21
  47
  -8
  -4
  -3
   7
 -40
 -22
   7
 -22
   0
   8
 -24
-108
   1
  53
  20
 -58
 -55
   8
  34
  18
 -66
  -5
 -59
  42
 -10
  45
 -41
  -3
  51
   9
 -58
 -38
   1
  19
  50
  20
 -24
  40
 -15
  -9
 -10
  40
  19
   9
 -41
  -2
   1
  42
   0
  36
  32
  14
 -20
  19
  29
  62
   9
 -24
 -45
  36
 -56
  -4
  62
   0
  75
 -22
  45
  29
 -39
  12
 -68
 -23
  -2
  27
 -41
 -11
 -18
  37
 -21
  20
 -62
   1
  25
 -12
 -65
  18
 -26
  38
 -24
 -15
 -50
   6
  -7
  25
 -62
  44
 -25
  28
   6
 -12
  12
  17
 -44
  42
 -10
  47
  -9
  34
  15
  47
  23
  10
 -36
  22
  10
  33
 -26
  35
 -36
  -8
   3
  28
  41
 -40
  55
  18
   7
 -27
 -46
 -24
 -48
 -32
 -27
  21
  44
  31
 -28
  35
 -35
   4
 -43
  -1
  17
  39
  57
  42
 -49
 -17
  12
  15
  30
 -10
 -32
 -39
  20
  29
  14
  16
  25
 -33
 -31
 -39
 -26
 -38
 -44
 -48
  40
  -1
  -4
 -10
  -3
  45
  13
  25
 -12
   9
  48
  24
 -25
  43
  36
 -38
 -13
 -40
 -44
 -50
 -28
 -56
 -12
  40
 -38
  31
   4
   2
  17
  -6
  26
   5
  24
 -13
   0
 -36
   8
  26
  13
  15
 -26
   0
  14
 -15
 -48
 -39
 -11
 -20
  22
  38
 -23
  27
  26
  20
 -11
 -25
 -18
 -19
   4
  20
 -21
 -18
 -26
  -2
  65
  26
 -43
 -39
   8
 -30
   5
  42
  19
 -29
  12
 -18
 -35
 -13
 -21
 -55
 -34
 -42
  31
  -1
  -9
 -36
   8
 -84
 -72
 -42
 -39
 -31
  19
  83
  11
 -43
 -18
  66
 -26
  37
  27
  56
  36
  -8
  27
  -1
  61
  -9
 -27
 -36
  17
 -19
  28
 -38
  12
 -43
 -24
   2
  32
  12
 -29
   1
 -14
  -9
 -54
  17
  58
 -17
  16
  16
 -12
 -23
 -26
  32
 -36
 -40
  42
  -2
 -43
 -44
 -63
  38
  14
  27
  19
  39
 -45
  41
  13
  51
 -75
  36
  -3
 -34
  30
  12
 -40
 -17
 -25
   4
 -52
  36
  52
  45
 -23
 -25
 -31
 -34
 -53
 -33
 -52
  24
   6
 -35
  -9
  30
 -35
   3
 -18
 -13
 -16
 -16
  41
  35
 -16
 -17
  26
  29
 -47
  44
 -21
  26
  11
 -24
  32
  -5
 -47
 -13
  -2
 -47
   1
 -42
  16
 -75
  70
 -23
  13
  20
   8
  17
 -30
 -14
  41
  41
 -39
   9
  11
 -14
  22
 -46
 -11
   6
  46
 -61
  12
  47
 -24
  29
  15
 -24
  50
  42
 -32
 -13
 -20
 -50
  58
 -31
   0
  34
 -26
 -30
  32
  44
 -17
  61
  28
  -6
 -55
  42
 -13
   3
 -27
 -10
  52
  -7
 -14
  34
  20
  43
  29
  34
  64
 -27
 -22
 -31
 -16
 -38
  40
 -27
  42
 -30
 -23
  32
 -15
  15
  50
  -6
 -28
  -8
  23
  -2
  41
 -12
  11
   7
  28
  13
  -4
  11
   4
  17
  33
  49
 -32
  -7
  -2
  47
 -29
  33
  -4
   3
  30
  36
 -25
   7
 -22
 -35
 -23
  27
 -20
  -4
  -3
  45
   5
  31
 -48
  -8
  41
  31
 -13
  40
 -38
  15
  10
   0
  -3
  12
 -17
 -38
 -26
 -28
   8
  37
 -12
 -29
  20
 -17
  20
  43
 -10
 -19
 -73
  74
 -13
  96
  92
  39
  53
 -57
   4
 -22
  47
  23
 -33
 -27
 -12
 -35
 -19
   3
 -10
 -55
 -24
 -71
  32
 -12
 -12
  19
  20
   0
  28
  42
 -68
  36
  -8
   6
  32
 -29
  58
 -25
 107
  23
   4
  20
  19
  58
  15
  54
 -15
   4
  85
 -21
  -2
  10
  65
  40
  -9
  14
  50
 -24
 -21
 -13
  85
  31
  -5
 -46
  25
  57
  34
  26
 -18
 -10
  47
  18
 -45
  36
   9
  40
  16
 -49
 -31
  33
  -4
 -14
 -24
 -27
  47
   3
 -39
  13
 -15
   5
 -10
 -41
  11
  20
 -12
  41
  -8
  -6
 -41
 -21
   8
 -16
  72
  46
 -25
   2
  32
  41
 -15
 -52
 -24
  -5
 -43
 -31
 -37
 -21
 -10
  68
  42
 -19
   6
 -50
 -13
   1
  39
  16
 -25
  17
  39
  60
  12
 -50
 -95
  15
 -50
 -45
  32
 -23
   9
 -29
 -24
 -56
  -9
  -1
 -23
 -38
 -37
  52
  28
  11
 -51
  29
 -29
 -32
  68
  40
 -34
  -5
  -5
  15
 -64
  30
  46
 -20
 -25
  17
 -38
  25
 -23
 -52
  40
  21
 -21
 -79
 -36
   2
 -69
  -1
 -45
 -14
  12
  14
   2
  34
 -32
  25
   7
 -12
  19
 -20
  -7
  -7
 -35
  44
  56
 -41
  50
  -1
  38
  41
 -21
 -41
 -37
 -26
  31
   5
  28
 -43
 -51
  43
 -51
 -53
 -24
  35
  35
 -10
 -38
  41
 -35
 -30
 -42
  -2
  33
  47
 -46
  44
  -3
 -33
  32
  45
  -8
  49
  44
 -32
 -54
  22
 -11
   9
 -49
   8
  13
   8
  15
   7
 -46
  13
  62
   4
  30
  10
 -39
   0
  -6
  29
  23
 -13
 -52
 -16
  21
 -16
   1
  19
 -28
  49
  38
   7
 -30
 -34
   0
   1
  20
 -22
  24
 -48
   0
 -33
 -54
  25
  -1
 -35
 -33
   6
  47
 -12
  -6
 -15
   5
 -21
  12
  -7
 -62
 -28
  13
 -39
 -29
 -21
  20
 -31
  -3
   0
   0
  42
 -23
 -50
   0
 -54
  14
  51
 -28
 -68
  28
   4
   0
  60
   4
  49
 -38
 -51
 -15
  57
  74
 -28
  -2
 -51
 -85
  35
 -26
  63
  20
  25
   8
  -9
 -29
  37
 -29
 103
  42
 -17
  66
  13
  87
  -6
  15
  67
  36
  48
  25
 -48
 -17
 -48
  51
 -26
 -81
 -31
  66
  14
  -1
 -80
 -74
  -6
  24
   4
  45
  -1
   2
   3
  11
 -14
 -29
  67
 -13
 -18
  31
 -69
 -77
 -11
 -65
  42
  38
  -7
 -77
 -38
  51
 -22
  54
  60
 -11
  47
   0
  12
 -15
 -44
  23
 -42
  50
 -62
 -40
 -37
   7
 -42
  20
 -30
   7
  25
  18
   7
 -49
 -50
 -72
 -74
  19
 -14
  47
  18
 -36
   3
 -13
 -13
  54
 -38
  20
  -8
  26
 -22
  52
  -8
   6
   5
  -5
 -34
 -44
  -8
 -43
  -1
  12
  10
 -13
  28
  37
 -16
  30
 -61
 -48
 -13
   3
 -36
 -24
  22
  43
   8
  -8
  38
 -14
 -32
 -28
  31
 -38
 -25
  -9
  36
 -45
 -42
   6
 -37
 -44
  41
 -29
 -10
 -38
  -1
  14
  48
  -1
 -18
   8
  27
 -13
 -26
  14
  -2
 -32
 -31
  38
 -53
  31
  20
  56
  38
 -59
  36
  30
  35
 -48
 -29
  24
  22
  -3
  33
   5
  26
 -28
  52
  10
  -9
   0
 -15
 -31
 -11
  -3
 -31
 -10
  26
  59
   2
 -81
  16
 -12
  -3
 -49
 -59
  -6
  24
 -26
  19
 -25
  28
  18
 -11
  30
  22
  32
 -52
  47
 -23
  50
 -33
 -48
 -42
 -10
   7
   0
  13
 -14
  -9
  25
 -28
  21
  16
  14
   0
  53
 -65
  37
  37
 -32
  44
 -40
 -12
  -6
  -8
 -21
  32
 -34
  17
 -34
  47
  31
 -39
 -31
  38
  17
 -39
  38
  15
 -28
  -5
   1
 -20
 -31
  10
 -46
  21
  48
  25
 -45
  40
  25
 -13
  41
 -27
  40
  23
  11
  51
 -54
 -13
  49
  15
 -35
  57
  31
  13
 -37
  12
  20
   4
  42
  12
  28
  37
 -17
 -14
 -37
  -8
 -27
  44
  16
 -32
   8
   9
   0
  18
  11
  10
  11
  33
  -1
 -51
  22
  61
  50
  22
  -5
 -20
 -10
   0
 -40
   8
 -23
 -55
 -79
 -13
  -5
  25
   5
  14
  53
   9
   9
  18
 -50
 -21
  57
 -24
 -39
 -70
   8
   4
 -53
 -44
 -66
  28
  -5
 -62
   9
  12
 -85
 -29
  15
 -44
 -59
   5
  16
  25
 -73
 -37
  29
  48
  86
  31
  11
 -33
  -7
  55
  38
  33
  -6
  31
  32
 -37
  -3
   8
  59
  17
  26
 -84
   9
 -45
   9
  44
  25
 -16
  16
 -33
  64
  45
 -59
  24
  21
 -16
  13
  37
  46
  13
  57
  53
 -49
 -22
 -42
 -34
  12
  10
  54
  12
  22
  18
  18
 -30
 -36
 -55
  20
 -24
 -17
  17
 -23
 -24
   9
   1
  -9
 -26
  20
   8
  46
   2
  28
  11
 -40
  -8
  21
 -39
  53
  16
 -62
   0
 -25
  37
   8
   7
 -64
  47
  39
 -18
   9
 -22
 -38
 -23
  25
 -39
 -41
 -49
   9
 -31
  45
  27
  41
 -54
 -55
  -2
  38
  59
  17
 -27
 -37
 -30
 -48
  25
 -28
 -31
 -46
  38
  30
   2
 -27
   6
   1
   1
 -12
 -38
  18
  11
   3
  36
 -21
 -30
  -7
  -6
 -14
   1
 -39
  10
 -49
  34
  11
  35
  -9
  28
  33
  28
  26
 -17
  41
  31
  -7
 -36
   2
  16
  25
   1
  17
  37
 -62
  41
 -73
   7
  -8
  -6
  43
  42
  21
 -34
 -27
   7
 -16
 -26
  14
 -18
  17
 -30
  36
  39
 -22
   5
 -37
 -37
  19
 -14
 -16
  46
  25
  32
  -1
 -18
 -15
   6
  34
 -37
 -59
   9
  14
  12
 -28
 -41
  19
 -55
   8
  34
 -16
  58
 -13
  32
  24
 -33
  18
   4
 -22
 -12
  29
 -40
 -50
  28
 -25
   5
 -11
  38
 -38
  25
 -11
 -74
  36
  59
  96
  40
 -10
  12
 -45
  44
 -54
  43
   2
 -22
   3
 -19
  37
  66
 -61
 -13
 -84
  12
  -1
 -56
  28
  30
  31
   5
  46
   0
 -44
  29
  76
  43
  28
  40
  45
 -15
  98
 -67
  41
  22
 -44
  56
  -9
  22
  39
 -24
   8
  39
  53
  -9
 -34
  -2
  18
  40
  24
 -72
  44
   8
  39
  -2
  24
 -52
  44
   8
 -37
  51
 -38
  31
 -50
  -5
  23
 -21
 -17
   7
 -52
 -51
 -29
  15
  13
 -24
 -24
 -48
 -23
 -49
  28
  36
 -25
 -47
  48
  -4
 -28
 -33
 -54
  43
 -35
  15
  20
  21
  12
 -31
 -20
 -47
 -22
  21
  41
 -11
 -27
 -33
 -24
  25
 -36
  48
 -28
  -1
  11
  -3
 -55
  39
  15
 -34
  -3
 -33
  44
  -6
  35
 -77
  22
 -22
   1
 -39
  27
   9
 -47
  -5
   7
 -10
  27
   8
 -44
  33
 -21
  49
 -39
 -46
   0
  19
   3
 -17
  20
  44
  -8
 -24
  38
 -34
 -23
 -47
  31
  49
  -7
 -51
  14
  -4
 -38
  20
  45
 -25
  31
  -3
 -21
 -37
  -3
 -24
  -3
  50
 -52
   8
 -45
  16
 -46
  69
  22
 -23
 -14
  11
 -25
 -46
  -6
 -80
   3
  46
  42
  54
  44
 -48
   9
  12
  -3
   5
  36
 -41
 -10
  19
 -19
  49
  33
  31
  42
 -44
  52
  33
  28
  29
 -19
   2
  29
 -53
  13
  63
   1
  29
  36
  24
 -53
  38
   4
   4
 -15
 -17
 -33
 -21
   5
  43
   2
 -62
   1
  24
  -1
  -4
 -19
  25
   4
 -22
  -5
  19
 -24
 -10
  24
  16
 -21
 -20
 -22
  10
  43
 -14
  40
  32
  -6
  23
 -39
 -32
   1
 -30
 -12
  -3
  -7
   7
   8
 -37
  -5
 -42
  -6
  44
  22
 -50
  10
  -5
  30
 -35
 -49
 -41
 -39
  -7
  21
  16
 -13
  41
   2
 -21
  18
 -32
   2
   8
  58
 -25
  38
 -42
  22
  51
 -41
  44
  29
  15
 -50
  19
   6
  32
  19
  28
  28
 -16
   0
 -37
  26
 -52
  35
 -26
  36
 -24
  69
 -16
  19
  22
  21
  45
  31
   9
  28
  -5
 -13
  21
  -9
 -26
  39
  53
 -45
 -41
 -13
  14
  49
  24
  14
  40
 -35
  12
  35
  15
 -21
  42
  22
  39
  11
 -10
  23
 -37
  45
 -47
 -29
   4
 -38
   3
  59
 -19
  20
 -19
  53
  10
 -34
   4
  -4
 -26
  38
  53
 -50
  12
 -30
 -71
  39
 -35
  36
  -7
   3
 -29
  55
 -37
  -2
  39
 -21
 -35
  -1
 -33
  26
   6
  17
  11
  26
  11
 -32
 -19
  -3
 -27
 -24
 -41
 -13
  19
  47
  39
 -43
 -14
 -31
  16
 -31
 -31
  37
  25
  70
   4
  36
  16
  25
  16
  37
 -25
 -25
 -41
 -39
 -19
 -28
  37
   3
 -11
 -15
  38
  37
   0
  -9
  38
   1
 -50
  -1
 -28
 -39
 -50
  -9
  25
  16
  21
 -12
  21
  24
 -25
  17
  -8
  -5
   4
  41
  18
 -17
  -5
  14
  -1
  13
 -12
  22
 -21
  47
  18
 -13
 -48
  -1
  29
  27
 -23
 -15
  43
  18
 -17
  -8
  10
 -28
 -24
 -23
 -11
 -17
 -20
  20
  39
 -40
 -36
 -47
  34
  16
  -5
 -10
  18
   6
   8
  -5
 -25
  -5
  28
  40
  41
 -12
  52
 -36
  10
  27
  60
   9
   9
 -54
 -17
  10
 -18
  47
 -28
 -28
  15
 -36
 -26
  24
 -18
  48
   2
  17
 -24
  45
 -41
   6
  38
 -51
 -12
  50
   3
 -34
   6
   2
 -35
  22
 -57
  43
 -75
  38
 -12
 -18
  13
  -6
  10
 -63
   2
  35
 -15
   1
  27
  34
  55
  56
 -28
  41
   6
  37
  54
 -20
   2
  -3
 -30
  18
  40
  47
   8
  17
 -52
 -51
 -51
 -49
  18
 -49
 -36
 -40
 -21
 -36
  66
 -16
 -37
  38
  23
 -18
 -15
  32
  10
 -18
  23
  27
  19
  -3
  34
  19
  -3
 -25
  23
 -33
  33
 -35
 -19
 -14
 -12
  11
  -1
 -16
  15
 -76
   2
 -33
  40
 -43
 -32
  30
  10
  -7
  35
 -33
   1
 -51
  -9
 -23
 -47
 -50
  20
  67
  19
  26
  47
 -29
  -1
 -29
  22
  13
 -40
  25
  53
  20
  15
  13
 -10
  39
  -4
 -24
  37
  18
   9
 -13
  20
  25
  53
   6
 -47
  19
 -25
  10
 -17
  -4
 -52
   7
   7
 -34
  29
  13
 -48
  -4
  85
 -27
   2
 -26
  69
  54
  -1
   5
 -41
  -9
 -20
 -53
  36
 -15
 -62
   4
  41
  63
  65
 -50
  33
 -32
  -6
  10
  37
  64
 -58
 -16
  -4
 -10
  42
 -36
 -22
  25
  32
 -34
  19
   6
 -32
  -2
  -2
 -22
  32
  29
  57
  13
 -32
 -46
 -41
  13
  -8
 -38
 -42
  -2
  27
  28
 -46
  14
  40
  13
  42
  22
  39
 -24
  -7
  26
 -10
  29
   7
  30
 -18
  53
 -47
 -28
  37
  -7
  -6
  34
   1
  20
  11
 -59
   1
 -48
  32
  36
  -5
 -16
   2
  46
 -54
  -7
 -23
  45
 -22
  35
  33
 -53
  31
  55
  13
  -4
  39
  31
 -35
 -28
 -14
 -51
 -59
 -19
 -50
 -15
   5
  -6
  31
 -43
 -40
 -46
 -33
  -6
 -21
 -20
   9
 -52
  26
  14
 -11
 -47
  30
  -5
 -39
 -66
 -53
   6
  35
  62
  15
 -15
  21
 -36
  -8
   3
  18
 -33
 -21
  -9
 -23
  34
  14
  33
  44
  10
  43
   3
 -35
  32
 -28
  -5
  39
  32
 -41
 -16
 -27
 -53
  42
  18
 -29
  48
 -39
 -52
 -14
  35
 -10
  45
 -37
 -19
 -59
  -1
  -5
   5
  16
 -41
  13
 -21
  -6
 -28
 -49
 -50
  -1
  45
  46
 -25
 -19
  58
  14
 -37
  13
  10
  38
  61
 -21
  13
 -10
  15
  39
 -24
  19
 -24
  24
 -34
  -2
 -41
   5
  16
  41
  54
  20
 -18
  22
  12
 -58
 -34
 -31
  45
  34
 -28
  -8
 -66
 -28
 -33
 -53
  10
 -28
 -23
 -43
  50
 -36
 -36
  25
  42
  33
  26
 -45
   3
  46
 -34
  21
  -6
   6
  29
 -58
 -41
 -44
  27
 -23
  42
   7
  30
 -51
  31
  52
  38
  32
 -21
   4
   5
 -55
  11
  10
  34
 -66
  -7
 -34
  -7
   6
  29
 -15
   8
  10
  -7
  23
  22
 -20
 -28
 -48
 -49
  14
  42
 -32
  -5
  49
 -10
 -32
  10
  -4
  -5
 -16
 -11
 -28
  65
  54
  11
  35
  37
 -29
 -27
 -27
  39
  25
  39
  -5
  -8
 -27
  -9
 -13
  40
  38
  29
  23
   5
  37
  31
  50
  14
  42
   7
  38
  65
 -53
   5
   3
  35
 -33
  -6
 -35
  29
  -1
 -14
  18
 -26
 -27
 -33
  55
  -6
 -25
  41
 -60
 -35
  22
  49
  11
  44
 -64
  26
   4
  22
 -26
 -67
 -42
  24
   7
  42
  18
  57
  28
   1
 -34
   9
  52
  30
 -24
   7
  -6
  -4
  31
 -23
  50
  52
  13
  40
  -4
 -31
 -29
  -1
  14
 -22
 -50
  35
 -44
 -38
   7
 -68
 -42
 -36
  30
  46
 -31
  45
  10
 -15
 -30
  -9
  -8
 -27
 -79
   2
  35
  -2
 -42
 -12
  27
  53
  25
 -56
  32
 -33
 -58
  58
  25
 -35
 -42
 -15
  15
 -14
 -29
   6
   8
  46
   0
  30
  25
  -9
  14
   1
  11
 -26
  -8
   8
  39
 -10
  31
 -22
  29
  18
  15
 -14
  -5
  58
 -28
  50
  21
  31
  18
  29
   4
  40
  36
 -14
 -42
 -30
  19
 -37
 -32
 -42
 -36
  16
 -38
 -27
 -37
 -41
  23
 -31
 -45
  21
 -51
 -16
 -38
  14
 -21
 -31
 -50
  -6
  27
  28
  29
 -10
 -39
 -14
  35
 -31
  43
  66
  42
 -20
 -31
  20
   4
  24
  11
  -9
  66
  37
 -49
  17
  43
 -21
 -34
  41
  29
  -2
 -36
  60
 -39
 -23
   1
   8
 -29
   2
 -51
  -8
  49
   9
  -2
  61
  46
 -53
  15
  23
  20
 -47
  25
  13
  20
  15
  -5
  18
 -34
 -20
 -18
  30
 -36
 -31
  22
  31
 -34
  52
 -21
 -51
  19
 -26
  11
   8
 -25
  36
 -35
  69
 -28
 -33
 -39
   6
 -18
 -20
   7
  36
  -7
  27
  32
 -45
 -16
 -42
  -2
 -26
  13
 -12
 -50
 -27
  27
   6
  -4
  25
 -30
 -34
 -12
  42
   6
  -2
 -13
  22
 -15
  13
  35
 -15
  -9
 -52
 -37
  -9
 -10
  13
  71
  12
  18
 -16
 -30
 -33
 -45
 -23
  56
  20
  34
 -45
  39
  43
 -10
  61
 -39
 -17
 -45
   8
  37
  18
 -10
  33
 -41
 -27
 -52
   2
  32
  32
 -74
   9
 -31
  34
  -3
 -56
 -40
 -35
  29
 -22
  41
 -86
  55
   2
 -20
   7
  -2
  69
  53
  29
  39
  55
  25
 -60
  18
   5
 -14
 -27
 -34
  17
 -14
  17
  50
  27
  70
  20
  20
 -18
  20
  21
   4
  56
  -3
 -59
 -53
  42
   1
   9
  30
  31
  12
 -36
  41
 -26
  -9
  35
  25
  10
  34
 -42
 -13
 -31
  46
 -46
 -13
  23
 -21
   3
   0
   6
  17
  -6
   6
 -11
  18
 -47
   2
 -12
 -24
  39
  -5
   6
  26
  51
 -42
  -3
  25
 -43
  24
 -14
  31
  -4
 -34
 -52
 -41
  27
   9
   1
  55
  -8
 -15
  32
 -26
  23
 -34
  22
  41
  -8
  54
 -20
   4
   2
 -23
  25
   0
 -26
  38
  43
 -30
 -70
 -34
 -23
   6
  30
  18
  -8
 -32
  14
  28
 -55
  60
   9
  -6
  -8
  23
 -22
 -28
 -22
  18
  40
   8
  -8
 -35
  38
  -5
  19
   6
 -61
  31
 -26
  17
   4
   3
  30
  15
 -42
   3
  -1
  -5
   5
 -30
   8
  42
  27
 -24
 -42
  23
   7
  16
 -21
  48
 -16
  34
   9
  31
  58
  40
  60
 -26
  38
  11
  22
   0
 -60
  16
  42
 -51
 -39
  18
  11
 -27
  25
 -68
   2
 -58
  35
 -46
  -7
 -20
 -38
 -15
  31
  16
 -66
   1
 -39
 -30
 -37
 -31
   4
  -9
 -17
  48
  14
   1
  19
 -38
  18
  41
  42
  -2
  49
  -1
  17
 -11
  16
 -27
  17
  39
  44
  24
  27
  28
  12
 -50
  36
  18
  92
  28
  20
  23
 -29
  13
   3
  29
  42
  29
  66
  23
 -54
 -27
 -11
  60
 -21
 -14
   3
 -12
  -1
 -10
  -3
 -40
  40
  18
  22
 -16
  17
 -24
  35
  12
 -11
  27
  13
 -37
  55
   1
  66
   2
  27
  21
 -32
  -3
 -42
 -56
 -16
 -15
 -30
   3
 -37
   4
 -16
  31
 -96
 -33
  20
 -72
  22
 -31
   7
  31
  21
  19
 -71
 -16
   6
  48
  -1
  14
  34
  29
  -4
 -45
 -23
 -15
  53
   5
 -37
  12
 -20
 -20
   0
  31
   8
 -32
  18
 -52
 -41
 -43
  15
  37
  -9
  20
 -51
  21
  50
  12
 -57
   9
 -36
  28
   5
 -36
  26
  -1
 -40
  32
 -26
   8
  36
 -52
  33
   2
  51
  24
 -50
 -51
 -46
 -37
  -4
  -2
  -3
  -5
  48
 -39
  36
   2
 -69
  57
  99
   4
 127
 -11
  57
  -7
 -76
  51
 -46
 -26
  -7
 -61
   1
 -45
 -32
  20
 -13
-101
  -5
 -22
  16
 -45
  -5
 -29
 -95
 -25
 -23
 -22
 -89
  16
  -8
 -10
 -13
  11
  53
  44
 119
  50
 -30
   5
  23
 -12
 -25
  39
 -17
  35
  29
  13
  56
 -19
  39
  40
  59
 -28
  55
  15
   7
 -68
  63
  35
  -5
  66
  56
 -54
   5
 -66
 -90
  18
  31
  67
  50
  44
 -33
  46
   7
  12
 -41
  34
   8
  19
 -44
  77
  22
   6
   1
  67
   1
 -29
  51
   3
  57
  35
  64
 -58
 -83
   9
  67
  29
 -29
  22
 -97
  -3
  39
   2
  -3
  -7
  21
 -67
  39
  -4
 -36
  14
  32
  -2
   8
 -11
 -48
 -22
 -47
  30
   6
  44
 -43
   5
 -16
  32
  -7
   2
  50
  -8
  47
  -5
  19
  -8
  38
 -49
 -40
 -62
 -30
  25
  20
 -23
  23
  50
  -5
 -26
 -13
  24
 -27
 -53
  10
  18
 -14
  40
 -16
  24
 -54
   1
 -14
  -3
   3
 -20
  21
  24
  -8
   3
 -30
  40
  11
  -4
 -17
 -14
  37
  16
  83
  46
  21
 -22
  -5
 -39
 -33
 -16
   9
 -35
  -3
 -24
  34
  -3
  29
 -26
  25
 -39
  29
  30
  66
  -7
 -24
 -36
  25
  35
 -29
  20
  57
 -28
  24
 -41
  60
  45
 -61
 -64
 -52
  -8
  38
   7
  -3
  -7
 -15
 -43
  15
  41
 -45
  56
  60
  28
 -35
  20
  -2
   4
  28
 -50
  35
 -14
  12
  20
  53
  82
 -15
  45
  21
 -25
  29
 -38
   6
  16
  -6
  45
  18
 -52
  64
  22
  13
  -5
 -33
  24
  16
  26
  -8
 -15
  -1
 -13
  20
  43
  -6
   5
  32
  -4
  -3
 -22
  19
 -40
 -51
  37
  -6
 -42
 -60
 -17
 -44
  48
 -24
 -35
 -21
  10
 -31
 -22
 -29
  16
 -66
 -19
  29
  16
  44
  -4
 -35
  47
 -55
 -58
  11
  32
  35
 -44
   5
  11
 -14
  60
 -15
 -12
  31
 -17
  52
  35
 -10
   3
  29
 -77
  41
   1
 -28
  29
 -22
  12
  46
  36
  17
  29
  24
 -30
 -15
 -58
 -62
 -62
  33
  12
  60
  50
   7
  -2
  45
  -9
 -57
  -3
 -24
 -19
   5
  41
  51
  -2
  -7
 -43
  20
   9
 -58
   1
  23
  -4
 -50
  -5
 -65
  38
 -55
   7
  25
  45
 -37
 -22
  10
  13
  50
 -13
  16
  20
  40
 -44
  10
  40
 -63
  38
  26
 -18
  16
   2
 -32
   7
  49
 -62
 -46
  36
 -65
  40
  -1
  48
  30
  43
  43
   6
 -21
 -23
 -13
  17
 -35
  14
  38
  61
   6
  25
  -4
   4
  -6
  25
   3
  26
   9
  32
  42
 -51
 -31
  -7
  50
 -13
 -11
  26
  -7
   1
  48
 -13
  24
 -26
 -34
 -43
  59
  -3
 -60
  45
  20
  -4
  21
 -13
 -71
  40
  35
   1
  31
  -2
 -22
