 -17
   9
 -13
  86
  20
 -14
 -55
 -69
 -62
  67
 -23
 -22
  69
  43
  41
   8
   9
 -43
  46
 -88
   3
  41
 -88
  81
  84
  21
 -94
   3
 -38
  48
  -4
  92
 -28
  55
 -39
  13
  15
  60
  77
 -29
  63
  53
 -46
  14
  21
  76
 -40
 -31
  15
 -79
 -11
 -28
   6
 -58
 -48
   4
 -21
  50
  41
 -22
  31
  44
  23
 -67
  45
 -27
 -29
 -31
  81
 -90
  29
 -71
  43
  31
 -12
 -20
 -51
  41
 -35
  56
 -42
  39
  81
 -89
  -1
 -17
 -83
  67
   6
  31
 -59
  51
 -40
 -18
 -89
 -38
  33
 -37
  71
  21
 -60
  15
 -11
  17
 -30
 -66
 -36
 -12
  86
  16
 -39
  65
  60
  51
  19
  83
  73
 -44
 -56
  30
  92
-103
  99
 -10
 -81
 -91
  88
 -85
 -51
  79
   6
 -96
  16
  31
   2
  15
  72
 -60
 -88
 -23
 -80
  -1
  48
 -59
  33
  10
  70
  77
 -23
  80
  90
 -38
  43
  30
  32
   4
 -51
 -28
 -63
 -70
  -9
 -37
   5
  61
  16
 -30
  45
  84
 -86
 -46
 -57
 -12
 -33
 -84
  32
  37
 -36
  88
 -15
  60
  81
  -2
  83
 -88
 -53
 102
 -96
 -35
  73
 -10
 -53
  21
   7
  43
  26
 -42
 -39
 -24
  38
   8
  13
  78
  56
  20
  -4
 -20
  73
   9
  62
 -58
  52
 -41
  65
 -76
-112
 -35
  20
 -93
  16
  42
  97
  40
  33
  71
 -97
  18
  66
 -55
 -74
  24
  57
 -82
  30
 -69
  13
  30
 -21
 -47
 -98
 -44
 -26
 -99
  -4
  16
 -80
 -66
  -2
  57
 -11
 -90
  16
-100
 -19
 -75
  69
 -15
 -45
 -34
  17
  57
  58
  36
  35
  35
  13
   9
 -16
  -9
 -23
 -88
 -15
  17
 -78
 -75
  90
 -24
  91
  25
 -91
  77
 -16
 -15
 -34
 -29
  47
  49
 -63
  52
 -28
  79
  -2
 -38
 -81
  92
 -57
 -48
   2
 -23
 -64
  -1
 -39
  72
 -75
  49
 -41
  60
  14
   3
 -51
   0
 -81
  58
  32
  23
  75
 -19
-113
 -58
 -33
 -79
  13
 -72
 -23
  90
 -57
 -88
  41
 -59
 -25
  -1
 103
  16
  17
  58
  80
 -14
 -15
 -12
 -43
-108
 -17
 -20
  20
 -59
  -2
 -31
  35
 -86
  27
  72
 -65
   8
 -89
  39
  30
  14
   6
  50
 -61
  -7
  28
 -15
 -42
 121
  85
  62
-107
 -52
  87
  37
 -95
  -6
 -59
  66
  -7
  34
 -51
 -49
  29
  -1
   4
 -76
  55
 -25
 -36
 -46
 -48
 -61
  43
  84
  22
  60
  98
  -8
 -27
  88
 -87
  27
  42
  28
  55
  62
  19
  40
 -57
  53
  97
 -54
  28
  83
  58
  78
 -96
   9
 -49
  48
  67
  11
  60
  77
  -3
  54
 -90
  22
 -91
 -80
 -81
-116
 -88
  52
 -62
 -80
 -44
  50
  78
 -29
  46
 -30
  67
  22
 -36
  49
  -5
  17
  92
 -17
  68
 -27
 -36
  96
 -48
 -12
 -80
  37
  57
  88
  65
 -75
  -8
   2
 -89
  64
  46
  45
  17
  77
  21
  33
  52
 -35
  69
  40
 -44
  26
 -61
   9
 -45
 -43
  -7
  39
 -30
  40
  48
 -39
  22
 -31
  50
 -39
 -33
  -4
 -14
-104
 -21
  31
  78
 -37
  22
 -16
 -26
 -34
 -59
   8
 -23
 -58
  17
  32
 -95
  58
  16
 101
  17
  94
 -74
 -15
  60
  51
  26
  -6
   6
 -63
  26
  34
  25
  49
 -28
  65
 -35
  24
  -2
 -84
-110
 -88
  -8
 -87
 -22
  28
  17
  43
 -36
  30
 -65
  19
 -25
  23
  31
 -60
  64
 -49
 -89
 -47
  25
 -37
 -67
 -29
  33
  76
 -51
  35
 -49
  16
-108
 -16
  58
  25
  47
 -20
  18
 -52
  48
  42
  51
 -66
 -83
   3
  60
 -37
  42
  54
  93
  24
  25
 103
  61
  59
  -6
 -43
 -84
 -24
 -31
 -50
-101
 -32
 -50
  49
   7
  46
  33
  82
  78
 -27
 -31
   2
  -3
   4
 -40
 -48
  78
  -5
   6
 -88
 -30
 -14
 -17
 -59
 -46
  77
  34
  34
  16
  -5
 -90
 -47
  99
  -3
   8
  45
   9
 -67
 -51
  48
  31
 -92
  15
  84
  23
   8
  51
  53
  41
  87
 -28
  34
 -52
  48
  84
 -87
 -75
 -51
   4
 -52
  -9
 -33
  11
 -61
  38
  68
 -36
  35
  -2
  10
  27
  50
  -3
 -47
 -68
  58
   6
 -17
  -5
 120
-102
   1
 -10
 -30
 -70
  -5
 -36
  77
  66
   8
  91
 -15
  91
  39
  50
  48
 -30
 -13
 -38
   9
 -26
  80
 -66
  15
 -44
  68
  94
  -6
  77
 -73
 -58
 -10
  74
 -67
   9
 -34
 -22
 -60
  24
 -21
  67
  78
   6
  38
  24
  74
 -88
  69
 -35
 -90
 -13
 -17
 -70
  39
 -12
  33
  85
 -62
   0
   5
 -39
 -23
  22
  38
 -48
 -94
   6
 -59
  61
  84
  41
  32
 -66
 108
 -39
 -41
 -39
  18
  34
   4
  35
  75
  73
  27
 -34
 -31
  -6
  59
  58
 -33
  39
  69
 -67
  35
  85
  83
 -71
  80
 -17
 -54
  16
   4
  71
-100
 -77
   8
 -59
 -12
  -2
 -39
  81
 -14
 -18
  50
  17
 -62
  80
 -75
 -42
 -92
 -83
   7
  10
 -73
 -15
  37
   0
  81
 -32
  89
 -75
  62
 -56
  47
 -65
   6
  87
-103
  -3
  70
  25
  87
 -69
 -20
  35
  51
  18
  44
 -56
 -20
  67
 -57
 -41
 -59
  77
  18
 -19
  41
 -88
 -96
 -57
 -91
   9
  15
 -14
  38
 -64
 -38
  30
 -35
 -59
 -47
  24
 -35
 -24
  51
 -29
 -17
  46
-110
  40
 -33
 -35
  41
 -18
  89
 -37
  56
-106
 -22
  -2
  12
 -13
  17
 -33
  -1
 -93
 -63
  22
  -8
  33
  43
 -37
   9
  27
   5
  52
  92
  20
 -39
 -59
  56
-103
  -7
 -41
  72
  45
  54
   9
 -12
 -36
  23
 -88
 -65
  14
  -9
  38
   7
  23
  48
 -53
 -42
  -2
  26
  -1
  62
  68
 -42
   4
 -74
  90
 -23
 -92
 -79
 -42
 -31
  81
  35
 -34
   4
  -2
 -57
 -32
 -76
  10
 109
  -2
  86
  27
  29
 -88
  20
  67
  -4
 -24
 -28
  53
   0
  84
  50
 -39
  18
 -57
  75
  52
 -86
 -58
 -26
  46
  87
 -76
 -51
 -60
 -51
  -5
 -59
 -47
 -94
  79
 -92
  76
  21
  68
 -85
  10
  61
  80
  49
  19
 -10
 -22
  83
 -50
  16
 -68
 -17
  75
  -6
 -53
 -13
 -93
  56
  36
  41
 -43
  80
  83
  53
 -63
   6
  38
 -54
  61
 -63
 -62
 -38
  85
  27
 -43
 -18
  24
  72
 -54
 -43
 -22
 -23
  63
 -10
  26
 -15
  28
   7
  21
 -68
 -25
 -43
 -40
  61
  36
  35
 -11
  15
   1
 -14
 -91
  65
 -33
  48
  65
-120
 -43
 -40
  -7
  97
  14
 -47
  29
 -22
  64
  67
 -95
  22
 -10
 -71
  25
 -13
 -47
  86
  97
 -56
 -17
 -67
  16
  81
 -56
 -59
   5
 -14
 -59
  18
  15
  15
  53
 -39
 -54
  49
 -52
  88
 -31
 -27
   4
 -43
  88
 -14
   1
   5
  -1
  35
 -62
  56
 -46
  10
  99
-109
-119
 -77
 -22
 -65
 -62
  44
 -13
  24
  17
 -66
 -15
  22
 -40
 -57
  27
 -78
 -16
 -70
  10
 -18
 -43
  48
  31
 -62
  41
 -23
-117
  80
 -41
 -46
  -7
 -97
 -16
 -36
 -62
  30
 -64
 -40
 -57
  -1
  11
  78
  60
-107
  18
  77
  90
 -39
  87
  21
 -15
 -55
 -22
 -18
 -21
  77
  26
  22
 -97
 -38
 -30
 -31
  17
 -88
 -78
  45
  -1
  15
  59
  18
 -29
   4
 -83
  38
 -40
 -37
  35
  52
  -4
  77
  52
 -19
 -80
 -85
  70
 -19
  56
  58
 -22
 -10
  14
 -12
 -29
 -21
  76
  53
 -72
 -22
 -54
  51
  99
 -79
  67
 100
 -39
 -32
  19
  60
 -97
 -79
 -31
 -35
  40
  54
 -56
 -63
 -40
  69
  43
  -1
 -21
   7
  41
   9
  39
  51
  46
  98
  84
 -12
 -79
  37
 -85
 -55
   0
  13
  47
  16
  19
 -88
 -49
 -33
 102
  37
  87
  55
 -50
 -43
  54
 -59
  17
  30
  29
  -5
 -41
  93
  17
 -14
  62
 -80
  74
  62
 -44
  21
  15
  -9
 -44
 -80
 -52
  10
  75
 -69
 -47
   1
 -60
  76
  86
 -29
-101
 -54
  94
 -35
 -32
  18
 -34
  53
 -37
  -1
 -37
  16
   1
 -67
 -32
  17
  11
 -23
   9
  57
  -4
  89
  90
 -97
 -17
 -74
   4
  96
  51
 -28
  41
 -72
 -41
  93
  17
  10
 -53
 -12
 -13
 -27
  14
  84
 -57
  46
 -59
 -68
 -14
  56
 -25
   6
 -87
  33
 -28
  21
 -85
   4
 -18
  28
 -55
 -54
  13
   9
  64
  -4
  -4
  -4
  92
 -98
 -64
   6
 -40
 -15
 -58
  -9
  36
  10
 -16
   5
   6
 -35
 -22
  -9
 -60
 -84
  -2
  88
 -58
 -64
 -78
 -53
-105
  54
  54
 -73
 -17
 -49
  23
  15
 -85
  10
  70
 -72
  10
 -71
 -72
   1
 -16
  43
 -93
  12
  28
 -26
  40
  71
 -82
 -45
 -71
  12
  -6
  69
 -11
 -47
  18
  64
 -30
  -3
 -69
  -1
 -25
 -68
  67
 -16
 -42
  -8
 -40
 -11
 -49
  99
  30
 -10
  95
 -51
   1
 -91
 -33
  51
  13
  67
  20
 -22
  22
  69
  80
  48
  21
  49
   3
 -57
 -87
 -17
  61
 -40
 -17
  62
 -44
 -35
 -94
   5
  60
  66
  24
 -48
  69
  30
 -88
  -8
  45
 -64
  63
   2
  87
  20
  74
  26
  10
  50
 -71
  40
 -49
 -63
 -24
 -97
 -33
   4
 -79
  12
  98
 -87
 -65
 -56
 -28
 -37
 -78
 -31
 -65
 112
  61
 -18
 -74
 -25
  35
 -56
 -84
  -9
  95
-117
 -60
 -87
   7
  23
   1
 -90
 -57
  -3
  34
  79
 -50
   1
 -43
  -6
   6
  -9
  19
  31
  60
  15
 -81
  39
  -1
 127
 -45
  34
 -34
 -52
  52
 -80
 -86
  55
 -45
 -93
 104
 -45
  22
  21
 -50
  51
 -24
 -21
 -55
 -79
 -36
 -30
  54
 -25
 -49
 -44
 -42
 -90
  36
 -31
  37
  26
  50
 -62
  53
  35
 -77
 -13
  42
 -93
  28
  48
  -4
 -23
  89
 -78
  10
 -95
 -32
  63
 -51
   6
 -50
 -46
  -2
   6
 -27
  54
  46
  48
 -45
 -20
  95
  86
 -90
  95
 -43
  93
  11
  48
 -21
 -26
  45
 -31
  59
  77
 -45
  73
  -3
 -51
 -85
  17
  10
  -5
 -82
 -55
  79
 -51
 -15
 -49
  74
  -1
 -62
-110
   4
  13
 -15
  24
 -42
 -25
   6
  57
  92
 -52
 -78
  24
 -85
  -2
  60
 -82
 -42
 -93
  34
  29
 -59
 -21
  15
 -86
  33
 -63
 -56
 -46
  34
  -7
  15
 -51
  82
  94
   6
 -27
  59
  29
  56
 -34
 -21
 -30
  61
 -38
  84
 -34
  55
  83
  22
   4
 -86
  48
 -40
 -87
 -94
 -49
  58
  -1
-100
 -15
  66
 -80
 -13
  27
 -38
 -62
 -63
 -45
 -82
 -24
  44
 -60
 -45
   2
 -23
  19
  25
  71
   3
 -10
 -39
 -36
  98
  23
  26
   1
  90
  16
  68
  -5
  27
  64
  72
 -56
 -75
  39
 -23
 -32
  -1
   2
 -48
  73
 -28
 -96
  27
  43
  60
 -48
  -5
 -17
 -62
  82
 -52
  84
 -55
 -14
  31
 -50
 -87
  34
 -18
 -51
  -4
  25
  -8
 -23
  82
 -77
  13
 -40
 -26
 -17
 -27
  22
  95
 -70
  -9
 -23
  42
  20
  13
  21
 -48
 -27
 -22
  99
 -20
 -82
  30
 -16
 -39
  19
 -10
  85
 -25
  46
 -40
 -54
  52
   9
  -5
  20
 -46
 -85
  62
  62
  32
  24
  34
 -13
  39
  22
  37
  45
 -89
 -27
  54
 -77
  98
  74
  54
 -28
   7
 -38
  49
 -19
 -21
 -30
 -22
  30
  22
 -41
  16
 -11
  12
 -49
  -4
 -42
 -56
 -63
  -2
-125
 -70
 -96
 -66
 -51
 -23
 -90
 -14
 -12
  30
  76
 -89
  23
 -44
 -12
  76
 -37
  21
   9
  23
 -11
 -38
 -45
 102
  83
 -40
  33
 -93
  33
 -20
  47
   1
  22
  56
 -54
   8
   5
 -63
 -12
 -45
 -50
 -30
 -34
  93
 -47
 -33
 -51
 -25
 -11
   5
 -13
  13
  34
  36
 -74
 -75
   5
  52
   5
 -26
  27
  22
  32
 -38
 105
  89
  17
  81
  10
 -83
 -42
  29
  81
 -71
  48
 -34
  58
 -91
 -43
 -55
  47
 -38
  -6
  54
 -65
  17
  82
  -5
 -81
  37
 -16
  75
 -66
  36
  87
 -16
  36
 -26
  88
  -3
  14
  31
   8
  37
 -32
  27
  42
 -86
 -19
  44
  19
   4
 -32
  28
 -59
   2
  13
  39
 -25
  89
  12
 -64
  97
 -52
  70
 -58
 -43
  35
 -35
 -51
 -31
  87
 -23
 -92
  96
 -11
 -16
  13
 -89
   0
 -25
 -76
   5
 -92
  44
 -37
 -11
 -53
  -7
  74
  28
 -47
 -95
  17
  41
  25
  20
  83
  70
  77
 -61
 -70
  22
 -52
  17
  46
  -9
 -16
 -84
  17
  62
 -14
 -20
  68
 -77
 -49
  49
  24
  49
  -5
  31
 -34
  53
  22
  39
 -23
  97
 -55
 -67
 -60
  96
  22
 -73
  51
 -60
  12
  56
  -8
  36
  75
 -91
  14
  76
  40
 -76
  47
 -48
 -26
  67
 -55
 -48
 -30
  62
 -80
 -23
  45
  23
 -53
  95
  24
  34
 -71
 -28
 -34
 -47
  41
 -85
  45
  14
  -2
  11
  57
 -56
  27
 -32
  41
 -80
  31
  72
 -35
  17
 -92
  29
 -31
   9
  -7
 -58
 -22
  24
 -43
 -22
 -29
  54
  14
 -70
 -82
 -32
 -32
  31
  23
 -43
 -85
  24
 -83
  15
  24
 -18
 -46
  96
  32
 -21
 -58
  35
  14
 -77
 -80
   9
 -15
  -2
  36
  15
 -31
 -62
  54
  38
  21
  33
 -10
 -76
 -44
  -5
  23
  59
 -84
 -53
 -72
  32
   9
  81
 -66
 -51
   9
  44
  62
 -76
  89
  61
  28
 113
  20
 107
  78
  87
  61
  62
  64
  -1
 -48
 -89
  61
 -31
  38
 104
 -55
 -76
 -70
  73
  53
  84
  23
 -70
   1
 -32
 -14
  63
  42
   6
 -26
 -90
 -70
  44
 -24
  22
  14
  -2
  44
  25
   7
  13
 -66
 -22
  50
 -61
  70
  49
 -56
 -93
 -97
 -45
 -74
 -92
  23
  69
 -43
  84
 -25
  42
 -28
 -39
 -55
 -77
 -49
  77
 -79
 -42
  14
  46
 -25
 -51
  86
 -60
  71
  34
  38
 -24
  44
 -12
  93
  32
 -22
 -26
  12
 -58
 -96
  13
 -23
  26
 -45
  86
  30
  30
  39
   6
  61
  10
 -19
 -41
 -18
 -22
 -42
 -89
  80
  62
  24
  14
  54
  34
 -86
  38
 -50
  70
  12
 -68
  -1
 -79
  52
  59
  53
 -52
  96
 -22
 -63
 -91
   8
   1
 -33
  91
  21
  95
  98
  75
 -13
   3
   7
  80
  92
 -76
  43
 114
  36
 -64
  56
  22
   2
  -3
  -2
 -20
 -89
  23
  14
  98
  30
   1
 -15
 -51
 -24
  -6
 -27
  84
  55
  74
 -61
 -58
  58
 -36
 -55
  12
 -36
  74
  84
 -55
  -4
  58
 -34
  51
  15
-108
  67
  41
  77
  51
  19
  74
  -4
 -94
 -27
  31
  43
 -53
   5
 -50
 -48
 104
  10
  57
 -58
 -24
 -12
 -83
  65
  -1
 -68
  -3
  15
  -5
 -36
  40
 -14
  68
  49
  -6
 -53
 -11
  24
  -5
  54
 -88
  30
  -3
 -72
 -58
 -16
   9
 -28
 -62
 -26
 -28
 -77
 -56
 -37
  14
  31
 -97
  -5
  87
  25
  15
  47
  36
  59
 118
  22
 -23
  -5
 -60
  35
  21
  18
 -21
  67
  17
 -84
  27
  68
 -37
 -49
-103
 -79
   5
  12
 -20
 -40
 -52
 -71
 -35
  73
-124
 -92
 -65
  52
 -64
  69
 -44
  61
 -46
 -49
 -35
  11
  23
 -51
  60
 -56
 -24
 -29
  -9
 -11
 -47
  26
  13
  81
 100
 -26
   7
 -72
  45
 -75
 -12
  52
  -9
   1
 -10
 -56
  22
  85
  23
  19
  44
 -88
 -33
  34
 -71
  32
  30
 -28
  77
  24
  33
  94
 -73
  31
-102
-102
  -7
  87
 -86
   8
 -10
 -25
  81
 -65
 -31
 -36
 -96
  -4
  31
  67
 -54
  45
 -56
 -19
  92
  57
 -58
  37
  52
 -12
 -23
  41
 -18
 -67
  38
 -93
  55
  32
 110
  55
  19
 -45
  16
 -67
 -88
  -7
 -21
 -19
  34
  21
  64
 -27
  84
  34
  82
  27
 -26
  29
  13
  41
  19
  40
 -60
  -1
 -30
  98
  48
  89
 -87
 -80
   3
  26
 -40
  45
 -49
 -12
 -14
 -30
 -20
  38
  94
 -26
  45
 -10
 -10
 -45
  24
  59
   7
  94
  18
  23
  47
 -50
  30
 -11
  49
  43
  49
   9
  37
 -81
  -4
   9
 -46
  37
  57
  61
  86
  77
 -83
 -62
 -19
 -26
 -44
 -15
-111
  59
  32
  78
  19
   2
 -13
 -54
   7
  77
  27
  -8
 -26
 -95
 -23
  38
  64
 -27
 -42
 -76
 -18
  27
 -24
  43
 -37
  69
  79
  43
  -5
 101
  51
  15
  11
 -46
  59
 -57
-100
  78
  22
  11
 -59
  25
 -41
  15
  40
  27
  56
  77
  25
 -52
 -65
  16
  23
 -27
  45
  26
  46
  75
  13
 -73
  64
-101
   4
-102
 -66
  62
  36
  44
  77
 -60
 -36
   4
  32
 -53
  44
   2
 -38
 -40
  41
  -2
 -49
 107
 -13
 -55
  73
  47
  57
  32
   0
 -17
  -2
  32
 -70
  37
  63
 -10
 -19
 -16
  20
 106
  58
 -73
 -47
 -13
  20
 -34
 -91
 -26
  13
  96
 -48
-105
  38
 -10
  83
 -48
  11
  30
 -21
  13
 -78
 -47
  58
 -11
 -40
  -5
 -24
  68
 -19
  74
 -38
 -37
 -69
 -51
  61
 -87
  65
  58
 -18
 -30
 -51
 -15
 -19
  -6
  38
 -83
 -77
  51
 -56
 -25
 -15
 -36
  95
  20
-111
 -48
 -29
 -93
  38
  -3
  60
  73
 -41
  53
  58
  22
 -94
 -67
   4
  73
  66
 -98
  58
 -48
 -21
  62
 -87
  66
 -33
  -6
  69
 -43
  35
   1
 -54
  62
 -17
   3
-107
  93
   7
 -63
 -36
 -60
 -41
 -39
 -70
 -73
 -70
  52
 -77
  82
  86
 -52
  83
  68
 -77
  42
  -7
-117
  56
  79
 -38
  20
  80
  49
  19
  64
  26
  49
  39
  60
 -35
 -94
 -18
 -41
 -58
 -39
  13
  37
   6
  72
  91
 -66
  -2
   7
  -4
 -28
  73
  57
  37
 -39
-107
  14
 -12
  92
 -34
 -24
 -34
 -36
-104
  16
 -37
  18
  53
  32
 -77
 -30
 -27
   8
  45
 -61
  -8
  84
  72
 -83
 -36
 -15
 -29
 -79
  11
  -9
  14
  57
  42
 -85
  73
  65
  47
  44
 -79
 -45
  70
  96
  42
  -7
 -16
 -41
 -29
 -82
 -22
 -60
 -81
 -49
  27
   5
  45
 -80
  70
  49
  40
  35
   7
 -27
  -5
 -29
   9
 -24
 -81
 -14
 -22
  58
 107
  45
 -62
 -57
   9
 -43
  36
 -46
  35
 -89
 -90
  23
  54
 -40
  37
  55
  27
   8
  -2
  -2
  58
  -7
  21
 -23
 -43
  21
 -31
   4
  21
 -91
 -17
  42
  18
  28
 -38
  37
  20
 -85
  58
 -57
  43
  31
 -77
  79
 -11
 -36
 -25
   7
 -12
  87
  51
 -73
  81
 -48
 -11
 -99
   6
  39
  90
  36
 -50
 -40
  62
  23
 -82
  52
  73
  73
 -36
  79
  39
  90
  17
 -73
  96
-100
  59
  34
  -1
 -82
   6
  50
  75
 -74
 -10
 -65
-104
 -24
  14
 -93
 -32
   2
 -42
  96
  22
   6
  33
  30
  33
  92
  26
  79
 -49
  25
  44
 -60
  -8
 -40
 -68
  21
  68
 -41
  -3
  43
  34
  32
  21
 -48
  69
  22
 -25
  22
 -14
 -16
 -14
  93
 -17
 -22
  -3
   3
 -20
  27
  94
 -70
 -63
 -62
 -61
 -30
 -52
 -50
  13
 -38
  -1
   4
 -30
  18
 -45
 -28
 -81
  -5
  14
 -81
  32
 -12
 -26
 -52
 -44
  81
 -50
  55
  42
 -29
  -6
  21
  14
 -32
 -22
 -13
  27
 -92
  11
 -37
 -58
  60
 -41
 -71
 -12
-105
  23
  67
 -81
  38
  35
 -50
 -58
  -7
 -12
   9
  45
 -51
  58
  25
  27
  82
 -30
   9
 100
 -64
 -87
 -28
 -95
   5
  22
  58
 -14
  45
  88
 -18
  32
  39
  57
  -8
  25
  46
  84
 -93
  -2
 118
   7
  22
  72
 -65
 -60
  53
  -3
  17
  11
 -48
 -96
 -62
  22
  31
 -67
 -23
  59
  59
  31
 -88
 -33
  74
 -78
  43
-100
  15
 -38
 -62
  67
 -73
  13
 -44
  46
 -49
 -13
 -82
 -39
  64
 -29
 -11
  86
  23
-113
  97
  93
  98
  56
  42
  11
 -60
  11
 -22
 -63
 -73
 -64
 -67
   1
  18
  52
 -61
 -57
  73
 -42
 -89
  47
  65
  16
 -19
 -16
  10
  -3
 -31
 -13
 -10
 -45
 -77
  11
  14
  27
 -52
  -7
  36
 -15
 -38
  21
  91
 -63
  -7
 -84
 -47
 -24
 -16
 -39
  -8
 -55
  71
  49
 -88
 -44
  40
  -6
 -67
 -84
 -39
  77
  -4
 -57
  26
  -8
  27
 125
 -26
  10
 -17
  74
 -56
 -72
 -40
 -16
  72
  76
 -15
 -25
 -22
   0
 -37
 -83
  36
 -93
  18
 -50
  84
 -35
  67
  51
 -54
 101
 -27
  11
 -47
 -78
 -26
  24
 -21
  47
 -37
  10
  45
  15
   6
  13
  11
 -40
 -10
  22
 -82
  59
  29
  -3
  30
  10
 102
  -1
  25
 -15
  81
  24
 -21
 -90
  65
  61
  57
 -85
 -48
 -49
 -90
 -35
  19
  10
 -68
   6
  65
  43
 -32
 -89
  -1
 -39
 -32
  23
  15
  90
  -9
   7
   2
  31
 -10
  48
   7
 -14
  68
  90
  66
 -21
  59
  23
 -60
 -21
 -69
  48
 -41
 -19
  21
  27
 -42
  -2
 -56
 -11
  54
  25
  45
 -53
  62
 -21
 -54
-119
   8
 -87
  39
 -47
  83
   6
  55
 -70
 -65
 -42
  30
   1
 -27
-122
 -93
  16
 -43
   3
  38
  22
  52
  48
  59
  -9
  91
 -55
   8
 -30
 -70
  17
  44
  34
 -78
  35
 -49
 -25
 -76
 -61
  38
-103
  12
 -97
 -82
  59
  98
 -18
  67
 -24
 -54
  65
 -60
 -93
  71
  58
 -62
 -20
 -47
  -2
  -3
 -49
 -98
 -23
 -56
 -28
 -37
 -49
 -24
  72
  -5
 -90
  -3
  26
 -14
 -35
   3
  83
   5
  76
  33
 -33
  45
  46
  63
 -76
  43
  73
  84
  23
  63
 -66
  59
 -72
 -37
  40
 -36
 -24
  47
 -39
  38
  25
  43
 -65
  61
  50
  89
   8
  97
  30
  31
 -34
  60
 -40
  -9
  34
  72
  90
  35
  13
 -90
 -27
 -25
   9
 -89
  29
 -36
   7
  62
  -1
 -27
 -30
 -55
 -42
  51
  69
  23
 -50
  23
  78
 -85
 -19
 -77
   8
 -77
 -23
  38
  54
   3
 -50
  12
 -29
 -49
 -99
  33
 -40
 -72
  80
-102
  -3
  94
 101
 -53
   4
 -57
 -13
  28
 -81
  59
  57
 -38
 -53
  -6
 -79
 -67
 -58
 -66
 -43
 -63
   3
  76
   4
  30
  57
 -78
  72
  62
 -85
 -51
  70
  -6
  86
  48
  29
  51
 -63
  18
  34
 -46
  83
  39
 -56
  -5
  12
 -58
   8
  -6
 -62
  25
 -71
  31
   4
  -5
   9
  68
 -38
  -2
  58
  52
 -93
 -90
 102
  27
 -36
   8
 -29
 -55
 -33
 -16
  38
  70
 -96
 -97
 -28
  72
  42
  14
  28
 -30
 -16
  51
  95
 -15
-110
   4
  -6
  47
 -16
 -10
  97
 -44
 -69
 -78
  -2
  50
  82
-109
 -94
 -48
 -47
  49
 -52
  27
  77
  79
 -88
 -94
  71
 -37
  60
  -8
 -13
 -51
 -31
  31
  24
 -62
  24
 -21
  48
  15
  24
  -9
 -77
  58
 -42
  54
  62
  41
  54
 -36
  64
  49
  65
  81
   0
 -13
  -6
   1
 -54
  47
 -69
 -76
  64
 -30
  14
 -85
  64
  26
  12
 -77
 -35
  56
  69
  73
 -62
 -84
 -14
  44
 -54
  39
 -37
 100
 -27
  77
 -50
  -4
  19
 -16
  11
 -30
  19
  22
 -27
 -79
 -77
 -78
 -86
  -3
 -35
 -56
  19
  19
  29
   6
 -34
   0
 -88
 -74
 -44
  41
 101
  69
  -5
   4
 -28
  60
  48
  -4
 -92
 -66
  76
 -26
  59
 -34
   9
 -68
  48
 -76
  89
  12
  63
  90
 -41
 -74
 -45
  32
  24
  41
   7
 -34
 -74
  10
 -26
  19
 -90
  53
  -4
 -28
 -25
  -1
  57
  59
 -57
 -12
  66
 -19
 -92
 -45
 -55
  18
 -63
  -4
  52
 -20
   8
  19
 -49
 -66
 -62
  65
  -2
  23
  76
  54
 -25
 120
   0
  50
  11
  -3
 -80
   3
  90
 -69
  26
 -40
  16
  51
  10
 -47
 -86
  31
 -13
  94
  16
  37
 -50
  54
 -84
  72
 -49
  -2
 -10
  49
   5
 -35
  31
 -18
  86
   0
  88
  -6
  80
 -42
  22
  47
 -43
 -72
 -80
  57
  61
  56
  59
 -15
  -6
  16
 -68
  21
-101
 -59
 -26
 -77
  -8
  -4
  21
  77
 -81
   4
  -9
 -30
 -52
 -25
 -22
 -33
   5
  65
   2
  14
 -62
 -98
 -11
 -20
  89
   6
 -51
 -22
 -72
  73
 -30
  -8
  28
  59
  41
  94
 -76
 -68
  97
 -39
 -51
 -11
 -43
 -62
  52
 -87
  19
 -69
  15
 -43
 -55
 -72
 -17
  79
  41
 -15
  20
  41
  59
  -5
  95
 -35
 -67
 -66
 -50
 -22
  69
 -33
  47
 -87
   8
  55
  20
  37
 -79
 -12
   4
  18
   8
 -23
 -36
  38
  11
 -12
 -19
 -32
 -51
 -13
  19
  57
  -4
  16
 -44
 -24
  53
 -36
  32
  67
  -3
  58
 -84
 -69
  91
  60
  63
 -33
  12
 -15
  33
   0
  14
 -19
  45
  39
   2
  17
  99
  -4
 -25
  32
  56
  44
  45
 -15
 -46
 -27
  -6
 -55
 -91
  -8
  58
 -71
  52
-102
  70
 -60
  34
 -47
 -89
  32
 -64
 -28
 -92
  -4
  -8
  -5
 -42
 -34
 -39
   9
 -29
   6
  13
   4
  61
  50
 -46
 -16
 -11
 -16
  97
  16
  34
  53
  71
  83
 -37
 -16
  65
  57
  50
  33
  32
   7
  44
 -17
 -64
  51
  32
 -45
  -9
 -33
  92
  49
  38
  45
  33
 -66
 -32
   6
  65
 -92
  32
   2
 -79
  54
  -4
  92
  25
 -73
 -55
 -79
 108
  73
   6
 -10
  64
  61
 -58
 -68
  21
  49
 -11
 -60
   0
 -12
  -9
  88
  49
 -28
 -50
   6
  40
 -15
  -8
  46
 -34
 -65
 -36
  -9
 -64
 -35
  29
  -3
  30
  26
 111
 -59
  89
 -29
  29
 -53
   7
  42
  13
  89
 -79
  32
  -7
 -35
  43
  94
  23
  26
 -31
 -65
 -39
  -3
  91
 -13
  50
 -23
  72
 -17
   2
  25
 -91
-101
  13
   8
 -17
  88
  33
  24
   9
 -49
  -3
 106
  59
   7
 -95
  -5
  38
 -64
 -54
 -53
 -82
  23
 -34
 -35
 -16
 -81
  79
  39
  46
 -78
 -18
  -5
  64
 -63
-112
 -14
  -1
  16
 -88
  30
 -17
  52
 -79
 -55
 -41
 -94
  15
  15
  -6
 -83
 -25
   2
 -16
 -84
  29
  67
 -34
  43
  37
  60
  46
 -18
 -34
 -75
  18
 101
  27
 -94
 -35
