   9
 -18
  24
  13
 -82
  38
  17
 -55
  18
  84
 -32
 -49
  65
 -12
  18
  29
  -7
 -27
 -76
 -50
 115
  46
  30
 -33
 -12
 -63
  25
  18
   8
  43
  -8
 -53
  61
 -19
 -32
  32
 -58
  30
  22
 -37
 -16
 -47
 -46
  39
 -85
  23
  48
 -71
 -41
  60
  23
 -42
   8
   8
 -27
  73
   0
  11
 -29
 -19
  11
 -37
  48
  12
  62
 -77
   4
  61
 -86
  13
  26
 -62
  -8
  21
 -31
   9
 -52
  36
  29
 -22
  13
  29
 -32
 -32
  21
  53
 -15
  22
 -16
 -60
 -35
 -10
 -25
  21
  46
 -48
 -15
  20
  27
 -13
  28
 -60
   0
  20
  43
  17
  52
 -21
  12
 -36
 -54
  65
  52
 -54
   8
  84
 -27
 -62
  59
 -86
 -35
  13
  41
  27
 -59
  47
 -57
 -27
  31
 -18
  14
  34
  -7
 -86
  53
 -57
 -19
 -18
  79
  19
 -63
  34
 -51
   9
  46
 -58
   1
  37
  20
 -46
   9
 -73
  14
   8
  48
  60
  -5
  25
 -62
  17
 -38
  57
  -2
  -5
  -6
  29
  -8
  58
 -15
  -8
 -47
 -15
 -29
 -20
  59
 -33
  -5
 -27
  -6
  -7
 -49
  32
  20
 -36
  26
  54
 -17
 -10
 113
 -39
  10
  13
 -13
  45
 -30
 -61
  22
  87
 -65
  58
  35
 -24
 -44
 -56
  60
 -15
  38
  24
  29
 -50
  33
  81
 -38
 -73
  19
 -40
  13
  -5
  46
  47
 -50
  15
 -68
  31
  27
 -82
 -42
  18
 -45
  22
  56
 -86
   0
  -7
  -9
  53
  41
  25
 -25
 -28
   0
  36
  70
  66
 -41
  -7
  30
  23
  13
 -27
 -54
 -24
-128
 -40
  24
   5
