0.207930
-0.147740
0.218874
0.142268
0.038303
-0.344727
-0.043775
-0.158684
0.295480
-0.076606
0.136796
-0.218874
-0.169627
0.071134
0.125853
-0.290008
-0.087550
0.191515
0.333783
-0.235290
0.098493
-0.071134
0.098493
0.404917
-0.071134
-0.284536
0.257177
0.481523
0.082078
-0.240761
-0.574544
0.268121
0.098493
0.082078
0.082078
-0.175099
0.093021
0.103965
0.016416
0.049247
0.196987
0.202458
-0.071134
0.098493
-0.032831
-0.153212
-0.448692
-0.027359
0.087550
-0.016416
0.229818
-0.426804
0.366614
-0.224346
-0.021887
0.246233
-0.032831
-0.388501
0.333783
0.694925
-0.273593
-0.240761
-0.038303
0.109437
0.038303
0.125853
0.251705
0.142268
-0.065662
-0.300952
-0.404917
0.388501
-0.054719
-0.054719
0.120381
-0.300952
-0.065662
-0.136796
0.131324
0.683981
-0.021887
-0.147740
0.235290
0.071134
-0.043775
-0.098493
0.175099
0.317367
-0.136796
0.404917
-0.005472
-0.010944
0.235290
0.175099
-0.136796
0.021887
-0.268121
0.229818
0.153212
-0.207930
0.257177
-0.103965
-0.054719
0.147740
0.213402
0.300952
-0.158684
0.076606
0.153212
0.065662
0.366614
0.224346
0.076606
0.284536
0.295480
0.372086
0.125853
-0.377558
-0.049247
-0.251705
0.076606
-0.218874
-0.552657
0.103965
0.164156
0.284536
0.514354
-0.213402
0.229818
0.098493
0.443220
-0.158684
-0.125853
-0.372086
-0.218874
0.361142
0.443220
0.054719
0.667566
0.082078
0.153212
-0.459635
-0.246233
-0.246233
-0.333783
-0.114909
0.114909
-0.093021
0.109437
-0.087550
-0.087550
0.290008
-0.246233
0.465107
-0.038303
-0.377558
-0.065662
0.049247
0.109437
0.257177
-0.196987
0.268121
-0.005472
0.306424
-0.290008
-0.350198
-0.010944
0.093021
0.437748
0.098493
0.136796
0.065662
0.000000
-0.300952
0.235290
-0.273593
-0.021887
-0.071134
0.082078
-0.240761
0.109437
-0.273593
-0.213402
0.240761
-0.120381
-0.196987
0.295480
0.262649
-0.076606
-0.377558
0.196987
-0.202458
0.120381
-0.284536
0.098493
0.038303
0.229818
0.153212
0.262649
-0.065662
-0.005472
-0.076606
0.213402
0.027359
0.224346
0.005472
-0.388501
0.175099
0.010944
-0.071134
-0.016416
0.470579
-0.432276
0.043775
0.005472
-0.087550
0.689453
0.268121
0.131324
0.082078
-0.196987
0.273593
0.180571
-0.629263
0.202458
-0.317367
0.000000
0.399445
-0.021887
0.492467
-0.147740
-0.071134
0.147740
0.213402
0.279064
-0.290008
0.169627
0.339255
-0.038303
-0.027359
0.093021
-0.038303
0.060190
0.131324
0.147740
-0.229818
0.103965
0.246233
0.191515
0.213402
0.136796
-0.005472
0.246233
0.005472
0.158684
0.218874
