-0.146312
0.123802
0.202586
0.371407
0.258860
0.427681
-0.067529
-0.090038
-0.022510
0.270114
0.371407
-0.056274
-0.270114
0.247605
-0.281369
0.292624
0.225095
0.000000
-0.033764
0.438936
0.000000
-0.168822
-0.427681
0.315134
-0.090038
-0.315134
-0.135057
0.495210
0.090038
0.168822
-0.270114
-0.011255
-0.157567
-0.112548
-0.022510
0.168822
-0.180076
0.123802
0.056274
-0.191331
-0.045019
0.889127
-0.011255
-0.157567
-0.135057
0.258860
0.135057
0.067529
-0.281369
-0.123802
-0.202586
-0.157567
0.191331
-0.011255
-0.033764
0.011255
-0.112548
0.180076
-0.056274
-0.056274
0.067529
0.135057
0.247605
0.326388
0.168822
0.180076
0.135057
-0.551484
-0.438936
0.101293
-0.258860
-0.326388
-0.056274
0.427681
0.213841
-0.225095
0.146312
-0.225095
0.303879
0.844108
0.292624
-0.011255
0.033764
-0.247605
-1.046694
1.429356
-1.057948
-0.180076
0.303879
0.236350
0.112548
1.069203
-0.191331
0.258860
-0.078783
0.607758
-0.438936
0.191331
0.011255
0.157567
0.360153
0.067529
0.011255
-0.247605
-0.236350
0.090038
0.056274
0.540229
0.033764
-0.326388
0.416426
-0.281369
-0.258860
0.258860
0.292624
0.337643
-0.011255
0.045019
0.078783
-0.135057
0.157567
-0.022510
0.101293
0.135057
0.078783
0.090038
-0.168822
-0.281369
0.056274
0.303879
0.832853
0.247605
0.450191
0.337643
0.562739
-0.596503
-0.225095
0.461446
0.911636
1.249279
-0.776579
-0.281369
-0.360153
-0.450191
0.090038
0.427681
0.360153
0.045019
0.427681
0.326388
-0.123802
-0.011255
-0.382662
0.393917
0.258860
0.000000
-0.326388
0.067529
0.168822
0.472700
0.157567
-0.258860
-0.292624
-0.472700
0.090038
0.438936
0.315134
0.337643
0.022510
0.585248
0.067529
-0.236350
0.337643
0.180076
-0.123802
-0.022510
0.258860
0.112548
-0.225095
-0.191331
0.315134
-0.292624
0.000000
0.045019
-0.337643
-0.281369
-0.236350
-0.967910
0.281369
-0.180076
0.011255
0.281369
-0.067529
-0.551484
-1.125477
-0.540229
-0.090038
0.292624
-0.630267
1.316808
0.697796
0.619012
-0.866617
-0.416426
0.799089
0.720305
0.135057
0.438936
-0.056274
0.337643
0.900382
0.270114
0.337643
-0.202586
0.585248
-0.596503
-0.844108
0.067529
0.754070
0.528974
-0.832853
-0.483955
-0.090038
-0.742815
-0.033764
0.303879
0.911636
0.348898
-0.090038
-0.123802
0.292624
-0.776579
-0.360153
-0.045019
0.528974
0.258860
-0.461446
-0.450191
-0.112548
0.078783
-0.135057
0.067529
0.191331
0.202586
-0.213841
-0.067529
-0.236350
-0.101293
0.056274
-0.483955
-0.157567
0.011255
0.146312
-0.101293
0.146312
0.326388
