-0.134680
-0.013468
0.114478
0.127946
0.121212
-0.047138
-0.491583
-0.606062
0.626264
-0.080808
-0.370371
0.053872
-0.047138
0.094276
0.053872
0.222223
0.437711
0.356903
-0.282829
-0.141414
-0.175085
0.296297
-0.222223
0.208755
-0.323233
0.047138
-0.047138
-0.121212
0.208755
-0.707072
-0.397307
0.067340
0.525254
0.343435
-0.101010
-0.040404
-0.101010
0.417509
-0.033670
0.316499
0.222223
0.141414
0.067340
-0.141414
0.006734
-0.276095
-0.127946
-0.047138
0.141414
-0.175085
0.127946
0.114478
0.013468
0.249159
-0.127946
0.215489
-0.127946
0.006734
-0.121212
0.033670
0.397307
-0.606062
-0.505051
-0.013468
-0.020202
0.195287
0.363637
-0.107744
0.464647
0.242425
0.047138
0.175085
0.053872
0.047138
0.323233
0.572392
0.208755
-0.255893
-0.491583
0.013468
0.235691
0.289563
0.040404
-0.262627
0.228957
0.181819
-0.033670
-0.101010
-0.047138
-0.006734
0.067340
0.067340
-0.215489
0.000000
-0.518520
-0.107744
0.841753
-0.060606
0.296297
-0.336701
0.222223
-0.188553
-0.006734
0.067340
0.006734
-0.080808
0.141414
-0.067340
-0.148148
-0.026936
-0.363637
0.168351
0.558924
0.188553
0.235691
-0.040404
0.734008
-0.592594
-0.013468
-0.377105
0.040404
0.464647
-0.276095
-0.006734
-0.255893
0.356903
0.356903
0.175085
-0.094276
0.087542
-0.154882
-0.094276
-0.026936
-0.060606
-0.033670
-0.148148
0.498317
0.323233
0.006734
-0.080808
0.249159
-0.861955
-0.727274
-0.148148
0.424243
-0.181819
0.080808
-0.020202
0.107744
-0.154882
0.255893
0.053872
-0.107744
-0.121212
0.228957
0.296297
-0.202021
0.269361
-0.498317
0.060606
0.303031
0.168351
0.060606
-0.161616
0.013468
-0.188553
-0.175085
-0.195287
0.478115
0.323233
-0.276095
0.154882
-0.094276
-0.080808
-0.195287
-0.107744
-0.276095
-0.457913
0.161616
0.215489
-0.208755
0.202021
-0.134680
0.161616
0.188553
0.181819
-0.087542
-0.228957
0.410775
-0.417509
-0.491583
0.188553
-0.127946
0.033670
0.047138
0.121212
-0.222223
0.222223
-0.033670
0.181819
-0.498317
-0.040404
0.195287
-0.329967
-0.020202
-0.484849
0.080808
-0.430977
-0.074074
0.053872
-0.309765
-0.053872
0.121212
-0.350169
-0.235691
0.020202
0.572392
0.168351
-0.269361
-0.242425
-0.323233
0.067340
0.141414
-0.154882
-0.585860
0.101010
-0.242425
0.094276
-0.033670
0.101010
0.020202
-0.282829
0.033670
-0.175085
0.228957
0.026936
-0.336701
-0.047138
0.208755
-0.255893
0.074074
0.276095
-0.141414
-0.249159
0.397307
0.107744
0.026936
0.047138
0.053872
0.067340
0.033670
0.060606
-0.161616
-0.323233
-0.545456
0.101010
