  45
   1
  16
 -24
  23
  29
 -10
  -4
 -32
  14
  45
  -4
 -21
  -7
 -16
 -24
  -9
 -15
-109
 -28
 -13
 -28
  39
   0
  34
  30
 -49
 -17
  22
  28
 -50
  14
   8
  30
  -8
   2
 -32
  -4
  -8
 -29
 -14
 -10
  -9
  37
  -9
  27
   6
 -24
  -4
 -28
  33
 -20
 -14
  15
 -44
 -40
  35
 -26
 -25
   3
   0
 -10
 -24
   5
 -16
 -31
 -29
  -7
 -35
  14
  19
   7
  -7
  -7
 -13
  35
 -13
 -22
 -16
  30
 -13
   6
 100
  -1
  10
  14
 -23
  23
 -47
 -35
  24
  -8
 -13
  -2
  29
  -3
   4
  14
  17
  38
  -9
 -10
 -26
   1
 -25
  -4
   0
 -19
   5
  27
  -2
   8
  18
  12
 -25
 -25
 -22
 -30
  47
  10
 -36
 -25
 -17
 -11
  11
  16
  -4
 -29
  -8
  18
 -13
 -11
  -3
  -8
 -30
  25
  26
  27
   1
  11
 -26
  29
 -21
  -4
 -13
  12
-122
 -37
   6
 -21
  26
 -21
  31
  12
 -19
 -12
  31
 -21
 -13
  13
  26
   7
  26
 -36
 -16
  17
 -12
  12
  16
 -10
  -8
  18
  25
 -24
  31
 -22
 -18
  -7
   3
  18
  29
   1
  -7
 -41
   3
   2
  16
 -12
   3
  -8
  19
 -14
 -45
 -16
   3
 -26
 -11
  -4
   0
  -8
  -8
  24
  -9
   7
  23
   3
  20
  16
   7
  -1
  70
  21
  14
  42
   6
  -9
 -13
 -17
  16
  26
 -33
   3
  68
 -34
 -23
  21
   5
   3
  -3
 -31
  -5
  41
 -14
  -3
  17
  -6
 -27
  -8
 -18
 -14
  -8
  40
 -42
  19
   1
   9
  -3
   6
 -28
  30
 -20
  35
  18
   2
   8
 -21
  29
  -3
 -14
   3
  -4
  21
   8
  -4
 -30
  13
  -8
 -23
   9
  33
 -34
  -8
 -17
  23
 -90
 -24
  36
   1
  48
  11
  26
  19
  -8
  -8
  33
 -21
 -11
  46
  -6
  10
  11
 -33
 -50
  31
  15
 -19
  20
  -4
 -29
  18
  25
 -15
  -3
 -34
  10
 -20
  29
  -8
 -15
  38
 -28
 -40
  39
 -34
  10
 -10
 -49
 -12
  11
 -26
  12
  -1
 -26
   2
  -6
  24
 -40
 -21
 -14
  -2
   0
  20
 -29
  46
 -28
   5
 -25
  24
-120
  -4
  -2
 -35
  20
   2
  37
 -18
 -43
 -36
  22
 -32
 -36
  50
 -16
  -2
  33
  16
 -30
  32
  28
   6
  36
  -8
 -46
  15
   2
 -13
  12
   7
  10
  13
 -10
   1
   0
  31
 -20
 -44
  -6
 -31
  14
 -22
 -32
 -29
  28
  19
 -23
  28
  -2
 -28
  15
  20
  15
 -10
   8
 -18
 -13
 -16
 -10
  -7
  33
 -12
 -14
 -10
 121
  28
 -23
  41
 -35
  19
 -40
 -16
  36
 -10
 -21
 -20
  69
 -11
   6
 -15
  19
  41
   1
  23
  -9
 -18
 -31
 -17
  31
 -33
  14
   3
   7
 -15
  -3
  -2
  -5
   1
   7
 -11
   6
  46
 -16
  25
 -18
  34
  32
  -3
  27
 -28
  13
  14
  18
  25
  -9
  16
  -3
 -23
   2
 -10
  11
 -12
 -18
  11
 -28
  13
  -6
   7
 -90
  12
  25
 -14
 -13
  11
  47
  59
 -23
  -2
  15
  24
 -25
  20
  25
   8
 -11
 -44
 -16
  25
  10
 -11
   5
 -18
 -41
  27
   9
   7
 -16
 -20
 -20
  12
  16
  -1
  23
  13
 -27
 -42
  14
   3
  17
   4
 -45
  30
 -18
   6
 -22
   4
   7
 -22
 -31
  18
   2
 -46
   4
 -28
 -18
 -17
 -14
 -16
   8
 -12
 -25
 -25
  56
  38
  20
  -9
   6
   8
 -52
 -38
  -3
  23
 -18
  27
  38
 -36
  23
 -10
 -19
  56
  25
 -20
 -13
  19
 -24
 -39
  -6
  -3
  24
   9
 -21
  -8
 -29
  -4
  19
 -20
   8
  -3
   9
  -4
   2
  15
  -4
 -16
   4
  12
  30
  -2
  29
 -25
  19
  27
   8
  -9
 -13
 -14
 -23
  16
  30
 -24
   0
  -4
 -13
 -12
  -9
  -6
 -75
 -37
  -8
 -39
  36
 -15
  43
  17
 -61
  16
 -10
 -29
 -13
  23
   3
  -4
  17
   3
 -29
   3
  -5
  -1
 -20
 -21
 -15
  -1
  17
 -18
  23
  13
 -32
   7
  18
 -10
  28
 -14
   5
 -25
  33
  -4
  32
 -18
 -32
 -27
  30
 -19
 -35
  -5
  25
   9
 -37
  -2
  13
   3
   9
  -6
 -37
  29
 -23
 -20
 -15
  -7
 -23
   2
 120
  26
 -33
  48
  -3
  22
 -61
  -9
  42
 -22
 -33
   5
  27
 -37
 -24
 -11
 -11
  10
  15
 -17
  -6
  -2
 -19
  11
  29
 -36
  -4
 -24
   6
  31
  17
  28
   0
 -23
 -14
   8
   8
  13
  -8
  25
  12
  30
  35
  31
   9
  -4
 -31
  11
 -25
   6
  -7
 -21
  36
 -17
 -17
  -8
 -50
  -1
  22
 -38
  30
   1
  33
 -19
  81
  27
  21
   9
 -23
 -14
 -67
   7
  55
  24
 -25
 -15
  63
 -28
  -8
 -20
 -14
  41
  -1
 -24
   1
 -15
   2
   8
  34
 -11
 -18
  12
  16
  -8
   5
  -7
 -38
 -40
  23
  -6
  33
  45
 -16
  14
 -23
  -3
  48
  17
 -20
  29
   5
 -21
 -18
 -20
  40
  25
 -26
 -14
   8
 -16
 -12
 -28
   8
 -14
 -38
  25
  11
  13
 -44
  17
   2
  -9
  -7
 -17
  -3
   1
 -34
  20
 -31
   4
 -32
  23
  -2
  30
 -16
 -14
  11
   2
  41
  36
 -22
   9
  38
  -5
   0
  33
 -25
  15
 -23
 -19
 -14
 -23
   3
 -33
 -29
   8
  45
 -38
  16
  39
  21
 -33
  20
  11
  -1
  12
  33
 -28
 -42
 -23
  10
 -27
  18
  23
   5
 -17
   9
 -13
  20
   9
  -2
  13
  65
   6
 -20
  16
 -24
  25
 -64
  15
  55
  31
 -35
 -12
  51
   0
  15
   0
   3
  30
  -5
  -3
 -10
  31
 -31
  16
  23
 -11
  -7
   9
 -30
  33
  33
 -18
 -41
 -14
  -8
 -12
  23
  34
 -41
  22
 -16
 -20
  46
 -13
  19
   7
   0
  16
  -6
  24
  49
 -22
   8
  36
 -14
 -27
  28
 -31
  23
 -10
  26
  16
  11
  31
 -63
   7
  26
  -9
 -29
  14
  40
  17
 -46
 -23
  -2
   6
 -28
  23
  29
 -48
  18
  -6
 -36
 -14
 -20
  -8
 -10
 -10
  22
  -5
 -31
 -13
  29
 -10
 -26
 -28
   5
  10
  19
  15
 -15
   2
   7
  14
  32
  19
  -2
  -6
 -31
   8
  48
 -16
  25
 -12
  23
 -21
  -3
   4
   5
  13
  33
  11
 -30
  16
  13
  29
  21
 -13
-111
  -4
  18
 -51
   2
 -18
  30
 -18
 -17
 -32
  -5
  20
 -59
  38
 -16
 -19
  21
 -19
 -49
 -19
   5
 -39
  19
  24
 -36
  28
  12
 -14
  14
 -12
 -39
  -5
  24
   8
  23
  19
 -29
 -36
   2
 -28
  28
   0
 -10
  28
   3
  -9
 -11
   7
  12
  -9
 -26
   3
 -11
 -15
 -24
 -17
 -10
 -17
  13
 -17
  33
 -19
   2
 -18
  93
 -10
   9
   2
 -22
  15
 -45
 -18
  34
 -20
   1
  24
  35
  -2
 -34
   6
 -27
  34
 -11
 -14
  -3
  28
  18
   7
  19
 -44
  25
 -24
  25
   5
  -6
   5
 -32
 -23
  19
  -3
  48
  24
 -25
 -15
  -4
  12
  37
 -27
  22
 -18
  16
 -15
 -17
 -22
  -6
   2
   6
 -33
   4
 -17
 -21
 -20
 -16
 -14
  -4
  33
 -17
 -30
  28
  -3
 -18
  53
 -28
  12
 -50
 -39
  33
 -14
  10
  -1
  38
 -27
 -15
  25
 -22
  10
  -5
 -35
   9
  29
 -26
 -17
  12
  20
 -20
 -26
 -12
  31
  -3
  42
 -16
 -20
 -10
 -23
   8
   0
 -13
 -11
 -18
  -2
   4
 -20
   5
 -23
  -1
  24
 -20
   4
  37
  10
 -33
  15
  20
 -15
 -24
   2
 -18
   4
 -35
  21
 -10
  38
 -65
 -29
   4
  -7
  -7
  17
  39
   4
 -48
 -23
  11
  -9
 -35
  43
  16
  23
  16
 -18
 -32
  14
  41
 -37
  -3
  12
 -28
 -11
 -19
  -6
 -18
  25
   2
 -31
  32
  13
 -21
   0
 -19
 -43
  46
 -33
  23
 -27
 -25
 -32
  -4
  13
  21
   7
 -22
  14
 -11
  30
 -50
  -8
  -3
 -17
  20
  18
 -15
  48
   5
  -6
  18
  17
 -75
 -28
 -24
 -23
   4
   1
  38
  -1
 -61
  18
   9
 -28
 -16
  20
  -4
  15
   8
  -4
 -10
   1
   1
 -28
  11
   0
 -38
  11
  23
  24
  31
 -34
 -14
  13
  28
 -20
  -2
 -13
 -50
 -35
  26
  -7
  20
 -30
 -29
  26
  22
   5
  17
 -19
 -19
  27
  41
  30
 -24
 -27
  -1
 -18
   7
 -12
 -12
  25
 -16
   5
 -12
 -11
-120
 -25
  20
 -36
   6
   9
  23
  30
 -46
  -5
  36
 -17
 -33
  -1
 -22
  20
  21
  -8
 -17
  26
   2
   8
  -7
 -28
 -10
   8
   4
  23
   4
 -13
 -11
 -32
   2
 -17
  15
 -19
 -36
 -44
  -1
 -28
  -8
  23
  10
  -4
 -12
  13
  39
   9
  21
 -12
  18
   4
 -39
  -2
  -2
 -16
 -11
  23
 -16
  40
 -11
  27
  -4
  -6
-119
   2
  37
  -9
  18
 -25
  11
 -17
 -51
  22
   0
 -35
 -31
  41
  -8
 -19
  30
  -6
 -28
  20
  -7
   5
  13
  23
  -5
   3
 -17
  34
  31
 -28
   8
 -21
  14
  36
  -9
  -4
 -32
 -40
  35
   0
 -20
  -4
 -45
 -33
 -26
   0
 -43
 -30
 -20
   4
  -3
  10
  35
 -15
  17
  23
 -43
  29
  23
 -25
  -7
  -8
  31
  11
 109
  24
 -27
  23
 -36
  28
 -57
 -21
  28
  15
 -16
   4
  48
 -15
  14
  28
 -14
  19
  23
  21
 -30
  25
 -26
  -2
  37
  -2
 -12
   4
 -20
  12
  18
  19
  -6
  12
  13
  19
  50
  16
  15
   0
  14
  -8
  11
  32
 -13
 -18
 -16
  -1
  24
 -18
 -13
 -28
  20
   5
  12
  12
 -17
   9
  34
 -44
  35
  28
 -17
   2
 103
  26
 -32
  39
 -33
  14
 -24
  25
   7
  15
   9
 -10
  63
 -38
  10
 -11
   9
  33
 -10
   0
 -26
  17
 -21
  21
   4
 -14
   8
 -26
 -13
  39
  28
   3
 -11
 -36
 -18
 -15
  43
  44
 -18
   8
  -4
  18
  -6
 -25
  -8
  -5
   8
  16
 -14
  -8
  14
  15
 -15
 -24
   8
  17
  29
   3
  29
   1
  -4
  13
  -6
  30
 -90
 -18
  20
  -4
  -2
  23
  33
   4
 -10
 -10
 -20
  -8
 -27
  14
   1
 -29
 -23
 -35
 -46
  34
 -11
 -40
   9
  -7
  16
  10
  27
  28
  -8
 -11
 -32
 -21
  29
   0
  25
   7
  -6
 -12
 -12
 -24
 -24
   0
 -39
 -14
 -29
 -11
 -36
  -3
  17
 -19
 -26
  -7
  -1
  -2
  22
   2
 -18
   9
  33
   0
  33
 -29
  30
  14
  90
   2
  18
  -6
 -39
  20
 -14
  10
  55
  24
 -29
  21
  28
 -51
  -4
   3
 -34
  19
   2
  -2
 -42
  30
 -42
   9
   8
 -29
 -22
 -12
 -22
 -10
  -1
  18
 -27
  -3
  -9
 -31
  10
  44
 -40
  14
  12
 -21
  38
 -20
 -10
 -11
 -34
  23
  25
 -36
 -18
 -30
  16
   5
 -12
  26
 -44
  23
 -19
 -28
 -12
  21
  29
  12
 106
   1
 -10
  -3
 -22
  26
 -59
  -2
  62
  25
  19
 -16
  34
 -34
  -6
  19
  -2
  36
   7
   2
 -28
  32
  14
 -28
  11
 -37
   2
 -33
 -13
  33
  30
  22
 -34
  15
 -12
  -6
   7
  22
 -40
 -22
  -9
   4
  11
  23
 -12
   2
 -51
 -13
  -1
  10
   8
 -24
  20
   4
  25
   9
 -15
 -21
  36
 -31
  34
 -13
   4
  -3
 104
  -9
 -27
  11
 -18
  -4
 -34
 -13
  51
 -11
  -9
  -6
  35
 -40
  24
 -19
   5
  -5
   8
 -33
  -9
  39
 -32
   9
  48
 -11
  28
  -8
  -1
  20
  24
  21
   7
   9
  18
   4
  24
  22
 -24
  12
  16
  -7
   9
  26
 -28
 -23
   5
  15
  24
  13
   7
  15
 -29
  16
   3
 -16
  18
 -26
 -19
   9
 -12
   7
   8
  -7
 -53
 -39
  25
 -42
  -2
   1
  33
   9
   6
 -15
  32
 -31
 -20
  30
 -27
  42
  25
  -5
 -46
 -13
 -25
  -4
  44
  28
   1
  22
 -15
 -29
   9
  -2
  16
  -9
  -7
   5
  25
  22
  13
  -9
 -14
  25
   4
  -9
 -14
  -9
 -17
 -14
  14
  -6
   6
  13
   0
 -18
  -6
   5
 -10
  -5
  30
 -15
   3
  26
  -8
  25
 -10
   5
-115
 -23
 -13
 -48
  32
  14
  42
  21
 -16
  -4
  30
  15
 -58
  29
  11
  11
 -21
 -31
 -19
 -20
  -3
   5
  18
 -13
 -18
   5
  -6
  34
   7
 -38
  18
  -4
  35
  24
  15
  32
 -10
 -39
  -9
 -16
  23
 -29
 -41
 -13
  13
 -11
   5
  15
  -7
  33
  41
 -12
 -38
  14
   9
 -11
   2
 -11
  12
  -6
 -23
  17
 -28
 -14
 -84
 -39
  23
 -51
  37
  -8
  34
 -15
  -3
  16
   8
   3
 -61
  47
  34
 -26
  -9
  16
  -3
  -2
 -13
 -15
   3
   2
 -37
  34
 -13
 -11
  32
 -16
 -27
 -24
  21
   5
 -25
  19
 -50
 -29
  10
 -12
  15
 -15
 -12
 -21
  10
  16
  29
  25
  20
  21
  12
  -7
 -39
 -17
   2
   0
 -11
  27
  -9
   6
   2
   7
  13
  41
 -89
 -16
 -12
  -5
   5
  10
  20
 -29
 -25
 -26
   2
  25
 -24
  56
  14
 -19
  11
 -20
   2
  21
   2
  23
  13
   0
  15
   8
   4
  20
 -24
 -10
   2
  11
   2
  21
 -15
  15
 -26
 -21
  12
 -22
  16
  24
  24
 -18
 -17
 -31
  38
   1
  -1
  38
 -20
 -23
   3
 -16
  -7
  -5
  48
 -21
  -2
 -12
  20
  24
 -16
   5
-110
 -23
   3
 -52
   0
  16
  30
  31
 -61
 -32
  36
 -33
 -30
  -7
  -6
   1
  30
   4
 -27
 -12
   8
 -38
  27
   3
  11
   9
   7
  15
  16
 -12
 -33
   4
  12
   8
  12
   1
 -19
 -33
  22
  16
  19
 -32
 -33
  -4
   1
  20
  45
   0
 -30
  26
 -15
  35
  -6
 -34
 -19
 -19
   0
  16
  -5
  -8
  10
  12
  17
   2
 -56
 -13
  37
 -52
  -3
  -2
  41
   4
 -35
 -31
  24
  17
 -19
  43
 -21
  17
  17
  17
  10
  23
  31
 -24
  34
 -19
 -32
  43
  21
   7
  -5
 -19
 -27
 -15
  30
   5
   1
  37
 -38
 -40
  22
 -24
  18
  -9
 -34
 -17
  21
  19
  -9
   2
 -16
  25
   2
  -5
  10
  28
  -3
  -2
  46
 -28
  -5
 -40
  11
  -6
  30
 -44
  62
  12
  -5
  40
  -9
  31
 -37
  33
  84
 -12
  20
  26
  55
 -28
  -3
   8
 -12
  -6
  -8
  11
 -32
  22
  25
   2
 -19
  17
  -1
  13
  28
  12
   9
  32
  11
  13
  17
 -12
  75
  30
  -9
 -19
   2
 -19
  14
  14
 -22
  -6
 -23
  17
   3
 -20
 -30
 -11
  -2
  26
 -12
   9
 -25
  -7
  21
 -36
  18
 -23
  20
 -31
 107
  27
 -33
   0
 -21
  23
  -7
 -30
  21
  35
 -14
   6
  44
 -44
 -13
  25
 -17
  11
   0
 -24
 -37
 -19
 -36
 -18
  29
 -47
  18
 -30
  16
  25
  33
  -2
  15
  -5
 -18
 -29
  42
  20
  15
   2
   4
 -10
  23
  29
  25
  -9
 -15
 -14
 -14
 -19
   5
 -31
  28
  25
 -16
  -4
 -39
  26
   2
 -30
  34
  -2
 -25
 -25
  74
   5
 -26
  31
 -21
  18
 -51
   5
  55
  29
 -25
 -22
  15
 -42
 -29
  28
  14
  23
  21
  -6
   6
 -12
  12
  14
  25
 -41
  21
  24
   6
  -3
  15
  29
   9
  -7
 -27
 -22
  25
   8
  -7
  27
 -31
  17
  48
 -10
 -16
  -8
  -6
  -9
  14
 -37
 -10
  23
  25
  -2
  21
  25
  -4
 -15
   3
 -44
  24
   1
  31
 -18
 126
   3
  -8
  42
 -26
  22
 -59
 -24
  63
   1
  -3
 -10
  38
 -20
 -27
  20
  -9
   9
  17
  22
 -25
 -12
  10
 -23
  17
 -10
 -25
 -29
  16
  39
  27
  31
   3
   6
 -25
 -12
  22
  16
 -22
  31
 -28
  10
  20
 -28
  -3
  22
   2
 -21
  23
  34
  -1
  32
 -15
  31
 -21
  14
  16
  15
   3
  47
  15
  -1
  19
  38
 -90
 -21
 -18
   7
  20
 -25
  34
  32
  -8
 -13
  -2
  -7
 -41
  51
   5
   7
  23
  -5
  12
   0
 -12
   6
  39
   1
  -6
  39
  22
  24
  17
   5
  11
   3
 -10
  18
  23
 -24
   5
   7
  34
  15
  32
  21
 -41
 -22
  18
 -12
   2
   0
  16
   3
 -17
 -21
 -31
   2
   5
   7
  17
   7
 -35
  -7
 -28
 -18
 -28
 -15
-104
 -11
  22
 -45
  13
 -25
  62
 -18
 -23
  -3
  28
  12
 -18
  51
  35
  -4
 -16
 -32
  -3
  15
  10
   6
  18
   7
 -31
  44
  13
  -2
  -7
  -6
 -27
 -37
  17
  16
 -16
   3
 -42
  -5
  20
 -13
  13
 -24
 -11
  -6
  -3
  27
 -40
  19
 -12
  -6
 -36
   1
  31
 -20
  -7
 -21
 -26
  31
  19
   8
   5
  -5
  19
   6
  67
  -4
 -27
  16
   7
  32
 -73
 -10
  54
 -11
 -37
  32
  16
 -32
  16
  -4
  -2
   8
  28
 -16
 -11
 -16
 -24
  15
   9
  12
 -25
 -11
  24
  16
  -1
 -16
 -26
  -9
  14
  -4
   9
  24
 -19
   2
 -28
  30
  11
 -24
  30
 -23
 -41
  -1
   9
 -25
  -2
 -27
  30
  15
 -25
 -25
 -40
   1
  12
 -49
 -17
 -19
 -10
  -6
  83
  30
 -20
  42
   2
  20
 -68
 -19
  51
   3
 -21
 -19
  73
  -1
  10
 -36
   3
 -17
  22
 -17
   9
  18
   6
 -27
  17
  -7
   2
   8
 -33
 -13
  30
   8
 -13
  -8
  -4
  18
  -6
  17
 -26
   6
  19
   5
  43
   1
  -4
 -24
  -1
  12
 -10
  25
  11
 -16
  13
  22
   0
  29
  -6
  -5
  27
  -6
 -36
  11
  18
 -12
-115
 -21
 -19
 -12
  -1
  17
  24
  30
 -60
  24
  27
 -13
 -54
  48
  -6
  30
  17
 -31
  -6
 -19
  -3
 -28
  -2
  -5
  -1
 -12
  -2
  18
  -5
   9
 -32
 -31
  -8
 -14
 -21
   1
 -50
 -26
  43
  -2
  13
 -15
 -28
 -26
  -8
  -7
  -6
 -22
   3
  24
 -17
 -21
 -12
   6
  17
  16
  37
  18
 -32
  -9
  14
  -2
  24
  23
-108
 -28
   7
 -12
  10
 -18
  34
  -1
 -16
 -10
  37
 -11
 -49
  39
  14
  18
  16
 -36
 -47
  29
  16
 -24
 -10
 -11
 -14
   9
  17
 -20
 -21
 -12
 -14
 -26
   7
 -21
  33
  14
 -40
 -14
  -3
   7
  25
 -30
   3
  -8
  -5
   8
   4
  27
   8
  -8
 -21
  -9
  14
   6
 -22
  13
 -38
   6
  34
  -5
  25
   8
   9
 -15
 103
  10
 -12
  15
 -47
 -20
 -20
   5
  43
  23
 -39
  17
  57
 -50
  -7
  -3
 -23
  -7
  42
 -17
 -42
  18
 -33
  17
 -12
 -29
  15
  20
 -25
  22
  22
  40
   5
 -28
  18
 -15
  36
  -3
 -25
  26
   7
  36
  36
  -7
  -4
 -29
  32
  29
  23
  17
  26
  15
  -7
 -22
  10
  33
   4
  -1
   0
  43
 -15
 -22
 -26
  20
-104
  -1
 -14
 -44
   6
   7
  31
  14
 -21
  -6
  -7
 -13
 -34
  18
  20
  -5
 -14
   4
 -30
  12
  31
 -31
 -15
  30
 -10
  16
 -12
 -12
  25
 -26
 -10
 -31
  18
  31
  14
   1
 -28
 -48
 -11
 -17
  -1
  -2
 -37
  13
  -1
 -23
  -7
  15
   5
  -4
 -38
 -12
   0
   7
   7
  -3
 -32
   9
  28
 -17
   1
  16
   6
 -27
  61
  -2
  18
   7
 -33
  24
 -14
 -13
  20
  20
 -17
  16
  31
 -56
 -27
   4
 -21
  24
  13
  -9
 -30
  26
   7
 -21
 -15
   3
 -19
 -27
 -34
  31
   3
   4
 -12
  17
 -16
 -25
  35
  12
   7
  -5
 -18
  35
  44
  30
 -23
   3
   8
  30
   1
  -8
  24
   7
 -40
 -17
  19
   2
  42
  25
  27
 -13
   5
   2
 -20
 -22
-118
 -32
 -22
  -1
  32
 -17
  20
   6
 -24
 -13
  -5
 -15
 -18
   5
 -23
   8
  25
  13
 -24
  -1
  -5
   8
  26
  30
 -36
  26
  -3
 -27
  16
  21
  -7
 -21
  -2
  -7
   1
  27
 -46
  -7
  30
  27
  19
 -28
 -29
 -14
  17
  -1
  11
  21
 -16
  15
 -20
  13
 -47
 -14
  27
 -26
  29
  12
 -24
  35
  21
   2
  16
  16
-128
 -37
  16
 -47
  11
 -18
  67
  12
 -23
   7
  19
  15
 -17
  47
  18
  35
  23
   9
 -16
   3
  -1
   0
  25
  -3
 -31
  13
  -2
   6
  19
  20
  20
   0
 -15
  27
  10
  12
 -25
  -7
  25
  -9
 -14
 -27
   5
 -11
  26
  -8
  43
 -11
 -18
 -20
  -6
 -20
 -15
  29
 -25
   2
  32
 -20
 -30
  27
 -23
 -28
   9
 -27
 -86
 -40
 -18
 -24
  11
 -10
  59
  32
 -61
 -21
  22
   2
 -63
  25
  19
  24
   7
 -17
 -47
  21
   7
 -19
   8
 -13
   6
  13
  25
  27
  32
 -13
 -33
  -2
 -15
  33
  28
   0
 -11
 -17
   2
 -28
  34
 -30
   4
  -7
  16
 -29
  12
  18
  24
 -22
 -10
  27
 -10
  12
  -5
   2
  47
 -31
  12
 -10
 -29
  10
  -7
  21
 -90
  -4
  26
 -25
  42
 -30
  11
  27
 -48
  17
   9
   3
 -32
  -4
  23
 -25
  27
   8
 -46
 -17
   5
 -27
  40
  13
  13
  35
 -16
  11
 -20
 -25
 -35
 -24
 -12
   4
  -3
  23
 -22
 -37
   1
  18
   3
  24
  -6
 -31
   8
   5
   2
  25
  10
  -7
  14
  15
 -30
  -4
  -8
  -4
  24
 -23
  20
  41
  12
   1
  -3
  -3
 -89
 -26
 -16
 -36
  37
  -3
  24
  49
 -24
 -20
   4
   5
 -22
  47
  21
  -2
  27
   3
 -27
  35
  34
 -35
  -4
  13
 -37
   8
  21
   3
  21
   0
 -25
 -11
  -9
 -18
  -3
   2
   7
 -13
  20
 -16
   3
  18
  -6
   2
 -16
  18
 -15
   6
 -20
 -21
 -32
  -7
  20
  23
 -12
 -22
 -12
  13
 -10
 -15
  23
   9
  -8
 -21
 105
  10
 -25
  28
 -47
   9
 -44
 -25
  41
   1
 -26
  30
  23
 -19
  -8
 -16
 -10
  15
  -2
 -13
  -7
   0
 -22
   7
  26
  12
  -5
  20
  21
   5
  25
  13
 -43
  -5
 -18
  -6
  38
  17
 -37
  27
  26
   1
  43
  13
 -10
 -11
 -28
 -23
 -13
  17
  10
   3
  40
  -1
  23
  -3
 -19
  26
  12
 -37
   5
 -22
 -27
 -30
  72
  31
 -34
   5
  -4
  29
 -19
  -9
  55
 -17
 -37
  14
  60
   5
  24
   6
   9
  20
  22
  -2
  -2
  -9
  17
 -25
  21
 -28
 -23
   7
  -4
  20
  19
  19
  13
 -23
  17
 -22
  45
  26
 -35
  -8
 -29
  11
  32
   7
  -2
  17
  31
 -10
 -22
  34
  -6
  22
   2
 -28
  -2
  21
   7
 -14
  -2
  -9
  14
   3
  23
 -18
 -70
  12
  22
 -21
  50
  -2
  54
  -1
 -37
 -33
   3
  22
 -59
  38
 -26
 -16
  20
   1
 -51
  26
   5
  10
  37
  -8
 -13
  16
   1
  -7
   3
 -12
  14
   5
  36
  15
  20
 -20
 -39
   3
  40
  -4
 -11
 -13
 -29
 -29
  33
  16
  10
   3
  16
  15
   8
  15
  16
  -3
  23
  -4
 -14
 -16
  10
  -2
  13
 -26
  -6
  -2
  60
   1
   8
  30
  14
  15
 -49
   3
  18
   4
 -29
  -3
  60
 -25
 -27
 -13
  13
   6
  10
 -20
  -1
 -19
 -13
 -27
  17
 -35
  -9
  -3
   3
   9
  10
  38
  11
 -37
 -19
 -28
  10
   8
  -7
  36
   9
   1
  25
 -25
  11
  12
  47
  -6
  -4
 -13
 -19
  -4
 -29
 -10
 -15
  27
  28
  14
   1
  46
  -2
  22
  18
 -16
-104
   8
 -12
   0
   6
 -18
  31
 -12
 -35
  -2
  27
  25
 -13
  20
  11
  20
   8
  10
 -42
  31
 -12
   8
  31
 -20
  -6
  39
  -1
   5
   3
   8
 -27
 -24
 -14
  13
 -11
  38
 -39
   2
  25
   3
  -4
  19
 -40
 -10
  12
  23
 -41
  14
  -1
 -33
  -6
 -17
  43
 -21
  -4
  13
  -1
 -10
 -23
 -30
  10
 -29
  -1
  12
  75
 -10
  12
  52
 -11
  31
 -29
  -8
  61
   5
  -1
 -13
  64
   5
  22
   7
  11
  40
  10
 -30
  -2
  31
   1
  26
  39
 -20
 -27
 -34
 -24
  18
  28
  13
 -36
  10
  -1
 -19
  -7
  26
  16
 -17
 -31
  17
  21
  -3
 -14
 -22
   1
  19
 -19
  -2
 -11
  33
 -19
 -31
 -24
  -5
  21
 -33
  23
   6
 -10
  30
   7
   4
-103
  12
   6
 -51
   2
   2
  33
 -15
 -26
 -33
  16
 -25
 -20
  29
   9
   9
   5
 -37
   0
  31
  -3
  18
  30
  23
 -16
   1
 -23
  31
  12
   5
  -8
   9
   1
  -1
  28
  38
 -32
 -18
  -7
 -23
  11
  10
 -18
  10
  -5
  -7
  29
   0
 -23
  13
  -8
 -23
 -19
 -30
  -2
  -6
   7
   2
 -24
  -9
  14
  16
   5
  -3
-125
 -14
   9
  -4
  41
  -5
  25
  22
 -61
  -2
   5
  -8
 -60
  46
   5
 -14
  35
  -2
  -4
  38
  -5
  10
 -17
  27
   3
  29
 -11
  15
 -11
  -2
  -3
 -27
  -9
  25
  12
   4
 -18
 -49
  44
 -24
  32
 -24
  -7
  -6
  -5
 -17
  -1
  21
   1
  23
  34
  25
  15
  23
  19
 -19
 -16
 -11
  14
   6
 -20
   9
  18
  20
 -76
   7
  -6
 -11
  -5
   3
  20
   5
 -43
  26
 -15
  10
  -8
  40
  -8
   0
  24
 -27
   1
 -19
  30
 -10
  37
  12
   0
  23
  -3
  28
  10
  21
   0
 -26
  30
  31
  -2
   6
 -35
   7
  -4
  30
  24
  -8
 -10
  24
 -19
   8
   5
 -25
  12
  11
  -5
 -35
  24
 -28
  21
 -16
 -22
  -3
  12
 -18
  29
 -25
   6
  23
 109
  26
 -30
  23
 -22
   2
 -44
 -23
  46
  11
 -34
   1
  26
 -29
 -24
  25
   1
  39
  17
   4
 -36
  14
 -19
  17
  14
 -46
  15
   7
   6
  -3
   6
  21
  -1
 -38
  19
  -7
  37
  28
 -20
  27
 -10
  31
  31
   4
  30
 -22
   4
 -22
  -9
   7
 -16
   9
 -21
 -25
  19
  12
  -5
 -34
 -13
  -2
 -36
 -17
   5
 -11
-126
 -36
  -6
 -20
  27
 -24
  15
  20
 -33
   0
  37
 -32
 -25
  14
  -2
  28
 -13
 -30
 -24
 -12
  12
  13
  -9
  15
   6
  43
   4
  22
 -16
 -33
 -36
  -6
  -9
 -19
  29
  10
   0
 -49
  40
 -27
   4
  -7
 -37
  -7
   9
  24
  52
  25
 -17
 -11
  26
  -2
   8
   5
  17
 -17
 -13
  -5
  10
  -4
  -1
   7
 -29
  16
-111
 -38
  20
 -36
  14
  22
   5
   9
 -11
 -26
  34
  28
 -19
  33
  -4
  25
 -14
 -20
 -31
  19
   9
 -25
   8
  26
 -43
 -10
  22
  16
 -11
   0
  -2
   1
  36
  -8
  15
  18
 -13
 -12
  16
  -7
  -7
  23
 -35
  29
 -16
   6
