-0.017960
-0.350218
-0.377158
-0.026940
0.197559
0.026940
0.808196
0.053880
-0.035920
0.332258
-0.350218
-0.772276
0.017960
0.215519
0.170619
0.475937
-0.314298
0.251439
0.448998
0.835135
-0.026940
-0.269398
-0.152659
-0.170619
-0.197559
-0.341238
-0.143679
0.745336
0.044900
-0.008980
-0.008980
0.116739
-0.008980
-0.727376
0.323278
0.754316
0.044900
-0.233479
0.969835
0.035920
0.026940
-0.035920
-0.484917
0.251439
-0.206539
0.161639
0.341238
0.098779
0.440018
-0.502877
0.242459
0.466957
0.296338
0.395118
-0.341238
0.233479
-0.395118
0.251439
0.215519
-0.296338
0.251439
-0.475937
-0.134699
0.215519
-0.996774
0.610637
-0.332258
0.332258
0.359198
-0.089800
-0.422058
-0.323278
-0.520837
-0.107759
0.107759
0.026940
0.080820
-0.224499
-0.143679
0.215519
0.044900
-1.140454
0.682476
0.431038
0.906975
-0.359198
0.691456
0.170619
0.233479
0.377158
-0.574717
-0.188579
-0.511857
0.377158
0.296338
-0.179599
0.116739
-0.116739
-0.305318
-0.089800
0.251439
0.296338
0.655536
0.314298
0.197559
0.269398
-0.619617
0.215519
-0.206539
0.278378
0.296338
0.448998
0.260419
0.242459
0.026940
0.565737
0.044900
0.359198
0.754316
-0.062860
0.350218
0.296338
-0.287358
-0.924935
-0.242459
0.323278
0.457977
-0.754316
-0.116739
0.152659
-0.008980
0.251439
-0.224499
-0.233479
-0.475937
0.071840
-0.107759
0.269398
-0.413078
0.745336
-0.080820
-0.098779
0.179599
0.044900
0.242459
-0.323278
-0.026940
0.350218
0.359198
-0.332258
0.053880
0.170619
0.089800
0.224499
0.035920
0.628597
-0.269398
0.089800
0.188579
0.071840
-0.044900
-0.700436
-0.610637
-0.359198
-0.727376
-0.143679
0.431038
0.323278
0.044900
-0.296338
-0.386138
0.089800
-0.242459
0.161639
0.179599
-0.152659
0.053880
-0.179599
-0.431038
-0.161639
-0.565737
-0.134699
0.161639
0.044900
0.170619
-0.197559
-0.395118
0.323278
-0.206539
0.134699
0.314298
0.547777
-0.161639
0.422058
-0.422058
0.610637
0.251439
0.637576
0.233479
-0.987795
-0.134699
0.062860
0.404098
0.502877
0.071840
-0.089800
-0.116739
0.008980
0.350218
0.053880
-0.431038
-0.125719
0.502877
0.008980
-0.017960
0.017960
0.161639
0.574717
-0.565737
0.547777
-0.224499
-0.035920
0.314298
0.440018
-0.224499
0.188579
-0.386138
-0.035920
0.000000
0.466957
-0.790236
0.188579
-0.350218
-1.023714
0.062860
0.691456
-0.017960
-0.332258
-0.314298
0.089800
-0.547777
-0.296338
0.044900
-0.844115
0.386138
0.736356
-0.062860
0.296338
0.071840
0.233479
-0.107759
-0.359198
-0.107759
-0.107759
0.044900
0.233479
