0.063894
-0.127788
0.170384
0.092291
-0.582146
0.269775
0.120689
-0.390464
0.127788
0.596345
-0.227179
-0.347868
0.461457
-0.085192
0.127788
0.205881
-0.049695
-0.191682
-0.539550
-0.354967
0.816424
0.326570
0.212980
-0.234278
-0.085192
-0.447258
0.177483
0.127788
0.056795
0.305272
-0.056795
-0.376265
0.433060
-0.134887
-0.227179
0.227179
-0.411762
0.212980
0.156185
-0.262676
-0.113589
-0.333669
-0.326570
0.276874
-0.603444
0.163285
0.340768
-0.504053
-0.291073
0.425960
0.163285
-0.298172
0.056795
0.056795
-0.191682
0.518252
0.000000
0.078093
-0.205881
-0.134887
0.078093
-0.262676
0.340768
0.085192
0.440159
-0.546649
0.028397
0.433060
-0.610543
0.092291
0.184583
-0.440159
-0.056795
0.149086
-0.220080
0.063894
-0.369166
0.255576
0.205881
-0.156185
0.092291
0.205881
-0.227179
-0.227179
0.149086
0.376265
-0.106490
0.156185
-0.113589
-0.425960
-0.248477
-0.070993
-0.177483
0.149086
0.326570
-0.340768
-0.106490
0.141987
0.191682
-0.092291
0.198782
-0.425960
0.000000
0.141987
0.305272
0.120689
0.369166
-0.149086
0.085192
-0.255576
-0.383364
0.461457
0.369166
-0.383364
0.056795
0.596345
-0.191682
-0.440159
0.418861
-0.610543
-0.248477
0.092291
0.291073
0.191682
-0.418861
0.333669
-0.404662
-0.191682
0.220080
-0.127788
0.099391
0.241378
-0.049695
-0.610543
0.376265
-0.404662
-0.134887
-0.127788
0.560848
0.134887
-0.447258
0.241378
-0.362066
0.063894
0.326570
-0.411762
0.007099
0.262676
0.141987
-0.326570
0.063894
-0.518252
0.099391
0.056795
0.340768
0.425960
-0.035497
0.177483
-0.440159
0.120689
-0.269775
0.404662
-0.014199
-0.035497
-0.042596
0.205881
-0.056795
0.411762
-0.106490
-0.056795
-0.333669
-0.106490
-0.205881
-0.141987
0.418861
-0.234278
-0.035497
-0.191682
-0.042596
-0.049695
-0.347868
0.227179
0.141987
-0.255576
0.184583
0.383364
-0.120689
-0.070993
0.802225
-0.276874
0.070993
0.092291
-0.092291
0.319470
-0.212980
-0.433060
0.156185
0.617643
-0.461457
0.411762
0.248477
-0.170384
-0.312371
-0.397563
0.425960
-0.106490
0.269775
0.170384
0.205881
-0.354967
0.234278
0.575047
-0.269775
-0.518252
0.134887
-0.283974
0.092291
-0.035497
0.326570
0.333669
-0.354967
0.106490
-0.482755
0.220080
0.191682
-0.582146
-0.298172
0.127788
-0.319470
0.156185
0.397563
-0.610543
0.000000
-0.049695
-0.063894
0.376265
0.291073
0.177483
-0.177483
-0.198782
0.000000
0.255576
0.496954
0.468556
-0.291073
-0.049695
0.212980
0.163285
0.092291
-0.191682
-0.383364
-0.170384
-0.908716
-0.283974
0.170384
0.035497
