  51
 -40
 -27
  22
  66
   6
 -63
  11
 -29
  26
 -82
 -35
  -6
  -4
  70
  30
 -26
 -46
  37
  23
  13
   2
 -55
   5
  33
 -12
 -47
 -38
 -12
   9
  17
 -27
 -12
  13
 -48
 -57
   9
 -82
  18
  53
 -25
  -7
  36
  19
  -8
  62
 -38
  -2
  22
  25
  37
  42
 -23
 -40
  11
 -35
  -3
 -25
  -7
  72
   2
 -77
  -4
   4
  14
 -84
  48
 -32
  45
   7
 -25
  47
 -63
  25
   2
  14
  -6
  -3
  94
  52
 -47
 -37
 -16
  69
  47
  48
 -49
 -46
  65
 -51
 -13
   5
  14
 -16
  11
 -39
  76
 -29
  -2
  23
  20
  15
   1
 -24
 -12
 -24
  52
  40
 -63
  63
 -12
  34
  -3
  45
  -2
  35
 -46
 -13
  65
 -36
  52
 -46
   2
  26
  -7
 -11
  48
  33
 -20
  32
 -68
  13
  -5
 -41
  15
 -48
  16
 -12
  71
  49
  44
   1
-111
 -30
  22
  56
 -58
 -47
 -49
  23
  28
  59
  -8
 -13
  40
  61
 -54
 -52
 -38
   3
 -57
  10
 -11
  59
  53
  15
   5
 -31
  -3
  76
 -28
 -51
  64
 -79
  50
  18
 -22
  -3
 -45
 -10
   8
  12
 -36
  10
 -35
 -14
 -48
 -36
  -3
   6
  15
 -33
  46
 -45
  50
  -2
  56
  21
 -44
  37
 -38
 -24
 -42
 -23
 -31
 -50
  77
   9
   0
   8
  50
  45
  44
  18
   9
  -7
  14
 -31
  -9
 -71
 -19
  29
  16
  -7
  -1
  28
 -24
  13
  22
 -22
  34
  43
 -16
 -13
  21
  51
 -40
  63
 -44
  32
   0
  -1
  30
  -3
 -57
  12
  28
 -45
  23
 -20
  18
  62
  17
  -2
 -25
  57
  58
 -66
  -7
 -11
  63
  43
 -46
  12
 -44
  25
 -52
 -52
  26
 -33
  65
  69
  -3
  20
  53
  72
  24
 -21
  -8
 -40
 -22
  -4
 -34
   5
  30
  52
  57
  31
  -2
  -1
 -22
 -23
 -35
 -12
  22
  60
 -25
 -15
  67
  20
 -28
  55
  19
  12
  20
  35
  26
  -9
   3
 -77
  33
 -50
 -13
  -4
  -1
  34
  61
 -30
 -11
  57
  15
 -29
 -17
   7
 -22
   8
 -34
 -23
  16
  26
 -44
 -49
  64
 -23
  -5
  12
   0
   6
  36
  34
  30
  52
 -36
   9
  26
 -54
 -27
   7
   9
 -19
  53
  15
  44
  48
   4
  31
   4
 -19
  32
  48
 -32
 -16
  11
  15
 -50
 -16
  18
  39
  18
   3
  21
 -31
 -26
 -20
   6
 -41
  29
 -25
  27
  21
 -25
 -22
 -21
  47
 -56
  66
 -12
  31
 -39
  -4
  48
 -65
  42
 -36
   6
  45
  35
   0
 -98
 -84
  -2
 -17
  -9
 -28
 -74
 -21
  57
  51
 -67
 -12
  73
   6
 -26
 -53
 -57
  27
 -47
 -29
  21
  46
  26
  59
  23
  -4
   1
   3
 -39
 -22
  54
 -67
  45
   2
 -49
 -22
 -60
 -20
  52
  85
  16
  15
 -39
  47
 -28
 -13
 -12
  29
  -3
 -68
 -39
 -19
   2
 -23
 -53
 -45
  15
 -14
 -20
 -55
  17
  42
  42
   8
 -63
 -48
  12
  15
 -49
 -46
  -5
 -45
   0
  30
  32
  35
  -5
  17
   5
  23
 -24
   2
   7
  -1
  15
   6
 -14
  78
 -32
  23
  -5
  -2
 -46
  25
  -9
 -71
  48
 -22
  12
  -7
 -29
  -3
 -13
  17
 -16
  36
 -42
   9
  -9
 -69
 -33
  41
 -51
 -39
 -21
  23
 -20
   1
  31
  23
 -26
 -33
   6
  42
  28
  29
  45
  15
 -28
  30
  15
  35
   2
  23
   2
  21
 -48
  -2
  -9
   6
 -28
  21
  -1
  -7
  14
 -13
  16
  29
   4
 -27
  21
  -9
  11
  19
 -31
 -23
   7
  21
  -6
   8
  25
   9
  37
  -8
 -14
  28
 -39
  12
  39
 -28
  41
  39
  25
  20
  17
 -19
 -16
  16
 -46
  -4
   0
 -13
 -50
 -43
  21
 -33
  49
  23
  21
  90
 -15
  52
-121
 -57
  26
  33
 -20
 -52
  -6
  20
  27
  32
  -3
  31
  68
   4
 -57
 -15
 -60
  -9
 -65
  21
   2
  -1
  49
  54
 -32
 -55
 -19
  48
 -48
 -75
  48
 -28
  26
 -20
 -10
 -72
 -32
 -51
 -13
  84
  -6
 -12
  -5
  34
  22
 -41
 -32
  46
 -40
 -42
  65
 -64
  18
  25
  84
  49
 -28
  52
 -53
  50
  -7
 -34
  17
 -18
  94
   4
 -37
 -35
  -9
  14
  21
   4
 -67
 -31
  63
 -79
  -6
   7
  16
  53
  26
  12
  48
  53
  22
 -14
 -59
 -61
   6
  45
 -39
 -57
  50
  60
 -76
   7
 -21
  58
  45
  69
  23
  65
 -13
 -60
  10
  24
  61
 -23
  -1
  32
  13
 -52
  30
  64
 -22
  12
  11
 -18
 -54
 -26
  43
 -55
  73
 -23
  35
   2
 -24
  66
 -59
  -6
   6
  -4
 -43
  -2
 -46
 -31
  28
  23
  21
  51
  67
  62
 -30
 -43
 -41
   7
 -20
 -52
 -27
  29
  13
  88
   3
   1
  -8
  22
 -84
 -69
  25
 -49
  45
   2
 -52
 -67
 -23
  13
  27
  40
 -17
  45
 -37
  28
 -48
  12
 -32
 -10
 -14
 -28
  38
  29
   4
  -5
  -4
  37
 -51
  39
  25
  53
 -47
 -46
   7
 -34
   7
  77
  12
  -1
   1
  64
  43
  18
 -42
 -67
 -18
 -56
 -51
 -20
  13
  43
 -16
  35
 -10
 -20
  -2
 -29
 -31
 -75
  11
  20
  -5
  -5
  61
   5
 -25
  38
 -14
 -10
  48
  22
  41
   3
  16
  -5
  -3
 -20
  10
 -37
 -17
  17
  42
 -28
  36
  45
  12
  -9
  17
 -28
  62
   6
 -68
  40
  -3
 -14
 -53
   0
 -42
 -31
  94
  -3
   9
 -41
   8
  50
  44
 -25
 -41
 -30
  48
   4
 -51
  19
   0
  28
  52
  32
 -16
  18
   7
 -14
   8
 -32
  40
  -7
 -38
 -31
  -8
  11
 -16
  54
 -38
  35
  15
 -18
 -20
  -8
 -17
   7
  24
 -37
  -3
  19
 -22
  36
  28
 -68
  10
  43
  -9
 -12
  67
  26
  11
  -1
 -45
  62
 -81
  30
 -90
 -30
 -16
 -21
  84
  31
 -26
 -44
  24
  20
  19
 -24
  -6
 -62
  58
 -15
  -1
 -33
 -13
   8
  13
  25
  22
  -9
 -28
 -59
 -55
 -67
  14
  22
 -47
 -29
  74
  19
 -64
  90
 -45
  -8
 -30
  47
  67
  38
 -53
 -88
   7
 -26
  10
   0
  31
  69
  -4
 -21
  46
  81
 -10
 -25
 -20
   3
  15
  -3
  28
 -18
  63
 -31
 -10
  -2
   1
  73
-103
 -19
 -13
 -14
 -33
 -50
   3
 -50
  29
  46
  15
 -10
  -7
  52
   4
  -5
   0
  -1
  13
 -19
  -3
  35
  19
  71
  -7
   3
  23
  53
 -80
  -2
 -10
 -58
  -9
   7
 -11
 -41
 -49
  22
   0
  38
   7
   2
 -18
  -2
  -1
 -56
 -51
  39
 -36
 -57
  58
 -36
   0
  13
  52
  62
 -11
  33
 -51
  20
  13
  -3
  27
 -33
 -29
  -8
 -19
   8
   7
  35
  30
 -13
  -2
 -22
   2
 -32
  -5
 -32
  25
  42
  49
 -17
  45
  50
 -25
  -9
 -18
 -21
  41
 -13
  14
 -74
  25
  62
 -63
  60
 -41
  21
  55
  11
  23
  55
  -9
 -41
  21
 -28
  -1
  15
  53
  21
  19
 -39
  62
 -27
  29
 -53
  56
  13
  65
   5
 -67
  55
 -68
 -14
   5
 -57
  24
 -23
  44
  36
 -28
   6
  12
  35
  26
   4
 -43
 -51
  44
 -32
  -3
 -53
  47
  61
  64
  22
  72
  12
  16
 -48
 -29
 -28
  26
  23
 -26
 -57
  -3
  63
 -50
  25
 -67
  -2
  42
  28
  85
  43
 -23
 -66
  35
  16
  14
 -31
  64
  38
  -2
 -36
 -11
  23
 -48
  54
 -27
   2
  19
 -10
  54
 -40
  32
  -4
  46
   7
 -35
  20
 -59
 -37
  43
  23
   4
 -19
 -20
 -16
  46
  50
  22
  -7
  26
  42
  24
 -16
 -46
 -12
   5
   3
 -14
  32
  53
  57
  33
 -13
  39
  29
 -28
 -46
  21
 -22
 -29
 -13
 -22
 -73
 -26
  16
  48
  42
  18
  43
 -21
  46
  27
   6
 -15
  25
 -47
 -23
   7
 -66
  48
   0
  41
  40
 -49
  73
 -88
  -1
 -45
 -67
  -4
   3
  49
  18
 -12
  18
   0
  67
  68
  18
 -19
 -58
  16
 -68
 -33
 -48
  21
  42
  67
  31
  21
   6
  10
 -62
 -23
 -62
 -20
  43
 -20
 -62
  57
  75
 -12
  40
 -52
  22
   3
  13
  31
  56
 -35
 -59
  50
  -8
  57
  -8
  32
  42
  31
 -81
  28
  13
  78
 -47
  77
   5
  60
   6
 -45
  57
 -64
  27
 -69
 -38
 -26
 -60
  75
  28
 -19
  20
 -16
  28
  -4
 -10
 -51
 -45
  65
 -56
 -31
 -58
  35
  15
  30
 -10
  13
  47
  29
 -25
   9
 -78
  18
  21
 -41
   0
  91
  56
 -30
  29
 -59
  67
  43
  49
  66
   7
  -1
 -63
  -2
   8
  27
 -57
  -3
  30
  56
 -87
  16
  37
  60
 -57
  23
 -12
  59
   5
 -30
  54
 -41
  52
 -96
 -79
 -43
 -14
 101
  42
 -11
  13
  -6
  71
  41
  -4
 -41
 -49
 -16
 -54
 -59
 -24
 -24
  83
  65
   2
  20
  58
 -41
 -12
 -62
 -52
  33
  41
  14
 -63
 105
  71
 -14
  92
 -22
  -6
  15
  45
   2
  14
 -12
 -77
  21
   2
 -18
  17
  36
  21
  23
 -81
   2
  84
 -54
  10
  -7
   5
 -21
 -10
  54
  11
  -2
 -10
  28
  -8
   5
  60
 -80
 -26
  58
 -18
  18
 -24
 -46
   7
  34
  68
 -46
  24
   9
  28
  31
 -55
 -55
 -45
  -3
 -19
  43
  -2
  46
  39
  25
  25
  46
  22
 -13
   3
   3
 -40
  23
   8
 -41
 -81
  -3
 -27
 -26
  39
 -49
  29
 -44
  17
 -24
 -49
  -6
  -9
 -25
 -39
   5
 -41
  36
 -21
  -9
   4
  -4
  34
  -6
  -3
 -43
 -41
  14
 -55
  75
  54
 -64
  24
  -1
  37
  46
   3
 -39
   0
  -2
 -18
  -5
 -60
 -16
 -23
  20
 -12
  53
   6
  22
 -18
 -50
 -58
  13
  42
   4
 -20
  69
  44
   8
  43
 -48
 -22
 -25
  14
  51
  25
 -45
 -73
  42
 -25
  10
  22
 -12
 -19
 -26
 -39
  25
   1
  14
 -30
  20
  20
  30
  39
  19
 -18
 -23
  -9
 -28
 -45
  24
 -28
  86
  75
 -54
  14
  11
  64
  42
   8
 -75
 -36
  29
 -48
 -48
   0
 -23
  12
   8
  19
  -2
  12
 -31
 -24
   0
 -75
  21
 -10
 -48
 -39
  70
  53
   1
  23
  15
  39
  62
  58
  -5
  31
  19
  -8
  27
 -12
  14
  11
 -23
  54
 -10
 -48
 -11
  17
  32
 -69
  49
   1
  39
  32
 -74
  34
 -77
  62
 -60
 -46
 -32
 -24
 127
  67
  12
 -31
  24
  25
  51
  68
 -74
 -87
   5
  11
 -15
 -26
  38
  47
  24
   3
  60
   3
 -42
 -35
   4
 -91
  41
  14
 -13
 -82
  64
  60
 -74
  55
 -50
  35
  39
  53
  56
  45
 -70
 -60
  63
 -22
  63
 -16
   5
   6
   4
 -38
  52
  42
  61
 -21
 -22
 -42
  10
  55
  -2
  21
 -26
  50
 -58
   4
  43
 -35
  36
  -6
  14
  -2
  51
  14
 -12
  45
 -51
 -20
  46
 -26
  15
 -25
 -21
  28
 -27
 -29
  15
   2
 -19
 -38
  11
 -56
  30
  12
 -39
  13
  45
  49
 -35
   7
 -38
  29
 -10
  -6
  31
  17
 -15
 -14
  44
   9
  54
   4
  11
  46
  -5
 -28
  10
  -4
  -6
  39
   1
 -12
   3
 -27
   0
 -15
 -13
 -16
  35
  71
  14
  21
 -41
 -73
 -24
  12
 -45
 -63
 -16
 -19
  27
  72
 -16
 -10
  -6
  38
 -18
  19
 -50
 -40
   6
 -41
  40
  -4
  48
  79
  18
 -26
  16
  15
 -44
  -2
  66
 -68
 -28
  16
 -41
 -60
 -47
  28
   8
  29
 -46
   2
 -26
  49
  24
 -31
   8
  44
  10
  23
  63
 -35
  37
  -6
  46
  -1
   9
   5
  -7
  -7
  -1
  18
  -4
 -37
 -37
 -10
 -18
 -40
  45
  -2
  33
  23
 -51
 -28
  -8
 -28
 -32
 -50
 -15
   2
  36
   5
 -14
  41
 -47
 -22
 -10
 -25
   1
  13
 -27
 -24
  -2
  38
  16
 -20
 -47
  26
  30
   2
  11
  42
 -50
  -8
  10
 -41
  11
   5
  38
  54
  11
 -38
  15
  48
 -48
  38
 -60
 -26
   7
 -25
  37
   2
  24
 -24
  29
  12
  -3
  89
 -83
  -7
  23
   0
  -7
 -23
 -24
 -10
  49
  66
  -6
  13
  52
 -15
  -1
 -11
 -48
   6
 -21
 -44
   5
  22
  -2
  70
 -47
 -20
   2
  59
 -68
 -42
  41
 -77
  49
 -46
 -12
 -70
 -45
   8
 -11
  22
  -4
  59
  24
  36
 -16
   7
  -7
  -5
 -31
 -23
 -68
  27
 -33
  -9
 -10
 -58
  -5
 -49
   3
 -41
  33
  64
 -20
  11
 -42
 -28
  80
  23
  -2
 -31
  -3
 -50
  37
  21
 -25
  43
  77
  33
 -43
 -50
   8
 -19
 -55
 -46
  29
  53
  -8
  25
 -44
 -47
 -24
  59
 -45
 -79
  22
 -87
  31
  -7
 -64
 -76
  -1
   2
  42
  36
   3
  24
  22
 -17
   6
 -52
 -20
  77
 -24
 -66
  13
  22
  36
  15
  14
 -12
 -34
   6
  18
  16
   4
 -24
 -30
 -64
  93
  21
 -11
  32
 -14
  23
  25
  22
 -72
 -10
  31
 -52
 -57
 -25
 -20
  18
  11
   7
  26
  -6
 -27
 -26
  17
 -41
  -3
  20
   1
 -54
  76
  45
 -66
  -1
  -6
   1
  29
  69
  45
 -14
  25
 -60
  25
 -20
  17
 -11
  16
  12
  58
 -47
  49
  -6
 -82
  42
 -60
  40
   5
   1
   3
  14
  13
  -5
  20
  48
  50
  20
-100
 -65
  12
  47
 -33
 -77
  -8
 -18
  76
   3
 -20
  61
  40
  24
 -12
 -34
 -66
   0
 -20
  16
  27
  19
  18
 109
 -24
 -27
  32
  93
-112
  -8
  59
 -48
 -11
 -51
 -86
 -80
  -5
   2
   2
  72
 -72
 -21
 -53
  50
  18
 -57
 -18
  62
  -1
 -19
 -81
  54
   6
  14
 -30
 -30
  71
 -46
  15
 -31
  63
  11
  54
  63
 -83
 -23
  -1
  35
   2
  -5
 -33
 -19
  45
  54
  13
  51
   8
  -2
   6
 -29
  18
  28
  -7
 -47
   0
 -19
  31
  86
 -34
 -51
  50
  14
 -48
 -54
  52
 -84
  41
  14
   6
 -60
   8
 -41
  20
  51
 -60
   7
 -10
  11
  30
 -31
   2
  40
 -23
 -13
  -4
  34
 -13
 -24
 -43
 -30
  18
 -38
  45
 -44
  17
  72
  22
  70
 -66
 -65
  52
 -22
 -13
 -47
 -72
  -2
   6
  28
 -68
  37
  10
  58
  22
  -4
 -26
  27
 -10
  11
 -19
  66
  57
  53
  -6
   3
 -20
  84
 -77
 -41
  39
 -89
   1
   2
 -57
 -29
 -57
 -12
  63
  50
 -22
   3
 -57
  55
 -35
 -33
 -55
  88
  18
 -39
 -57
  62
 -58
  -1
 -77
 -15
  47
   6
  43
 -47
  95
  30
  16
  29
-103
 -59
  66
   2
 -58
 -49
 -50
 -55
  27
  68
  -2
  11
  28
   3
 -17
 -44
 -53
 -19
 -60
 -44
 -11
   4
  45
  18
 -48
 -61
  27
  23
 -48
 -84
   7
 -77
   6
 -60
   2
 -84
 -24
  -3
  -1
  26
   1
 -25
 -48
  20
 -19
  -6
  -4
  83
 -13
 -24
  15
 -32
  -6
  20
  34
   5
 -51
  55
  -5
  38
 -19
 -65
  32
 -21
  44
  61
  -2
 -36
  -4
  17
  19
  15
 -28
 -75
  33
  -3
 -40
 -69
  53
  44
  27
  40
  49
   0
  43
 -45
   1
 -42
  43
   7
 -29
 -76
  14
  38
 -49
  79
  15
   5
  41
  13
  28
  43
 -18
 -27
  55
 -35
   1
 -18
   3
  65
  23
 -46
  14
   6
  54
 -99
  54
  -2
  15
  45
 -46
  39
 -43
  36
 -20
   3
  22
 -65
  99
  35
 -44
 -27
 -27
  25
  35
 -27
 -28
 -11
  76
  13
 -13
 -49
  61
  44
  18
 -30
  50
  32
  17
 -57
   6
 -22
  38
  49
 -40
 -35
  23
  30
 -28
  -5
 -13
  22
 -11
  45
  42
  58
 -19
 -41
  60
 -37
  32
   0
  38
  34
 -10
 -17
 -22
  13
  20
 -28
  69
 -25
  51
  58
  -2
  70
 -54
  47
 -23
 -57
   6
 -14
  72
  38
 -26
 -38
 -22
  88
  27
  -4
 -72
 -66
 -10
   6
 -13
 -20
  12
  60
 -17
  40
  53
  49
 -11
 -36
 -45
 -96
  42
   7
  26
 -34
  35
   3
 -25
  72
 -55
  30
  12
  43
  18
   0
 -36
 -85
   5
   0
  51
   3
  52
  24
   7
  -8
   0
  42
  -7
  25
 -81
  38
-110
   2
  68
 -27
  99
  18
  53
  16
  49
  84
 -93
 -69
  54
 -25
  12
 -65
  -5
 -14
  35
  80
 -25
   5
  72
  76
 -53
 -99
 -50
 -12
 -65
 -27
  35
  27
  34
  90
 -15
 -34
   1
  25
 -62
 -74
  14
 -13
  16
 -66
   9
 -39
 -48
   7
  38
 110
   0
  18
 -47
   1
 -40
 -42
 -79
  94
 -22
 -98
 -11
  38
 -24
  44
 -66
  25
  39
 -25
  52
   1
  22
  21
  17
  80
-111
 -57
  11
  44
 -41
  -5
  -2
 -32
  47
  30
 -46
  20
  25
  42
  -1
  -5
   2
 -28
 -66
 -30
   8
  -2
  -8
  57
  25
 -31
  42
  18
 -79
 -72
  18
 -13
  61
  -8
   3
 -52
  -4
 -50
  46
  13
 -58
  52
 -27
  40
 -10
 -66
   2
  70
 -17
 -66
  72
  24
  27
   2
  53
 -27
  15
   6
 -24
   3
 -56
 -31
  31
  -5
  36
  55
 -24
 -49
  40
  66
 -12
  29
  12
 -53
  27
  14
  27
  -6
  38
  41
 -15
 -35
 -16
 -14
  16
 -15
 -55
 -44
  27
  17
 -30
 -25
  75
  41
 -40
  52
 -44
  15
  -1
  37
   7
  -4
 -43
 -39
 -23
   0
 -34
 -49
 -16
  -5
   9
 -51
 -23
  34
   5
 -13
  -2
  25
  37
  -4
  -5
  76
 -57
  13
 -62
 -77
 -31
 -24
 103
  35
 -57
 -26
  16
  48
  43
  32
 -73
  -2
  56
 -46
 -46
 -49
  43
  54
  64
  40
  64
  43
  -7
 -38
  15
 -45
  47
  -9
   3
 -53
  46
  51
 -80
  26
   6
  13
  30
  12
  63
  -6
 -60
 -64
  -1
 -29
  70
 -38
  18
  23
  32
 -54
 -12
  77
 -66
   6
 -42
  35
  -8
  -8
   4
 -14
  45
 -55
  22
  88
  -9
  26
 -61
 -46
  48
  40
  -7
 -57
 -86
 -52
  52
  46
  21
  -3
  14
  69
 -37
 -12
 -41
 -14
  -5
 -27
  26
  65
  51
  38
 -10
  -8
  43
  34
 -94
 -62
  58
 -62
 -25
 -46
 -33
 -29
   3
 -20
  63
  30
 -19
   5
  -4
  34
  16
 -80
  -8
  16
   6
 -30
 -21
  65
  -7
  29
 -37
 -10
  35
 -68
  76
  -5
  76
  -6
  -3
  38
 -92
 -78
  23
 -12
  -6
   8
 -19
 -46
  66
  40
 -55
  -5
  47
  54
   6
 -52
  13
  37
 -32
  -4
  18
   2
  68
  28
 -54
 -57
  -2
  35
 -48
   3
  41
 -22
   7
 -36
   0
 -55
 -44
 -19
  -4
  44
  18
  15
  -8
  -7
  -3
 -10
  -1
  18
 -38
 -62
  -3
 -35
  26
 -42
  30
   3
 -13
  35
 -61
  39
 -58
 -31
  21
 -23
  43
  58
 -25
  25
  35
  48
  51
  23
 -56
 -29
  67
 -23
 -30
 -16
 -19
  80
  13
 -10
  32
  27
 -41
 -16
  11
 -31
   3
   9
 -19
 -67
  62
  67
 -57
  21
  14
  -1
  71
  78
  56
  18
 -37
 -29
 -10
 -49
  58
 -24
   1
  26
   4
 -52
  12
  70
 -40
  17
   8
   6
 -75
 -50
  36
   8
  54
   2
  70
  66
  34
  75
 -80
 -64
  72
 -13
  -7
 -39
 -15
  -1
  45
  44
 -52
  54
  47
  60
 -13
  14
  -9
  -2
 -21
 -36
  -3
  53
  48
  46
   2
 -54
   4
  12
 -28
  -9
  31
 -41
  41
 -48
 -66
 -37
 -19
  19
  -6
  64
   3
  25
 -17
  47
 -49
 -45
 -29
  28
   2
 -31
   7
  82
  14
  48
 -45
 -43
  65
 -73
  73
   7
  44
  34
  25
  38
 -67
 -55
  43
  -7
  -2
   8
  11
 -37
  35
  68
 -50
  50
  33
  16
 -18
 -43
 -65
  -7
 -76
  -9
 -30
  27
  14
  38
 -14
 -52
 -20
  -7
 -19
   1
  62
 -28
  59
  -9
 -26
 -37
 -20
 -21
  29
  37
 -46
  28
   2
  44
 -12
 -43
  14
  40
   3
 -70
  59
 -13
  75
   7
  25
  28
 -20
  57
 -74
  37
 -13
 -15
  16
 -18
 -14
  73
 -34
   8
  21
  79
  87
  18
 -73
 -69
  35
 -59
 -67
 -64
  10
  27
  12
  29
  -6
  36
 -41
 -70
  10
 -56
  58
  30
   4
 -81
  53
   9
 -56
  73
   8
   9
  35
   8
 -12
  37
  -7
 -37
  11
 -21
   7
  13
  60
  57
 -15
   3
  30
  24
  49
 -47
  10
 -30
  16
  22
 -36
   5
 -43
  21
 -32
 -37
 -23
 -50
  56
  86
 -62
   6
  41
  45
  31
  34
 -86
 -18
  25
  -1
 -61
 -58
   9
  -3
  47
 -37
  55
  27
  27
   2
 -59
-107
  13
  32
  15
 -34
  87
  38
  -6
  84
   9
  -4
  47
  63
   0
 -22
  -3
 -51
  55
 -41
  25
 -35
  19
  28
 -13
 -78
  -7
  -7
 -16
  29
 -13
  38
 -41
  28
  31
 -12
  58
 -45
  26
  70
 -22
  30
 -94
 -73
  49
  48
 -44
 -74
 -29
   3
  75
  74
 -35
  55
  73
  20
  25
  11
  -3
  -5
  -1
 -32
  44
  52
   7
  88
 -27
 -49
   3
  19
 -61
   2
  -6
 -82
  41
   3
 -35
 -28
 -31
 -20
  15
  26
   7
 -21
 -37
  13
 -47
 -56
  11
  75
  -4
 -63
 -38
  47
  -5
  -7
 -34
  16
  14
  18
   0
 -19
  56
  -7
 -24
  38
 -57
 -13
 -21
  18
 -17
 -41
  -1
 -38
  -2
 -29
 -39
  41
  28
  19
  32
 -33
 -21
 -43
  27
  -5
  -7
  32
   8
  40
  34
 -24
   2
   9
   2
 -12
 -27
 -19
  44
  33
 -61
 -43
 -26
  20
  33
  50
 -16
 -42
 -12
   9
   7
  18
  17
  23
  -9
   8
  31
  -1
  19
 -42
  57
  10
 -55
  33
  11
  13
 -44
 -42
   1
 -36
  30
  59
 -62
  14
  -6
  63
  11
  15
 -11
 -55
  34
 -45
   7
 -58
 -11
  65
 -21
 -28
 -23
 -20
  24
  18
  -3
 -46
 -20
   6
 -16
 -47
  38
  52
 -57
  -3
  20
  25
  26
  78
  28
  43
 -35
 -27
  25
 -59
  56
 -50
  17
  29
  27
 -62
  36
   7
 -13
  35
  10
  27
 -26
 -57
  54
 -35
 -16
  14
  33
  30
  -7
  21
-109
 -63
  54
  16
 -52
 -42
 -22
   1
  12
  49
 -47
  39
  49
   1
 -33
  -2
  13
  36
   5
 -53
   5
  49
 -14
 101
  21
 -51
  44
  10
 -43
  12
   0
 -16
  17
 -24
 -46
   2
 -33
   9
 -19
  13
 -51
  23
 -19
 -24
 -52
 -37
 -40
  29
 -10
  -4
  -6
  89
 -34
  20
 -18
 -10
  62
 -71
  69
 -49
  67
  58
  39
  14
 -43
 -66
  75
  17
 -23
 -31
   6
 -26
  73
  66
 -32
  69
  58
   1
 -53
  -5
 -64
 -33
 -47
 -21
 -16
 -10
  -7
  38
   8
  -6
  33
  33
 -74
 -45
  55
 -60
 -16
   0
 -29
 -66
 -72
  -4
  41
  42
 -43
 -18
 -13
  25
 -20
 -33
 -35
  54
 -42
 -93
   4
  71
 -18
  12
 -73
  17
  16
 -88
  36
 -56
  93
  35
  11
  56
 -38
 -73
  35
  54
 -47
 -55
 -21
 -37
  20
  17
  11
   5
  73
  11
  -6
 -71
 -49
  17
 -27
  -3
 -21
  53
  29
  43
 -12
 -70
   4
  48
 -60
 -61
  17
 -19
  -1
 -70
 -21
 -74
 -44
 -34
  74
  74
 -68
  36
 -14
  39
 -14
 -18
 -21
  88
 -20
 -83
 -30
  33
  13
  45
  -4
  11
  33
 -13
  54
  14
  51
  33
 -28
  81
 -71
  -5
  50
 -11
 -19
 -77
  13
  -8
  38
  50
 -21
 -11
  36
  28
  -1
 -27
  10
 -33
 -15
 -46
 -26
  48
  19
  65
 -39
 -34
  49
  50
 -54
 -40
  27
 -68
   3
 -19
 -53
 -26
 -29
 -53
   1
   1
  -9
  18
 -44
  33
  18
 -55
 -40
  24
 -58
 -21
 -67
   0
  -2
  21
 -33
 -22
  37
   8
  27
 -44
  68
  84
 -18
  12
 -45
 -75
  73
   8
 -53
 -19
  -4
   8
  40
  68
 -25
  26
  69
   2
 -21
 -49
 -43
 -10
 -13
  17
 -16
  10
  12
  68
  -2
 -55
  14
  82
 -20
  -6
  63
 -91
  45
 -27
 -36
 -41
 -19
  -5
   0
  17
 -14
 -27
 -49
 -11
 -50
 -62
 -14
  42
  -6
 -25
  48
 -44
  -6
 -47
  14
  -1
  -3
   8
 -65
  43
 -71
 -74
   1
 -50
  71
   9
 -45
 -38
  44
  52
  53
  34
 -51
 -71
  23
  13
 -71
 -13
  16
   3
  54
  40
  56
   3
 -42
  13
 -20
 -71
  10
 -19
  30
 -77
  38
  67
 -50
  74
 -45
  57
  54
  82
  39
  -3
 -54
   3
   3
 -16
  50
 -36
   9
  61
 -23
 -45
  33
   0
  35
 -39
  24
   5
  73
 -18
 -39
  62
 -33
  45
 -34
 -61
 -47
 -49
  40
  43
  13
   3
 -24
  54
  80
 -10
 -46
  -7
  80
 -56
 -72
 -71
  63
   7
  39
 -41
 107
 -12
  53
 -56
  -5
 -77
  -5
  35
  10
 -39
  42
  55
  -1
  45
 -14
  54
  29
  23
  28
   0
 -50
  -1
  12
  28
  21
 -47
  44
  -1
  38
 -41
  21
  44
  30
 -20
  50
 -23
  47
  31
  17
  20
 -14
 -51
 -53
 -14
 -53
  -1
  52
  10
 -16
 -14
  37
  17
 -17
  26
 -49
 -27
  34
   3
 -42
 -38
   1
  13
 -14
  22
  26
  36
  37
  -5
 -39
 -19
  -4
  -9
 -37
 -39
  31
  14
 -42
  49
 -23
 -21
 -23
  10
 -14
  45
 -11
 -68
  23
 -34
 -11
 -24
  39
 -23
  31
 -56
  31
  59
  26
  48
 -80
  -6
 -61
 -29
  10
 -43
  35
 -19
  12
  69
 -48
  27
 -14
 -73
  13
 -25
 -28
 -47
 -38
 -19
  32
  -1
  12
  61
  43
 -16
   5
 -65
 -16
 -15
  -1
  16
  38
  28
  31
  14
 -22
 -45
  20
  66
 -66
 -48
  59
  -2
 -15
 -56
  -8
 -50
 -31
 -37
  35
  33
 -30
  -5
 -24
   9
 -51
 -48
 -13
  36
  -1
 -46
  45
 -47
  22
   3
  31
  32
 -10
  42
   9
  33
 -28
 -45
 -35
 -61
 109
  24
 -48
 -29
 -10
  73
  56
 -20
 -21
 -52
  47
 -45
 -65
  12
  19
  61
  40
  14
 -12
  35
 -11
 -32
 -15
-100
  46
 -18
 -38
 -16
  45
  -3
   3
  83
 -17
   9
  11
  64
  65
  -7
 -52
   1
  20
  11
 -32
 -15
 -16
  -2
   8
 -68
  57
  11
 -39
  35
  14
  29
  -1
   9
  56
 -29
  13
 -35
  47
  -3
  38
  35
 -26
 -26
 -26
   0
   2
 -28
  10
  -6
  33
  14
  12
  -6
  10
  40
 -52
 -54
 -17
 -11
  24
  24
 -41
  11
   3
  58
 -46
   9
  -6
  73
 -52
 -54
   3
 -32
 -29
 -53
 -44
 -66
 -24
 -44
 -28
  28
 -45
 -30
  -9
   3
 -30
 -45
 -32
   9
 -50
 -37
